<?xml version="1.0" encoding="UTF-8" standalone="yes"?>
<PMML xmlns="http://www.dmg.org/PMML-4_4" xmlns:data="http://jpmml.org/jpmml-model/InlineTable" version="4.4">
	<Header>
		<Application name="R2PMML package" version="0.31.0"/>
		<Timestamp>2026-05-01T17:59:38Z</Timestamp>
	</Header>
	<DataDictionary>
		<DataField name="mpg" optype="continuous" dataType="double"/>
		<DataField name="cyl" optype="continuous" dataType="double"/>
		<DataField name="disp" optype="continuous" dataType="double"/>
		<DataField name="hp" optype="continuous" dataType="double"/>
		<DataField name="drat" optype="continuous" dataType="double"/>
		<DataField name="wt" optype="continuous" dataType="double"/>
		<DataField name="qsec" optype="continuous" dataType="double"/>
		<DataField name="vs" optype="continuous" dataType="double"/>
		<DataField name="am" optype="continuous" dataType="double"/>
		<DataField name="gear" optype="continuous" dataType="double"/>
		<DataField name="carb" optype="continuous" dataType="double"/>
	</DataDictionary>
	<MiningModel functionName="regression">
		<MiningSchema>
			<Extension name="X-FeatureImportances">
				<InlineTable>
					<Extension name="numberOfImportances" value="10"/>
					<Extension name="numberOfNonZeroImportances" value="10"/>
					<Extension name="sumOfImportances" value="1062.8135471726189"/>
					<Extension name="minImportance" value="20.050872236578478"/>
					<Extension name="maxImportance" value="271.1622783500992"/>
					<row>
						<data:name>am</data:name>
						<data:importance>20.48399694719972</data:importance>
					</row>
					<row>
						<data:name>wt</data:name>
						<data:importance>271.1622783500992</data:importance>
					</row>
					<row>
						<data:name>vs</data:name>
						<data:importance>27.43738725761291</data:importance>
					</row>
					<row>
						<data:name>gear</data:name>
						<data:importance>32.09260428684641</data:importance>
					</row>
					<row>
						<data:name>carb</data:name>
						<data:importance>26.553334574065417</data:importance>
					</row>
					<row>
						<data:name>qsec</data:name>
						<data:importance>20.050872236578478</data:importance>
					</row>
					<row>
						<data:name>disp</data:name>
						<data:importance>224.12552676967087</data:importance>
					</row>
					<row>
						<data:name>cyl</data:name>
						<data:importance>168.44892832118384</data:importance>
					</row>
					<row>
						<data:name>hp</data:name>
						<data:importance>214.5385676725977</data:importance>
					</row>
					<row>
						<data:name>drat</data:name>
						<data:importance>57.92005075676428</data:importance>
					</row>
				</InlineTable>
			</Extension>
			<MiningField name="mpg" usageType="target"/>
			<MiningField name="cyl" importance="168.44892832118384"/>
			<MiningField name="disp" importance="224.12552676967087"/>
			<MiningField name="hp" importance="214.5385676725977"/>
			<MiningField name="drat" importance="57.92005075676428"/>
			<MiningField name="wt" importance="271.1622783500992"/>
			<MiningField name="qsec" importance="20.050872236578478"/>
			<MiningField name="vs" importance="27.43738725761291"/>
			<MiningField name="am" importance="20.48399694719972"/>
			<MiningField name="gear" importance="32.09260428684641"/>
			<MiningField name="carb" importance="26.553334574065417"/>
		</MiningSchema>
		<Segmentation multipleModelMethod="average" missingPredictionTreatment="returnMissing">
			<Segment id="1">
				<True/>
				<TreeModel functionName="regression" missingValueStrategy="nullPrediction" splitCharacteristic="binarySplit">
					<MiningSchema>
						<MiningField name="cyl"/>
						<MiningField name="disp"/>
						<MiningField name="hp"/>
						<MiningField name="wt"/>
						<MiningField name="gear"/>
					</MiningSchema>
					<Node id="1">
						<True/>
						<Node id="2" score="31.28">
							<SimplePredicate field="wt" operator="lessOrEqual" value="2.3325"/>
						</Node>
						<Node id="3">
							<SimplePredicate field="wt" operator="greaterThan" value="2.3325"/>
							<Node id="4">
								<SimplePredicate field="cyl" operator="lessOrEqual" value="7.0"/>
								<Node id="6">
									<SimplePredicate field="wt" operator="lessOrEqual" value="3.3274999999999997"/>
									<Node id="10" score="24.4">
										<SimplePredicate field="hp" operator="lessOrEqual" value="79.5"/>
									</Node>
									<Node id="11">
										<SimplePredicate field="hp" operator="greaterThan" value="79.5"/>
										<Node id="14" score="21.466666666666665">
											<SimplePredicate field="cyl" operator="lessOrEqual" value="5.0"/>
										</Node>
										<Node id="15" score="21.133333333333333">
											<SimplePredicate field="cyl" operator="greaterThan" value="5.0"/>
										</Node>
									</Node>
								</Node>
								<Node id="7" score="18.733333333333334">
									<SimplePredicate field="wt" operator="greaterThan" value="3.3274999999999997"/>
								</Node>
							</Node>
							<Node id="5">
								<SimplePredicate field="cyl" operator="greaterThan" value="7.0"/>
								<Node id="8">
									<SimplePredicate field="disp" operator="lessOrEqual" value="456.0"/>
									<Node id="12">
										<SimplePredicate field="wt" operator="lessOrEqual" value="3.48"/>
										<Node id="16">
											<SimplePredicate field="disp" operator="lessOrEqual" value="355.5"/>
											<Node id="20" score="15.2">
												<SimplePredicate field="gear" operator="lessOrEqual" value="4.0"/>
											</Node>
											<Node id="21" score="15.8">
												<SimplePredicate field="gear" operator="greaterThan" value="4.0"/>
											</Node>
										</Node>
										<Node id="17" score="18.7">
											<SimplePredicate field="disp" operator="greaterThan" value="355.5"/>
										</Node>
									</Node>
									<Node id="13">
										<SimplePredicate field="wt" operator="greaterThan" value="3.48"/>
										<Node id="18" score="15.35">
											<SimplePredicate field="hp" operator="lessOrEqual" value="205.0"/>
										</Node>
										<Node id="19" score="14.94">
											<SimplePredicate field="hp" operator="greaterThan" value="205.0"/>
										</Node>
									</Node>
								</Node>
								<Node id="9" score="10.4">
									<SimplePredicate field="disp" operator="greaterThan" value="456.0"/>
								</Node>
							</Node>
						</Node>
					</Node>
				</TreeModel>
			</Segment>
			<Segment id="2">
				<True/>
				<TreeModel functionName="regression" missingValueStrategy="nullPrediction" splitCharacteristic="binarySplit">
					<MiningSchema>
						<MiningField name="cyl"/>
						<MiningField name="disp"/>
						<MiningField name="hp"/>
						<MiningField name="drat"/>
						<MiningField name="qsec"/>
						<MiningField name="am"/>
						<MiningField name="carb"/>
					</MiningSchema>
					<Node id="1">
						<True/>
						<Node id="2">
							<SimplePredicate field="am" operator="lessOrEqual" value="0.5"/>
							<Node id="4">
								<SimplePredicate field="hp" operator="lessOrEqual" value="136.5"/>
								<Node id="8" score="22.919999999999998">
									<SimplePredicate field="cyl" operator="lessOrEqual" value="5.0"/>
								</Node>
								<Node id="9" score="19.566666666666666">
									<SimplePredicate field="cyl" operator="greaterThan" value="5.0"/>
								</Node>
							</Node>
							<Node id="5">
								<SimplePredicate field="hp" operator="greaterThan" value="136.5"/>
								<Node id="10">
									<SimplePredicate field="disp" operator="lessOrEqual" value="450.0"/>
									<Node id="14">
										<SimplePredicate field="carb" operator="lessOrEqual" value="3.5"/>
										<Node id="16">
											<SimplePredicate field="drat" operator="lessOrEqual" value="3.11"/>
											<Node id="20" score="16.485714285714284">
												<SimplePredicate field="disp" operator="lessOrEqual" value="296.9"/>
											</Node>
											<Node id="21" score="15.5">
												<SimplePredicate field="disp" operator="greaterThan" value="296.9"/>
											</Node>
										</Node>
										<Node id="17" score="15.2">
											<SimplePredicate field="drat" operator="greaterThan" value="3.11"/>
										</Node>
									</Node>
									<Node id="15">
										<SimplePredicate field="carb" operator="greaterThan" value="3.5"/>
										<Node id="18" score="13.3">
											<SimplePredicate field="disp" operator="lessOrEqual" value="355.0"/>
										</Node>
										<Node id="19" score="14.5">
											<SimplePredicate field="disp" operator="greaterThan" value="355.0"/>
										</Node>
									</Node>
								</Node>
								<Node id="11" score="10.4">
									<SimplePredicate field="disp" operator="greaterThan" value="450.0"/>
								</Node>
							</Node>
						</Node>
						<Node id="3">
							<SimplePredicate field="am" operator="greaterThan" value="0.5"/>
							<Node id="6" score="26.0">
								<SimplePredicate field="qsec" operator="lessOrEqual" value="16.799999999999997"/>
							</Node>
							<Node id="7">
								<SimplePredicate field="qsec" operator="greaterThan" value="16.799999999999997"/>
								<Node id="12" score="33.9">
									<SimplePredicate field="disp" operator="lessOrEqual" value="73.4"/>
								</Node>
								<Node id="13" score="30.799999999999997">
									<SimplePredicate field="disp" operator="greaterThan" value="73.4"/>
								</Node>
							</Node>
						</Node>
					</Node>
				</TreeModel>
			</Segment>
			<Segment id="3">
				<True/>
				<TreeModel functionName="regression" missingValueStrategy="nullPrediction" splitCharacteristic="binarySplit">
					<MiningSchema>
						<MiningField name="disp"/>
						<MiningField name="hp"/>
						<MiningField name="drat"/>
						<MiningField name="wt"/>
						<MiningField name="qsec"/>
					</MiningSchema>
					<Node id="1">
						<True/>
						<Node id="2">
							<SimplePredicate field="disp" operator="lessOrEqual" value="266.9"/>
							<Node id="4">
								<SimplePredicate field="drat" operator="lessOrEqual" value="4.0"/>
								<Node id="8" score="23.275">
									<SimplePredicate field="disp" operator="lessOrEqual" value="153.35"/>
								</Node>
								<Node id="9">
									<SimplePredicate field="disp" operator="greaterThan" value="153.35"/>
									<Node id="14">
										<SimplePredicate field="qsec" operator="lessOrEqual" value="19.83"/>
										<Node id="18">
											<SimplePredicate field="hp" operator="lessOrEqual" value="116.5"/>
											<Node id="20" score="21.0">
												<SimplePredicate field="wt" operator="lessOrEqual" value="3.045"/>
											</Node>
											<Node id="21" score="21.4">
												<SimplePredicate field="wt" operator="greaterThan" value="3.045"/>
											</Node>
										</Node>
										<Node id="19" score="19.2">
											<SimplePredicate field="hp" operator="greaterThan" value="116.5"/>
										</Node>
									</Node>
									<Node id="15" score="18.1">
										<SimplePredicate field="qsec" operator="greaterThan" value="19.83"/>
									</Node>
								</Node>
							</Node>
							<Node id="5">
								<SimplePredicate field="drat" operator="greaterThan" value="4.0"/>
								<Node id="10" score="26.78">
									<SimplePredicate field="wt" operator="lessOrEqual" value="2.46"/>
								</Node>
								<Node id="11" score="21.4">
									<SimplePredicate field="wt" operator="greaterThan" value="2.46"/>
								</Node>
							</Node>
						</Node>
						<Node id="3">
							<SimplePredicate field="disp" operator="greaterThan" value="266.9"/>
							<Node id="6">
								<SimplePredicate field="disp" operator="lessOrEqual" value="430.0"/>
								<Node id="12">
									<SimplePredicate field="drat" operator="lessOrEqual" value="3.115"/>
									<Node id="16" score="16.4">
										<SimplePredicate field="disp" operator="lessOrEqual" value="359.0"/>
									</Node>
									<Node id="17" score="19.2">
										<SimplePredicate field="disp" operator="greaterThan" value="359.0"/>
									</Node>
								</Node>
								<Node id="13" score="14.766666666666666">
									<SimplePredicate field="drat" operator="greaterThan" value="3.115"/>
								</Node>
							</Node>
							<Node id="7" score="10.4">
								<SimplePredicate field="disp" operator="greaterThan" value="430.0"/>
							</Node>
						</Node>
					</Node>
				</TreeModel>
			</Segment>
			<Segment id="4">
				<True/>
				<TreeModel functionName="regression" missingValueStrategy="nullPrediction" splitCharacteristic="binarySplit">
					<MiningSchema>
						<MiningField name="cyl"/>
						<MiningField name="disp"/>
						<MiningField name="drat"/>
						<MiningField name="wt"/>
						<MiningField name="qsec"/>
						<MiningField name="vs"/>
						<MiningField name="am"/>
						<MiningField name="carb"/>
					</MiningSchema>
					<Node id="1">
						<True/>
						<Node id="2">
							<SimplePredicate field="disp" operator="lessOrEqual" value="153.35"/>
							<Node id="4" score="24.4">
								<SimplePredicate field="am" operator="lessOrEqual" value="0.5"/>
							</Node>
							<Node id="5">
								<SimplePredicate field="am" operator="greaterThan" value="0.5"/>
								<Node id="8" score="27.375">
									<SimplePredicate field="drat" operator="lessOrEqual" value="4.165"/>
								</Node>
								<Node id="9" score="31.566666666666663">
									<SimplePredicate field="drat" operator="greaterThan" value="4.165"/>
								</Node>
							</Node>
						</Node>
						<Node id="3">
							<SimplePredicate field="disp" operator="greaterThan" value="153.35"/>
							<Node id="6">
								<SimplePredicate field="vs" operator="lessOrEqual" value="0.5"/>
								<Node id="10">
									<SimplePredicate field="qsec" operator="lessOrEqual" value="17.71"/>
									<Node id="14" score="21.0">
										<SimplePredicate field="cyl" operator="lessOrEqual" value="7.0"/>
									</Node>
									<Node id="15">
										<SimplePredicate field="cyl" operator="greaterThan" value="7.0"/>
										<Node id="16" score="14.58">
											<SimplePredicate field="qsec" operator="lessOrEqual" value="16.945"/>
										</Node>
										<Node id="17">
											<SimplePredicate field="qsec" operator="greaterThan" value="16.945"/>
											<Node id="18">
												<SimplePredicate field="drat" operator="lessOrEqual" value="3.19"/>
												<Node id="20" score="15.2">
													<SimplePredicate field="wt" operator="lessOrEqual" value="3.4375"/>
												</Node>
												<Node id="21">
													<SimplePredicate field="wt" operator="greaterThan" value="3.4375"/>
													<Node id="22" score="18.866666666666667">
														<SimplePredicate field="carb" operator="lessOrEqual" value="2.5"/>
													</Node>
													<Node id="23" score="16.7">
														<SimplePredicate field="carb" operator="greaterThan" value="2.5"/>
													</Node>
												</Node>
											</Node>
											<Node id="19" score="14.7">
												<SimplePredicate field="drat" operator="greaterThan" value="3.19"/>
											</Node>
										</Node>
									</Node>
								</Node>
								<Node id="11" score="10.4">
									<SimplePredicate field="qsec" operator="greaterThan" value="17.71"/>
								</Node>
							</Node>
							<Node id="7">
								<SimplePredicate field="vs" operator="greaterThan" value="0.5"/>
								<Node id="12" score="19.95">
									<SimplePredicate field="qsec" operator="lessOrEqual" value="19.83"/>
								</Node>
								<Node id="13" score="18.1">
									<SimplePredicate field="qsec" operator="greaterThan" value="19.83"/>
								</Node>
							</Node>
						</Node>
					</Node>
				</TreeModel>
			</Segment>
			<Segment id="5">
				<True/>
				<TreeModel functionName="regression" missingValueStrategy="nullPrediction" splitCharacteristic="binarySplit">
					<MiningSchema>
						<MiningField name="disp"/>
						<MiningField name="hp"/>
						<MiningField name="wt"/>
						<MiningField name="vs"/>
						<MiningField name="carb"/>
					</MiningSchema>
					<Node id="1">
						<True/>
						<Node id="2">
							<SimplePredicate field="disp" operator="lessOrEqual" value="120.65"/>
							<Node id="4" score="26.0">
								<SimplePredicate field="vs" operator="lessOrEqual" value="0.5"/>
							</Node>
							<Node id="5">
								<SimplePredicate field="vs" operator="greaterThan" value="0.5"/>
								<Node id="8" score="28.725">
									<SimplePredicate field="carb" operator="lessOrEqual" value="1.5"/>
								</Node>
								<Node id="9" score="30.4">
									<SimplePredicate field="carb" operator="greaterThan" value="1.5"/>
								</Node>
							</Node>
						</Node>
						<Node id="3">
							<SimplePredicate field="disp" operator="greaterThan" value="120.65"/>
							<Node id="6">
								<SimplePredicate field="hp" operator="lessOrEqual" value="136.5"/>
								<Node id="10" score="21.24">
									<SimplePredicate field="hp" operator="lessOrEqual" value="116.5"/>
								</Node>
								<Node id="11" score="18.5">
									<SimplePredicate field="hp" operator="greaterThan" value="116.5"/>
								</Node>
							</Node>
							<Node id="7">
								<SimplePredicate field="hp" operator="greaterThan" value="136.5"/>
								<Node id="12">
									<SimplePredicate field="carb" operator="lessOrEqual" value="3.5"/>
									<Node id="14" score="16.675">
										<SimplePredicate field="wt" operator="lessOrEqual" value="3.755"/>
									</Node>
									<Node id="15" score="15.599999999999998">
										<SimplePredicate field="wt" operator="greaterThan" value="3.755"/>
									</Node>
								</Node>
								<Node id="13">
									<SimplePredicate field="carb" operator="greaterThan" value="3.5"/>
									<Node id="16">
										<SimplePredicate field="disp" operator="lessOrEqual" value="450.0"/>
										<Node id="18" score="15.64">
											<SimplePredicate field="disp" operator="lessOrEqual" value="395.5"/>
										</Node>
										<Node id="19" score="14.7">
											<SimplePredicate field="disp" operator="greaterThan" value="395.5"/>
										</Node>
									</Node>
									<Node id="17" score="10.4">
										<SimplePredicate field="disp" operator="greaterThan" value="450.0"/>
									</Node>
								</Node>
							</Node>
						</Node>
					</Node>
				</TreeModel>
			</Segment>
			<Segment id="6">
				<True/>
				<TreeModel functionName="regression" missingValueStrategy="nullPrediction" splitCharacteristic="binarySplit">
					<MiningSchema>
						<MiningField name="cyl"/>
						<MiningField name="hp"/>
						<MiningField name="wt"/>
						<MiningField name="vs"/>
						<MiningField name="gear"/>
						<MiningField name="carb"/>
					</MiningSchema>
					<Node id="1">
						<True/>
						<Node id="2">
							<SimplePredicate field="wt" operator="lessOrEqual" value="2.3325"/>
							<Node id="4" score="26.0">
								<SimplePredicate field="vs" operator="lessOrEqual" value="0.5"/>
							</Node>
							<Node id="5">
								<SimplePredicate field="vs" operator="greaterThan" value="0.5"/>
								<Node id="8" score="31.9">
									<SimplePredicate field="gear" operator="lessOrEqual" value="4.5"/>
								</Node>
								<Node id="9" score="30.4">
									<SimplePredicate field="gear" operator="greaterThan" value="4.5"/>
								</Node>
							</Node>
						</Node>
						<Node id="3">
							<SimplePredicate field="wt" operator="greaterThan" value="2.3325"/>
							<Node id="6">
								<SimplePredicate field="cyl" operator="lessOrEqual" value="7.0"/>
								<Node id="10">
									<SimplePredicate field="wt" operator="lessOrEqual" value="3.3274999999999997"/>
									<Node id="14" score="21.25">
										<SimplePredicate field="wt" operator="lessOrEqual" value="3.0125"/>
									</Node>
									<Node id="15" score="22.333333333333332">
										<SimplePredicate field="wt" operator="greaterThan" value="3.0125"/>
									</Node>
								</Node>
								<Node id="11" score="18.26">
									<SimplePredicate field="wt" operator="greaterThan" value="3.3274999999999997"/>
								</Node>
							</Node>
							<Node id="7">
								<SimplePredicate field="cyl" operator="greaterThan" value="7.0"/>
								<Node id="12" score="16.56">
									<SimplePredicate field="carb" operator="lessOrEqual" value="3.5"/>
								</Node>
								<Node id="13">
									<SimplePredicate field="carb" operator="greaterThan" value="3.5"/>
									<Node id="16" score="10.4">
										<SimplePredicate field="hp" operator="lessOrEqual" value="222.5"/>
									</Node>
									<Node id="17" score="14.620000000000001">
										<SimplePredicate field="hp" operator="greaterThan" value="222.5"/>
									</Node>
								</Node>
							</Node>
						</Node>
					</Node>
				</TreeModel>
			</Segment>
			<Segment id="7">
				<True/>
				<TreeModel functionName="regression" missingValueStrategy="nullPrediction" splitCharacteristic="binarySplit">
					<MiningSchema>
						<MiningField name="cyl"/>
						<MiningField name="disp"/>
						<MiningField name="hp"/>
						<MiningField name="wt"/>
						<MiningField name="qsec"/>
					</MiningSchema>
					<Node id="1">
						<True/>
						<Node id="2">
							<SimplePredicate field="hp" operator="lessOrEqual" value="116.5"/>
							<Node id="4" score="32.233333333333334">
								<SimplePredicate field="hp" operator="lessOrEqual" value="79.5"/>
							</Node>
							<Node id="5">
								<SimplePredicate field="hp" operator="greaterThan" value="79.5"/>
								<Node id="8" score="22.52">
									<SimplePredicate field="disp" operator="lessOrEqual" value="150.4"/>
								</Node>
								<Node id="9" score="21.1">
									<SimplePredicate field="disp" operator="greaterThan" value="150.4"/>
								</Node>
							</Node>
						</Node>
						<Node id="3">
							<SimplePredicate field="hp" operator="greaterThan" value="116.5"/>
							<Node id="6">
								<SimplePredicate field="wt" operator="lessOrEqual" value="4.66"/>
								<Node id="10" score="14.58">
									<SimplePredicate field="qsec" operator="lessOrEqual" value="16.945"/>
								</Node>
								<Node id="11">
									<SimplePredicate field="qsec" operator="greaterThan" value="16.945"/>
									<Node id="12" score="18.866666666666667">
										<SimplePredicate field="qsec" operator="lessOrEqual" value="17.175"/>
									</Node>
									<Node id="13">
										<SimplePredicate field="qsec" operator="greaterThan" value="17.175"/>
										<Node id="14" score="18.733333333333334">
											<SimplePredicate field="cyl" operator="lessOrEqual" value="7.0"/>
										</Node>
										<Node id="15" score="15.919999999999998">
											<SimplePredicate field="cyl" operator="greaterThan" value="7.0"/>
										</Node>
									</Node>
								</Node>
							</Node>
							<Node id="7" score="10.4">
								<SimplePredicate field="wt" operator="greaterThan" value="4.66"/>
							</Node>
						</Node>
					</Node>
				</TreeModel>
			</Segment>
			<Segment id="8">
				<True/>
				<TreeModel functionName="regression" missingValueStrategy="nullPrediction" splitCharacteristic="binarySplit">
					<MiningSchema>
						<MiningField name="disp"/>
						<MiningField name="hp"/>
						<MiningField name="drat"/>
						<MiningField name="wt"/>
						<MiningField name="gear"/>
					</MiningSchema>
					<Node id="1">
						<True/>
						<Node id="2">
							<SimplePredicate field="disp" operator="lessOrEqual" value="140.15"/>
							<Node id="4">
								<SimplePredicate field="wt" operator="lessOrEqual" value="2.26"/>
								<Node id="8">
									<SimplePredicate field="drat" operator="lessOrEqual" value="4.324999999999999"/>
									<Node id="12" score="30.659999999999997">
										<SimplePredicate field="gear" operator="lessOrEqual" value="4.5"/>
									</Node>
									<Node id="13" score="30.4">
										<SimplePredicate field="gear" operator="greaterThan" value="4.5"/>
									</Node>
								</Node>
								<Node id="9" score="29.299999999999997">
									<SimplePredicate field="drat" operator="greaterThan" value="4.324999999999999"/>
								</Node>
							</Node>
							<Node id="5" score="22.8">
								<SimplePredicate field="wt" operator="greaterThan" value="2.26"/>
							</Node>
						</Node>
						<Node id="3">
							<SimplePredicate field="disp" operator="greaterThan" value="140.15"/>
							<Node id="6" score="21.0">
								<SimplePredicate field="hp" operator="lessOrEqual" value="116.5"/>
							</Node>
							<Node id="7">
								<SimplePredicate field="hp" operator="greaterThan" value="116.5"/>
								<Node id="10">
									<SimplePredicate field="gear" operator="lessOrEqual" value="4.5"/>
									<Node id="14">
										<SimplePredicate field="hp" operator="lessOrEqual" value="205.0"/>
										<Node id="16" score="16.22">
											<SimplePredicate field="drat" operator="lessOrEqual" value="3.075"/>
										</Node>
										<Node id="17">
											<SimplePredicate field="drat" operator="greaterThan" value="3.075"/>
											<Node id="18" score="16.933333333333334">
												<SimplePredicate field="hp" operator="lessOrEqual" value="162.5"/>
											</Node>
											<Node id="19" score="19.03333333333333">
												<SimplePredicate field="hp" operator="greaterThan" value="162.5"/>
											</Node>
										</Node>
									</Node>
									<Node id="15" score="14.5">
										<SimplePredicate field="hp" operator="greaterThan" value="205.0"/>
									</Node>
								</Node>
								<Node id="11" score="15.4">
									<SimplePredicate field="gear" operator="greaterThan" value="4.5"/>
								</Node>
							</Node>
						</Node>
					</Node>
				</TreeModel>
			</Segment>
			<Segment id="9">
				<True/>
				<TreeModel functionName="regression" missingValueStrategy="nullPrediction" splitCharacteristic="binarySplit">
					<MiningSchema>
						<MiningField name="disp"/>
						<MiningField name="hp"/>
						<MiningField name="drat"/>
						<MiningField name="wt"/>
						<MiningField name="qsec"/>
						<MiningField name="vs"/>
						<MiningField name="carb"/>
					</MiningSchema>
					<Node id="1">
						<True/>
						<Node id="2">
							<SimplePredicate field="hp" operator="lessOrEqual" value="118.0"/>
							<Node id="4">
								<SimplePredicate field="drat" operator="lessOrEqual" value="4.0"/>
								<Node id="8" score="21.0">
									<SimplePredicate field="vs" operator="lessOrEqual" value="0.5"/>
								</Node>
								<Node id="9">
									<SimplePredicate field="vs" operator="greaterThan" value="0.5"/>
									<Node id="16" score="30.4">
										<SimplePredicate field="disp" operator="lessOrEqual" value="101.55"/>
									</Node>
									<Node id="17">
										<SimplePredicate field="disp" operator="greaterThan" value="101.55"/>
										<Node id="20" score="24.0">
											<SimplePredicate field="qsec" operator="lessOrEqual" value="21.45"/>
										</Node>
										<Node id="21" score="22.8">
											<SimplePredicate field="qsec" operator="greaterThan" value="21.45"/>
										</Node>
									</Node>
								</Node>
							</Node>
							<Node id="5">
								<SimplePredicate field="drat" operator="greaterThan" value="4.0"/>
								<Node id="10">
									<SimplePredicate field="carb" operator="lessOrEqual" value="1.5"/>
									<Node id="18" score="32.4">
										<SimplePredicate field="drat" operator="lessOrEqual" value="4.15"/>
									</Node>
									<Node id="19" score="33.9">
										<SimplePredicate field="drat" operator="greaterThan" value="4.15"/>
									</Node>
								</Node>
								<Node id="11" score="24.466666666666665">
									<SimplePredicate field="carb" operator="greaterThan" value="1.5"/>
								</Node>
							</Node>
						</Node>
						<Node id="3">
							<SimplePredicate field="hp" operator="greaterThan" value="118.0"/>
							<Node id="6">
								<SimplePredicate field="hp" operator="lessOrEqual" value="192.5"/>
								<Node id="12" score="17.95">
									<SimplePredicate field="wt" operator="lessOrEqual" value="3.48"/>
								</Node>
								<Node id="13" score="16.0">
									<SimplePredicate field="wt" operator="greaterThan" value="3.48"/>
								</Node>
							</Node>
							<Node id="7">
								<SimplePredicate field="hp" operator="greaterThan" value="192.5"/>
								<Node id="14" score="10.4">
									<SimplePredicate field="hp" operator="lessOrEqual" value="217.5"/>
								</Node>
								<Node id="15" score="14.600000000000001">
									<SimplePredicate field="hp" operator="greaterThan" value="217.5"/>
								</Node>
							</Node>
						</Node>
					</Node>
				</TreeModel>
			</Segment>
			<Segment id="10">
				<True/>
				<TreeModel functionName="regression" missingValueStrategy="nullPrediction" splitCharacteristic="binarySplit">
					<MiningSchema>
						<MiningField name="cyl"/>
						<MiningField name="disp"/>
						<MiningField name="hp"/>
						<MiningField name="drat"/>
						<MiningField name="wt"/>
						<MiningField name="qsec"/>
					</MiningSchema>
					<Node id="1">
						<True/>
						<Node id="2">
							<SimplePredicate field="disp" operator="lessOrEqual" value="266.9"/>
							<Node id="4" score="30.125">
								<SimplePredicate field="wt" operator="lessOrEqual" value="2.26"/>
							</Node>
							<Node id="5">
								<SimplePredicate field="wt" operator="greaterThan" value="2.26"/>
								<Node id="8">
									<SimplePredicate field="cyl" operator="lessOrEqual" value="5.0"/>
									<Node id="14" score="22.0">
										<SimplePredicate field="disp" operator="lessOrEqual" value="133.85"/>
									</Node>
									<Node id="15" score="24.4">
										<SimplePredicate field="disp" operator="greaterThan" value="133.85"/>
									</Node>
								</Node>
								<Node id="9" score="20.54">
									<SimplePredicate field="cyl" operator="greaterThan" value="5.0"/>
								</Node>
							</Node>
						</Node>
						<Node id="3">
							<SimplePredicate field="disp" operator="greaterThan" value="266.9"/>
							<Node id="6">
								<SimplePredicate field="hp" operator="lessOrEqual" value="192.5"/>
								<Node id="10" score="15.35">
									<SimplePredicate field="hp" operator="lessOrEqual" value="162.5"/>
								</Node>
								<Node id="11">
									<SimplePredicate field="hp" operator="greaterThan" value="162.5"/>
									<Node id="16" score="16.8">
										<SimplePredicate field="disp" operator="lessOrEqual" value="317.9"/>
									</Node>
									<Node id="17" score="18.7">
										<SimplePredicate field="disp" operator="greaterThan" value="317.9"/>
									</Node>
								</Node>
							</Node>
							<Node id="7">
								<SimplePredicate field="hp" operator="greaterThan" value="192.5"/>
								<Node id="12" score="10.4">
									<SimplePredicate field="drat" operator="lessOrEqual" value="3.0700000000000003"/>
								</Node>
								<Node id="13">
									<SimplePredicate field="drat" operator="greaterThan" value="3.0700000000000003"/>
									<Node id="18" score="13.3">
										<SimplePredicate field="qsec" operator="lessOrEqual" value="15.625"/>
									</Node>
									<Node id="19" score="14.38">
										<SimplePredicate field="qsec" operator="greaterThan" value="15.625"/>
									</Node>
								</Node>
							</Node>
						</Node>
					</Node>
				</TreeModel>
			</Segment>
			<Segment id="11">
				<True/>
				<TreeModel functionName="regression" missingValueStrategy="nullPrediction" splitCharacteristic="binarySplit">
					<MiningSchema>
						<MiningField name="cyl"/>
						<MiningField name="disp"/>
						<MiningField name="drat"/>
						<MiningField name="qsec"/>
						<MiningField name="carb"/>
					</MiningSchema>
					<Node id="1">
						<True/>
						<Node id="2">
							<SimplePredicate field="cyl" operator="lessOrEqual" value="5.0"/>
							<Node id="4" score="33.0">
								<SimplePredicate field="carb" operator="lessOrEqual" value="1.5"/>
							</Node>
							<Node id="5">
								<SimplePredicate field="carb" operator="greaterThan" value="1.5"/>
								<Node id="8">
									<SimplePredicate field="qsec" operator="lessOrEqual" value="20.71"/>
									<Node id="12">
										<SimplePredicate field="drat" operator="lessOrEqual" value="4.68"/>
										<Node id="16" score="26.0">
											<SimplePredicate field="qsec" operator="lessOrEqual" value="16.799999999999997"/>
										</Node>
										<Node id="17" score="30.4">
											<SimplePredicate field="qsec" operator="greaterThan" value="16.799999999999997"/>
										</Node>
									</Node>
									<Node id="13" score="30.4">
										<SimplePredicate field="drat" operator="greaterThan" value="4.68"/>
									</Node>
								</Node>
								<Node id="9" score="22.8">
									<SimplePredicate field="qsec" operator="greaterThan" value="20.71"/>
								</Node>
							</Node>
						</Node>
						<Node id="3">
							<SimplePredicate field="cyl" operator="greaterThan" value="5.0"/>
							<Node id="6">
								<SimplePredicate field="drat" operator="lessOrEqual" value="3.815"/>
								<Node id="10">
									<SimplePredicate field="disp" operator="lessOrEqual" value="450.0"/>
									<Node id="14" score="17.7">
										<SimplePredicate field="carb" operator="lessOrEqual" value="3.5"/>
									</Node>
									<Node id="15">
										<SimplePredicate field="carb" operator="greaterThan" value="3.5"/>
										<Node id="18" score="13.3">
											<SimplePredicate field="disp" operator="lessOrEqual" value="355.0"/>
										</Node>
										<Node id="19" score="14.5">
											<SimplePredicate field="disp" operator="greaterThan" value="355.0"/>
										</Node>
									</Node>
								</Node>
								<Node id="11" score="10.4">
									<SimplePredicate field="disp" operator="greaterThan" value="450.0"/>
								</Node>
							</Node>
							<Node id="7" score="19.8">
								<SimplePredicate field="drat" operator="greaterThan" value="3.815"/>
							</Node>
						</Node>
					</Node>
				</TreeModel>
			</Segment>
			<Segment id="12">
				<True/>
				<TreeModel functionName="regression" missingValueStrategy="nullPrediction" splitCharacteristic="binarySplit">
					<MiningSchema>
						<MiningField name="disp"/>
						<MiningField name="wt"/>
						<MiningField name="qsec"/>
						<MiningField name="vs"/>
						<MiningField name="gear"/>
					</MiningSchema>
					<Node id="1">
						<True/>
						<Node id="2">
							<SimplePredicate field="gear" operator="lessOrEqual" value="3.5"/>
							<Node id="4">
								<SimplePredicate field="vs" operator="lessOrEqual" value="0.5"/>
								<Node id="8">
									<SimplePredicate field="disp" operator="lessOrEqual" value="430.0"/>
									<Node id="12" score="15.016666666666666">
										<SimplePredicate field="wt" operator="lessOrEqual" value="3.8425000000000002"/>
									</Node>
									<Node id="13" score="19.2">
										<SimplePredicate field="wt" operator="greaterThan" value="3.8425000000000002"/>
									</Node>
								</Node>
								<Node id="9" score="10.4">
									<SimplePredicate field="disp" operator="greaterThan" value="430.0"/>
								</Node>
							</Node>
							<Node id="5" score="18.1">
								<SimplePredicate field="vs" operator="greaterThan" value="0.5"/>
							</Node>
						</Node>
						<Node id="3">
							<SimplePredicate field="gear" operator="greaterThan" value="3.5"/>
							<Node id="6" score="31.0">
								<SimplePredicate field="wt" operator="lessOrEqual" value="2.26"/>
							</Node>
							<Node id="7">
								<SimplePredicate field="wt" operator="greaterThan" value="2.26"/>
								<Node id="10">
									<SimplePredicate field="wt" operator="lessOrEqual" value="3.315"/>
									<Node id="14" score="20.82">
										<SimplePredicate field="qsec" operator="lessOrEqual" value="18.605"/>
									</Node>
									<Node id="15">
										<SimplePredicate field="qsec" operator="greaterThan" value="18.605"/>
										<Node id="16" score="22.8">
											<SimplePredicate field="disp" operator="lessOrEqual" value="127.35"/>
										</Node>
										<Node id="17" score="24.4">
											<SimplePredicate field="disp" operator="greaterThan" value="127.35"/>
										</Node>
									</Node>
								</Node>
								<Node id="11" score="16.75">
									<SimplePredicate field="wt" operator="greaterThan" value="3.315"/>
								</Node>
							</Node>
						</Node>
					</Node>
				</TreeModel>
			</Segment>
			<Segment id="13">
				<True/>
				<TreeModel functionName="regression" missingValueStrategy="nullPrediction" splitCharacteristic="binarySplit">
					<MiningSchema>
						<MiningField name="disp"/>
						<MiningField name="hp"/>
						<MiningField name="drat"/>
						<MiningField name="wt"/>
						<MiningField name="qsec"/>
					</MiningSchema>
					<Node id="1">
						<True/>
						<Node id="2">
							<SimplePredicate field="hp" operator="lessOrEqual" value="131.5"/>
							<Node id="4" score="30.619999999999997">
								<SimplePredicate field="wt" operator="lessOrEqual" value="2.3325"/>
							</Node>
							<Node id="5">
								<SimplePredicate field="wt" operator="greaterThan" value="2.3325"/>
								<Node id="8" score="24.4">
									<SimplePredicate field="hp" operator="lessOrEqual" value="79.5"/>
								</Node>
								<Node id="9" score="21.1">
									<SimplePredicate field="hp" operator="greaterThan" value="79.5"/>
								</Node>
							</Node>
						</Node>
						<Node id="3">
							<SimplePredicate field="hp" operator="greaterThan" value="131.5"/>
							<Node id="6">
								<SimplePredicate field="qsec" operator="lessOrEqual" value="17.990000000000002"/>
								<Node id="10">
									<SimplePredicate field="disp" operator="lessOrEqual" value="416.0"/>
									<Node id="12">
										<SimplePredicate field="qsec" operator="lessOrEqual" value="17.450000000000003"/>
										<Node id="14">
											<SimplePredicate field="wt" operator="lessOrEqual" value="3.705"/>
											<Node id="16" score="14.98">
												<SimplePredicate field="drat" operator="lessOrEqual" value="3.88"/>
											</Node>
											<Node id="17" score="15.8">
												<SimplePredicate field="drat" operator="greaterThan" value="3.88"/>
											</Node>
										</Node>
										<Node id="15" score="13.3">
											<SimplePredicate field="wt" operator="greaterThan" value="3.705"/>
										</Node>
									</Node>
									<Node id="13" score="17.3">
										<SimplePredicate field="qsec" operator="greaterThan" value="17.450000000000003"/>
									</Node>
								</Node>
								<Node id="11" score="10.4">
									<SimplePredicate field="disp" operator="greaterThan" value="416.0"/>
								</Node>
							</Node>
							<Node id="7" score="15.2">
								<SimplePredicate field="qsec" operator="greaterThan" value="17.990000000000002"/>
							</Node>
						</Node>
					</Node>
				</TreeModel>
			</Segment>
			<Segment id="14">
				<True/>
				<TreeModel functionName="regression" missingValueStrategy="nullPrediction" splitCharacteristic="binarySplit">
					<MiningSchema>
						<MiningField name="disp"/>
						<MiningField name="hp"/>
						<MiningField name="drat"/>
						<MiningField name="wt"/>
						<MiningField name="qsec"/>
						<MiningField name="gear"/>
					</MiningSchema>
					<Node id="1">
						<True/>
						<Node id="2">
							<SimplePredicate field="hp" operator="lessOrEqual" value="144.0"/>
							<Node id="4">
								<SimplePredicate field="hp" operator="lessOrEqual" value="93.0"/>
								<Node id="8" score="32.15">
									<SimplePredicate field="wt" operator="lessOrEqual" value="1.885"/>
								</Node>
								<Node id="9" score="26.975">
									<SimplePredicate field="wt" operator="greaterThan" value="1.885"/>
								</Node>
							</Node>
							<Node id="5">
								<SimplePredicate field="hp" operator="greaterThan" value="93.0"/>
								<Node id="10">
									<SimplePredicate field="gear" operator="lessOrEqual" value="4.5"/>
									<Node id="14" score="18.1">
										<SimplePredicate field="drat" operator="lessOrEqual" value="2.92"/>
									</Node>
									<Node id="15">
										<SimplePredicate field="drat" operator="greaterThan" value="2.92"/>
										<Node id="20" score="21.424999999999997">
											<SimplePredicate field="gear" operator="lessOrEqual" value="3.5"/>
										</Node>
										<Node id="21" score="22.2">
											<SimplePredicate field="gear" operator="greaterThan" value="3.5"/>
										</Node>
									</Node>
								</Node>
								<Node id="11" score="30.4">
									<SimplePredicate field="gear" operator="greaterThan" value="4.5"/>
								</Node>
							</Node>
						</Node>
						<Node id="3">
							<SimplePredicate field="hp" operator="greaterThan" value="144.0"/>
							<Node id="6">
								<SimplePredicate field="wt" operator="lessOrEqual" value="4.66"/>
								<Node id="12">
									<SimplePredicate field="qsec" operator="lessOrEqual" value="16.23"/>
									<Node id="16" score="13.3">
										<SimplePredicate field="hp" operator="lessOrEqual" value="254.5"/>
									</Node>
									<Node id="17" score="15.48">
										<SimplePredicate field="hp" operator="greaterThan" value="254.5"/>
									</Node>
								</Node>
								<Node id="13">
									<SimplePredicate field="qsec" operator="greaterThan" value="16.23"/>
									<Node id="18" score="16.55">
										<SimplePredicate field="disp" operator="lessOrEqual" value="337.9"/>
									</Node>
									<Node id="19" score="19.2">
										<SimplePredicate field="disp" operator="greaterThan" value="337.9"/>
									</Node>
								</Node>
							</Node>
							<Node id="7" score="11.833333333333334">
								<SimplePredicate field="wt" operator="greaterThan" value="4.66"/>
							</Node>
						</Node>
					</Node>
				</TreeModel>
			</Segment>
			<Segment id="15">
				<True/>
				<TreeModel functionName="regression" missingValueStrategy="nullPrediction" splitCharacteristic="binarySplit">
					<MiningSchema>
						<MiningField name="cyl"/>
						<MiningField name="wt"/>
						<MiningField name="qsec"/>
						<MiningField name="gear"/>
					</MiningSchema>
					<Node id="1">
						<True/>
						<Node id="2">
							<SimplePredicate field="cyl" operator="lessOrEqual" value="5.0"/>
							<Node id="4" score="28.0">
								<SimplePredicate field="qsec" operator="lessOrEqual" value="19.95"/>
							</Node>
							<Node id="5">
								<SimplePredicate field="qsec" operator="greaterThan" value="19.95"/>
								<Node id="8" score="21.5">
									<SimplePredicate field="gear" operator="lessOrEqual" value="3.5"/>
								</Node>
								<Node id="9" score="23.2">
									<SimplePredicate field="gear" operator="greaterThan" value="3.5"/>
								</Node>
							</Node>
						</Node>
						<Node id="3">
							<SimplePredicate field="cyl" operator="greaterThan" value="5.0"/>
							<Node id="6" score="19.32">
								<SimplePredicate field="cyl" operator="lessOrEqual" value="7.0"/>
							</Node>
							<Node id="7">
								<SimplePredicate field="cyl" operator="greaterThan" value="7.0"/>
								<Node id="10">
									<SimplePredicate field="qsec" operator="lessOrEqual" value="17.71"/>
									<Node id="12" score="15.5">
										<SimplePredicate field="wt" operator="lessOrEqual" value="3.4375"/>
									</Node>
									<Node id="13">
										<SimplePredicate field="wt" operator="greaterThan" value="3.4375"/>
										<Node id="14">
											<SimplePredicate field="gear" operator="lessOrEqual" value="4.0"/>
											<Node id="16" score="18.7">
												<SimplePredicate field="wt" operator="lessOrEqual" value="3.48"/>
											</Node>
											<Node id="17" score="16.22">
												<SimplePredicate field="wt" operator="greaterThan" value="3.48"/>
											</Node>
										</Node>
										<Node id="15" score="15.0">
											<SimplePredicate field="gear" operator="greaterThan" value="4.0"/>
										</Node>
									</Node>
								</Node>
								<Node id="11" score="11.36">
									<SimplePredicate field="qsec" operator="greaterThan" value="17.71"/>
								</Node>
							</Node>
						</Node>
					</Node>
				</TreeModel>
			</Segment>
			<Segment id="16">
				<True/>
				<TreeModel functionName="regression" missingValueStrategy="nullPrediction" splitCharacteristic="binarySplit">
					<MiningSchema>
						<MiningField name="disp"/>
						<MiningField name="hp"/>
						<MiningField name="drat"/>
						<MiningField name="wt"/>
						<MiningField name="qsec"/>
						<MiningField name="gear"/>
					</MiningSchema>
					<Node id="1">
						<True/>
						<Node id="2">
							<SimplePredicate field="wt" operator="lessOrEqual" value="2.4850000000000003"/>
							<Node id="4" score="27.425">
								<SimplePredicate field="qsec" operator="lessOrEqual" value="19.185"/>
							</Node>
							<Node id="5" score="32.775">
								<SimplePredicate field="qsec" operator="greaterThan" value="19.185"/>
							</Node>
						</Node>
						<Node id="3">
							<SimplePredicate field="wt" operator="greaterThan" value="2.4850000000000003"/>
							<Node id="6">
								<SimplePredicate field="wt" operator="lessOrEqual" value="3.3274999999999997"/>
								<Node id="8" score="24.0">
									<SimplePredicate field="hp" operator="lessOrEqual" value="102.0"/>
								</Node>
								<Node id="9">
									<SimplePredicate field="hp" operator="greaterThan" value="102.0"/>
									<Node id="12" score="21.299999999999997">
										<SimplePredicate field="gear" operator="lessOrEqual" value="4.5"/>
									</Node>
									<Node id="13" score="19.7">
										<SimplePredicate field="gear" operator="greaterThan" value="4.5"/>
									</Node>
								</Node>
							</Node>
							<Node id="7">
								<SimplePredicate field="wt" operator="greaterThan" value="3.3274999999999997"/>
								<Node id="10">
									<SimplePredicate field="disp" operator="lessOrEqual" value="410.0"/>
									<Node id="14" score="18.6">
										<SimplePredicate field="wt" operator="lessOrEqual" value="3.48"/>
									</Node>
									<Node id="15">
										<SimplePredicate field="wt" operator="greaterThan" value="3.48"/>
										<Node id="16">
											<SimplePredicate field="drat" operator="lessOrEqual" value="3.1399999999999997"/>
											<Node id="18">
												<SimplePredicate field="qsec" operator="lessOrEqual" value="17.8"/>
												<Node id="20" score="15.5">
													<SimplePredicate field="drat" operator="lessOrEqual" value="2.915"/>
												</Node>
												<Node id="21" score="16.759999999999998">
													<SimplePredicate field="drat" operator="greaterThan" value="2.915"/>
												</Node>
											</Node>
											<Node id="19" score="15.2">
												<SimplePredicate field="qsec" operator="greaterThan" value="17.8"/>
											</Node>
										</Node>
										<Node id="17" score="13.8">
											<SimplePredicate field="drat" operator="greaterThan" value="3.1399999999999997"/>
										</Node>
									</Node>
								</Node>
								<Node id="11" score="10.4">
									<SimplePredicate field="disp" operator="greaterThan" value="410.0"/>
								</Node>
							</Node>
						</Node>
					</Node>
				</TreeModel>
			</Segment>
			<Segment id="17">
				<True/>
				<TreeModel functionName="regression" missingValueStrategy="nullPrediction" splitCharacteristic="binarySplit">
					<MiningSchema>
						<MiningField name="cyl"/>
						<MiningField name="disp"/>
						<MiningField name="drat"/>
						<MiningField name="wt"/>
						<MiningField name="gear"/>
						<MiningField name="carb"/>
					</MiningSchema>
					<Node id="1">
						<True/>
						<Node id="2">
							<SimplePredicate field="disp" operator="lessOrEqual" value="108.05"/>
							<Node id="4" score="30.4">
								<SimplePredicate field="wt" operator="lessOrEqual" value="1.725"/>
							</Node>
							<Node id="5" score="33.9">
								<SimplePredicate field="wt" operator="greaterThan" value="1.725"/>
							</Node>
						</Node>
						<Node id="3">
							<SimplePredicate field="disp" operator="greaterThan" value="108.05"/>
							<Node id="6">
								<SimplePredicate field="gear" operator="lessOrEqual" value="3.5"/>
								<Node id="8" score="18.7">
									<SimplePredicate field="carb" operator="lessOrEqual" value="2.5"/>
								</Node>
								<Node id="9">
									<SimplePredicate field="carb" operator="greaterThan" value="2.5"/>
									<Node id="12" score="14.275">
										<SimplePredicate field="wt" operator="lessOrEqual" value="4.545"/>
									</Node>
									<Node id="13" score="11.475000000000001">
										<SimplePredicate field="wt" operator="greaterThan" value="4.545"/>
									</Node>
								</Node>
							</Node>
							<Node id="7">
								<SimplePredicate field="gear" operator="greaterThan" value="3.5"/>
								<Node id="10" score="24.4">
									<SimplePredicate field="drat" operator="lessOrEqual" value="3.795"/>
								</Node>
								<Node id="11">
									<SimplePredicate field="drat" operator="greaterThan" value="3.795"/>
									<Node id="14" score="21.96">
										<SimplePredicate field="cyl" operator="lessOrEqual" value="5.0"/>
									</Node>
									<Node id="15" score="20.2">
										<SimplePredicate field="cyl" operator="greaterThan" value="5.0"/>
									</Node>
								</Node>
							</Node>
						</Node>
					</Node>
				</TreeModel>
			</Segment>
			<Segment id="18">
				<True/>
				<TreeModel functionName="regression" missingValueStrategy="nullPrediction" splitCharacteristic="binarySplit">
					<MiningSchema>
						<MiningField name="cyl"/>
						<MiningField name="disp"/>
						<MiningField name="hp"/>
						<MiningField name="drat"/>
						<MiningField name="wt"/>
						<MiningField name="qsec"/>
					</MiningSchema>
					<Node id="1">
						<True/>
						<Node id="2">
							<SimplePredicate field="disp" operator="lessOrEqual" value="192.5"/>
							<Node id="4">
								<SimplePredicate field="hp" operator="lessOrEqual" value="144.0"/>
								<Node id="8" score="28.2">
									<SimplePredicate field="wt" operator="lessOrEqual" value="2.3025"/>
								</Node>
								<Node id="9">
									<SimplePredicate field="wt" operator="greaterThan" value="2.3025"/>
									<Node id="14" score="24.4">
										<SimplePredicate field="drat" operator="lessOrEqual" value="3.6950000000000003"/>
									</Node>
									<Node id="15" score="21.82">
										<SimplePredicate field="drat" operator="greaterThan" value="3.6950000000000003"/>
									</Node>
								</Node>
							</Node>
							<Node id="5" score="19.7">
								<SimplePredicate field="hp" operator="greaterThan" value="144.0"/>
							</Node>
						</Node>
						<Node id="3">
							<SimplePredicate field="disp" operator="greaterThan" value="192.5"/>
							<Node id="6">
								<SimplePredicate field="hp" operator="lessOrEqual" value="197.5"/>
								<Node id="10" score="18.1">
									<SimplePredicate field="cyl" operator="lessOrEqual" value="7.0"/>
								</Node>
								<Node id="11">
									<SimplePredicate field="cyl" operator="greaterThan" value="7.0"/>
									<Node id="16" score="15.585714285714285">
										<SimplePredicate field="wt" operator="lessOrEqual" value="3.8125"/>
									</Node>
									<Node id="17" score="17.799999999999997">
										<SimplePredicate field="wt" operator="greaterThan" value="3.8125"/>
									</Node>
								</Node>
							</Node>
							<Node id="7">
								<SimplePredicate field="hp" operator="greaterThan" value="197.5"/>
								<Node id="12" score="10.4">
									<SimplePredicate field="hp" operator="lessOrEqual" value="222.5"/>
								</Node>
								<Node id="13">
									<SimplePredicate field="hp" operator="greaterThan" value="222.5"/>
									<Node id="18" score="15.4">
										<SimplePredicate field="qsec" operator="lessOrEqual" value="15.004999999999999"/>
									</Node>
									<Node id="19">
										<SimplePredicate field="qsec" operator="greaterThan" value="15.004999999999999"/>
										<Node id="20" score="13.3">
											<SimplePredicate field="disp" operator="lessOrEqual" value="355.0"/>
										</Node>
										<Node id="21" score="14.46">
											<SimplePredicate field="disp" operator="greaterThan" value="355.0"/>
										</Node>
									</Node>
								</Node>
							</Node>
						</Node>
					</Node>
				</TreeModel>
			</Segment>
			<Segment id="19">
				<True/>
				<TreeModel functionName="regression" missingValueStrategy="nullPrediction" splitCharacteristic="binarySplit">
					<MiningSchema>
						<MiningField name="disp"/>
						<MiningField name="hp"/>
						<MiningField name="drat"/>
						<MiningField name="wt"/>
						<MiningField name="qsec"/>
						<MiningField name="vs"/>
						<MiningField name="carb"/>
					</MiningSchema>
					<Node id="1">
						<True/>
						<Node id="2">
							<SimplePredicate field="vs" operator="lessOrEqual" value="0.5"/>
							<Node id="4">
								<SimplePredicate field="hp" operator="lessOrEqual" value="177.5"/>
								<Node id="8" score="20.02">
									<SimplePredicate field="qsec" operator="lessOrEqual" value="17.175"/>
								</Node>
								<Node id="9" score="15.2">
									<SimplePredicate field="qsec" operator="greaterThan" value="17.175"/>
								</Node>
							</Node>
							<Node id="5">
								<SimplePredicate field="hp" operator="greaterThan" value="177.5"/>
								<Node id="10" score="15.066666666666666">
									<SimplePredicate field="disp" operator="lessOrEqual" value="380.5"/>
								</Node>
								<Node id="11" score="10.4">
									<SimplePredicate field="disp" operator="greaterThan" value="380.5"/>
								</Node>
							</Node>
						</Node>
						<Node id="3">
							<SimplePredicate field="vs" operator="greaterThan" value="0.5"/>
							<Node id="6" score="30.5">
								<SimplePredicate field="wt" operator="lessOrEqual" value="2.1275"/>
							</Node>
							<Node id="7">
								<SimplePredicate field="wt" operator="greaterThan" value="2.1275"/>
								<Node id="12">
									<SimplePredicate field="drat" operator="lessOrEqual" value="3.885"/>
									<Node id="14" score="22.919999999999998">
										<SimplePredicate field="qsec" operator="lessOrEqual" value="20.115000000000002"/>
									</Node>
									<Node id="15" score="18.1">
										<SimplePredicate field="qsec" operator="greaterThan" value="20.115000000000002"/>
									</Node>
								</Node>
								<Node id="13">
									<SimplePredicate field="drat" operator="greaterThan" value="3.885"/>
									<Node id="16" score="21.68">
										<SimplePredicate field="carb" operator="lessOrEqual" value="3.0"/>
									</Node>
									<Node id="17" score="18.36">
										<SimplePredicate field="carb" operator="greaterThan" value="3.0"/>
									</Node>
								</Node>
							</Node>
						</Node>
					</Node>
				</TreeModel>
			</Segment>
			<Segment id="20">
				<True/>
				<TreeModel functionName="regression" missingValueStrategy="nullPrediction" splitCharacteristic="binarySplit">
					<MiningSchema>
						<MiningField name="disp"/>
						<MiningField name="hp"/>
						<MiningField name="drat"/>
						<MiningField name="wt"/>
						<MiningField name="qsec"/>
						<MiningField name="vs"/>
					</MiningSchema>
					<Node id="1">
						<True/>
						<Node id="2">
							<SimplePredicate field="disp" operator="lessOrEqual" value="163.8"/>
							<Node id="4" score="29.799999999999997">
								<SimplePredicate field="wt" operator="lessOrEqual" value="2.26"/>
							</Node>
							<Node id="5">
								<SimplePredicate field="wt" operator="greaterThan" value="2.26"/>
								<Node id="8" score="19.7">
									<SimplePredicate field="drat" operator="lessOrEqual" value="3.6550000000000002"/>
								</Node>
								<Node id="9">
									<SimplePredicate field="drat" operator="greaterThan" value="3.6550000000000002"/>
									<Node id="14" score="24.4">
										<SimplePredicate field="hp" operator="lessOrEqual" value="77.5"/>
									</Node>
									<Node id="15" score="22.35">
										<SimplePredicate field="hp" operator="greaterThan" value="77.5"/>
									</Node>
								</Node>
							</Node>
						</Node>
						<Node id="3">
							<SimplePredicate field="disp" operator="greaterThan" value="163.8"/>
							<Node id="6">
								<SimplePredicate field="hp" operator="lessOrEqual" value="192.5"/>
								<Node id="10">
									<SimplePredicate field="vs" operator="lessOrEqual" value="0.5"/>
									<Node id="16" score="17.35">
										<SimplePredicate field="qsec" operator="lessOrEqual" value="17.175"/>
									</Node>
									<Node id="17" score="15.5">
										<SimplePredicate field="qsec" operator="greaterThan" value="17.175"/>
									</Node>
								</Node>
								<Node id="11" score="18.366666666666667">
									<SimplePredicate field="vs" operator="greaterThan" value="0.5"/>
								</Node>
							</Node>
							<Node id="7">
								<SimplePredicate field="hp" operator="greaterThan" value="192.5"/>
								<Node id="12" score="10.4">
									<SimplePredicate field="drat" operator="lessOrEqual" value="3.105"/>
								</Node>
								<Node id="13">
									<SimplePredicate field="drat" operator="greaterThan" value="3.105"/>
									<Node id="18" score="15.8">
										<SimplePredicate field="qsec" operator="lessOrEqual" value="14.955"/>
									</Node>
									<Node id="19" score="13.8">
										<SimplePredicate field="qsec" operator="greaterThan" value="14.955"/>
									</Node>
								</Node>
							</Node>
						</Node>
					</Node>
				</TreeModel>
			</Segment>
			<Segment id="21">
				<True/>
				<TreeModel functionName="regression" missingValueStrategy="nullPrediction" splitCharacteristic="binarySplit">
					<MiningSchema>
						<MiningField name="disp"/>
						<MiningField name="hp"/>
						<MiningField name="drat"/>
						<MiningField name="wt"/>
						<MiningField name="qsec"/>
						<MiningField name="gear"/>
						<MiningField name="carb"/>
					</MiningSchema>
					<Node id="1">
						<True/>
						<Node id="2">
							<SimplePredicate field="gear" operator="lessOrEqual" value="3.5"/>
							<Node id="4" score="21.45">
								<SimplePredicate field="wt" operator="lessOrEqual" value="3.325"/>
							</Node>
							<Node id="5">
								<SimplePredicate field="wt" operator="greaterThan" value="3.325"/>
								<Node id="8" score="18.1">
									<SimplePredicate field="drat" operator="lessOrEqual" value="2.88"/>
								</Node>
								<Node id="9">
									<SimplePredicate field="drat" operator="greaterThan" value="2.88"/>
									<Node id="12" score="10.4">
										<SimplePredicate field="drat" operator="lessOrEqual" value="3.035"/>
									</Node>
									<Node id="13">
										<SimplePredicate field="drat" operator="greaterThan" value="3.035"/>
										<Node id="16">
											<SimplePredicate field="hp" operator="lessOrEqual" value="212.5"/>
											<Node id="18">
												<SimplePredicate field="wt" operator="lessOrEqual" value="3.8125"/>
												<Node id="20" score="16.366666666666667">
													<SimplePredicate field="carb" operator="lessOrEqual" value="2.5"/>
												</Node>
												<Node id="21" score="15.899999999999999">
													<SimplePredicate field="carb" operator="greaterThan" value="2.5"/>
												</Node>
											</Node>
											<Node id="19" score="19.2">
												<SimplePredicate field="wt" operator="greaterThan" value="3.8125"/>
											</Node>
										</Node>
										<Node id="17" score="13.966666666666669">
											<SimplePredicate field="hp" operator="greaterThan" value="212.5"/>
										</Node>
									</Node>
								</Node>
							</Node>
						</Node>
						<Node id="3">
							<SimplePredicate field="gear" operator="greaterThan" value="3.5"/>
							<Node id="6" score="27.7">
								<SimplePredicate field="hp" operator="lessOrEqual" value="93.0"/>
							</Node>
							<Node id="7">
								<SimplePredicate field="hp" operator="greaterThan" value="93.0"/>
								<Node id="10">
									<SimplePredicate field="qsec" operator="lessOrEqual" value="20.9"/>
									<Node id="14" score="20.48">
										<SimplePredicate field="disp" operator="lessOrEqual" value="163.8"/>
									</Node>
									<Node id="15" score="18.15">
										<SimplePredicate field="disp" operator="greaterThan" value="163.8"/>
									</Node>
								</Node>
								<Node id="11" score="22.8">
									<SimplePredicate field="qsec" operator="greaterThan" value="20.9"/>
								</Node>
							</Node>
						</Node>
					</Node>
				</TreeModel>
			</Segment>
			<Segment id="22">
				<True/>
				<TreeModel functionName="regression" missingValueStrategy="nullPrediction" splitCharacteristic="binarySplit">
					<MiningSchema>
						<MiningField name="disp"/>
						<MiningField name="hp"/>
						<MiningField name="drat"/>
						<MiningField name="wt"/>
						<MiningField name="vs"/>
						<MiningField name="carb"/>
					</MiningSchema>
					<Node id="1">
						<True/>
						<Node id="2">
							<SimplePredicate field="hp" operator="lessOrEqual" value="94.0"/>
							<Node id="4" score="26.0">
								<SimplePredicate field="vs" operator="lessOrEqual" value="0.5"/>
							</Node>
							<Node id="5">
								<SimplePredicate field="vs" operator="greaterThan" value="0.5"/>
								<Node id="8" score="32.275">
									<SimplePredicate field="disp" operator="lessOrEqual" value="78.85"/>
								</Node>
								<Node id="9" score="25.85">
									<SimplePredicate field="disp" operator="greaterThan" value="78.85"/>
								</Node>
							</Node>
						</Node>
						<Node id="3">
							<SimplePredicate field="hp" operator="greaterThan" value="94.0"/>
							<Node id="6">
								<SimplePredicate field="wt" operator="lessOrEqual" value="3.49"/>
								<Node id="10">
									<SimplePredicate field="drat" operator="lessOrEqual" value="4.07"/>
									<Node id="14">
										<SimplePredicate field="carb" operator="lessOrEqual" value="1.5"/>
										<Node id="18" score="18.1">
											<SimplePredicate field="drat" operator="lessOrEqual" value="2.92"/>
										</Node>
										<Node id="19" score="21.45">
											<SimplePredicate field="drat" operator="greaterThan" value="2.92"/>
										</Node>
									</Node>
									<Node id="15" score="18.82">
										<SimplePredicate field="carb" operator="greaterThan" value="1.5"/>
									</Node>
								</Node>
								<Node id="11" score="15.8">
									<SimplePredicate field="drat" operator="greaterThan" value="4.07"/>
								</Node>
							</Node>
							<Node id="7">
								<SimplePredicate field="wt" operator="greaterThan" value="3.49"/>
								<Node id="12">
									<SimplePredicate field="disp" operator="lessOrEqual" value="450.0"/>
									<Node id="16" score="17.1">
										<SimplePredicate field="carb" operator="lessOrEqual" value="3.5"/>
									</Node>
									<Node id="17" score="14.120000000000001">
										<SimplePredicate field="carb" operator="greaterThan" value="3.5"/>
									</Node>
								</Node>
								<Node id="13" score="10.4">
									<SimplePredicate field="disp" operator="greaterThan" value="450.0"/>
								</Node>
							</Node>
						</Node>
					</Node>
				</TreeModel>
			</Segment>
			<Segment id="23">
				<True/>
				<TreeModel functionName="regression" missingValueStrategy="nullPrediction" splitCharacteristic="binarySplit">
					<MiningSchema>
						<MiningField name="hp"/>
						<MiningField name="drat"/>
						<MiningField name="wt"/>
						<MiningField name="qsec"/>
					</MiningSchema>
					<Node id="1">
						<True/>
						<Node id="2">
							<SimplePredicate field="wt" operator="lessOrEqual" value="2.26"/>
							<Node id="4">
								<SimplePredicate field="qsec" operator="lessOrEqual" value="19.185"/>
								<Node id="8" score="30.4">
									<SimplePredicate field="drat" operator="lessOrEqual" value="3.925"/>
								</Node>
								<Node id="9" score="27.75">
									<SimplePredicate field="drat" operator="greaterThan" value="3.925"/>
								</Node>
							</Node>
							<Node id="5" score="32.4">
								<SimplePredicate field="qsec" operator="greaterThan" value="19.185"/>
							</Node>
						</Node>
						<Node id="3">
							<SimplePredicate field="wt" operator="greaterThan" value="2.26"/>
							<Node id="6">
								<SimplePredicate field="hp" operator="lessOrEqual" value="177.5"/>
								<Node id="10">
									<SimplePredicate field="wt" operator="lessOrEqual" value="3.3274999999999997"/>
									<Node id="14" score="23.6">
										<SimplePredicate field="hp" operator="lessOrEqual" value="95.0"/>
									</Node>
									<Node id="15">
										<SimplePredicate field="hp" operator="greaterThan" value="95.0"/>
										<Node id="20" score="19.7">
											<SimplePredicate field="qsec" operator="lessOrEqual" value="17.05"/>
										</Node>
										<Node id="21">
											<SimplePredicate field="qsec" operator="greaterThan" value="17.05"/>
											<Node id="22" score="21.4">
												<SimplePredicate field="drat" operator="lessOrEqual" value="3.39"/>
											</Node>
											<Node id="23" score="21.433333333333334">
												<SimplePredicate field="drat" operator="greaterThan" value="3.39"/>
											</Node>
										</Node>
									</Node>
								</Node>
								<Node id="11">
									<SimplePredicate field="wt" operator="greaterThan" value="3.3274999999999997"/>
									<Node id="16" score="16.8">
										<SimplePredicate field="drat" operator="lessOrEqual" value="2.92"/>
									</Node>
									<Node id="17" score="18.85">
										<SimplePredicate field="drat" operator="greaterThan" value="2.92"/>
									</Node>
								</Node>
							</Node>
							<Node id="7">
								<SimplePredicate field="hp" operator="greaterThan" value="177.5"/>
								<Node id="12" score="10.4">
									<SimplePredicate field="drat" operator="lessOrEqual" value="3.035"/>
								</Node>
								<Node id="13">
									<SimplePredicate field="drat" operator="greaterThan" value="3.035"/>
									<Node id="18" score="14.975">
										<SimplePredicate field="drat" operator="lessOrEqual" value="3.715"/>
									</Node>
									<Node id="19" score="15.8">
										<SimplePredicate field="drat" operator="greaterThan" value="3.715"/>
									</Node>
								</Node>
							</Node>
						</Node>
					</Node>
				</TreeModel>
			</Segment>
			<Segment id="24">
				<True/>
				<TreeModel functionName="regression" missingValueStrategy="nullPrediction" splitCharacteristic="binarySplit">
					<MiningSchema>
						<MiningField name="disp"/>
						<MiningField name="drat"/>
						<MiningField name="wt"/>
						<MiningField name="qsec"/>
						<MiningField name="vs"/>
						<MiningField name="am"/>
						<MiningField name="gear"/>
						<MiningField name="carb"/>
					</MiningSchema>
					<Node id="1">
						<True/>
						<Node id="2">
							<SimplePredicate field="wt" operator="lessOrEqual" value="3.325"/>
							<Node id="4" score="29.725">
								<SimplePredicate field="disp" operator="lessOrEqual" value="107.6"/>
							</Node>
							<Node id="5">
								<SimplePredicate field="disp" operator="greaterThan" value="107.6"/>
								<Node id="8">
									<SimplePredicate field="qsec" operator="lessOrEqual" value="21.455"/>
									<Node id="14" score="19.7">
										<SimplePredicate field="qsec" operator="lessOrEqual" value="15.98"/>
									</Node>
									<Node id="15">
										<SimplePredicate field="qsec" operator="greaterThan" value="15.98"/>
										<Node id="20" score="21.466666666666665">
											<SimplePredicate field="am" operator="lessOrEqual" value="0.5"/>
										</Node>
										<Node id="21" score="21.0">
											<SimplePredicate field="am" operator="greaterThan" value="0.5"/>
										</Node>
									</Node>
								</Node>
								<Node id="9" score="22.8">
									<SimplePredicate field="qsec" operator="greaterThan" value="21.455"/>
								</Node>
							</Node>
						</Node>
						<Node id="3">
							<SimplePredicate field="wt" operator="greaterThan" value="3.325"/>
							<Node id="6">
								<SimplePredicate field="carb" operator="lessOrEqual" value="3.5"/>
								<Node id="10">
									<SimplePredicate field="drat" operator="lessOrEqual" value="3.115"/>
									<Node id="16" score="16.94">
										<SimplePredicate field="wt" operator="lessOrEqual" value="3.7875"/>
									</Node>
									<Node id="17" score="19.2">
										<SimplePredicate field="wt" operator="greaterThan" value="3.7875"/>
									</Node>
								</Node>
								<Node id="11" score="15.2">
									<SimplePredicate field="drat" operator="greaterThan" value="3.115"/>
								</Node>
							</Node>
							<Node id="7">
								<SimplePredicate field="carb" operator="greaterThan" value="3.5"/>
								<Node id="12">
									<SimplePredicate field="wt" operator="lessOrEqual" value="4.545"/>
									<Node id="18">
										<SimplePredicate field="vs" operator="lessOrEqual" value="0.5"/>
										<Node id="22" score="13.700000000000001">
											<SimplePredicate field="gear" operator="lessOrEqual" value="4.0"/>
										</Node>
										<Node id="23" score="15.0">
											<SimplePredicate field="gear" operator="greaterThan" value="4.0"/>
										</Node>
									</Node>
									<Node id="19" score="17.8">
										<SimplePredicate field="vs" operator="greaterThan" value="0.5"/>
									</Node>
								</Node>
								<Node id="13" score="10.4">
									<SimplePredicate field="wt" operator="greaterThan" value="4.545"/>
								</Node>
							</Node>
						</Node>
					</Node>
				</TreeModel>
			</Segment>
			<Segment id="25">
				<True/>
				<TreeModel functionName="regression" missingValueStrategy="nullPrediction" splitCharacteristic="binarySplit">
					<MiningSchema>
						<MiningField name="drat"/>
						<MiningField name="wt"/>
						<MiningField name="qsec"/>
						<MiningField name="am"/>
						<MiningField name="carb"/>
					</MiningSchema>
					<Node id="1">
						<True/>
						<Node id="2">
							<SimplePredicate field="am" operator="lessOrEqual" value="0.5"/>
							<Node id="4">
								<SimplePredicate field="wt" operator="lessOrEqual" value="3.49"/>
								<Node id="8" score="18.6">
									<SimplePredicate field="qsec" operator="lessOrEqual" value="19.455"/>
								</Node>
								<Node id="9" score="20.366666666666667">
									<SimplePredicate field="qsec" operator="greaterThan" value="19.455"/>
								</Node>
							</Node>
							<Node id="5">
								<SimplePredicate field="wt" operator="greaterThan" value="3.49"/>
								<Node id="10">
									<SimplePredicate field="carb" operator="lessOrEqual" value="3.5"/>
									<Node id="14" score="16.22">
										<SimplePredicate field="qsec" operator="lessOrEqual" value="17.8"/>
									</Node>
									<Node id="15" score="15.2">
										<SimplePredicate field="qsec" operator="greaterThan" value="17.8"/>
									</Node>
								</Node>
								<Node id="11" score="13.120000000000001">
									<SimplePredicate field="carb" operator="greaterThan" value="3.5"/>
								</Node>
							</Node>
						</Node>
						<Node id="3">
							<SimplePredicate field="am" operator="greaterThan" value="0.5"/>
							<Node id="6" score="15.0">
								<SimplePredicate field="drat" operator="lessOrEqual" value="3.6550000000000002"/>
							</Node>
							<Node id="7">
								<SimplePredicate field="drat" operator="greaterThan" value="3.6550000000000002"/>
								<Node id="12" score="30.4">
									<SimplePredicate field="drat" operator="lessOrEqual" value="3.81"/>
								</Node>
								<Node id="13">
									<SimplePredicate field="drat" operator="greaterThan" value="3.81"/>
									<Node id="16" score="26.0">
										<SimplePredicate field="wt" operator="lessOrEqual" value="2.23"/>
									</Node>
									<Node id="17" score="21.44">
										<SimplePredicate field="wt" operator="greaterThan" value="2.23"/>
									</Node>
								</Node>
							</Node>
						</Node>
					</Node>
				</TreeModel>
			</Segment>
			<Segment id="26">
				<True/>
				<TreeModel functionName="regression" missingValueStrategy="nullPrediction" splitCharacteristic="binarySplit">
					<MiningSchema>
						<MiningField name="disp"/>
						<MiningField name="hp"/>
						<MiningField name="drat"/>
						<MiningField name="wt"/>
						<MiningField name="qsec"/>
						<MiningField name="carb"/>
					</MiningSchema>
					<Node id="1">
						<True/>
						<Node id="2">
							<SimplePredicate field="disp" operator="lessOrEqual" value="163.8"/>
							<Node id="4">
								<SimplePredicate field="hp" operator="lessOrEqual" value="100.0"/>
								<Node id="8" score="32.15">
									<SimplePredicate field="disp" operator="lessOrEqual" value="98.0"/>
								</Node>
								<Node id="9">
									<SimplePredicate field="disp" operator="greaterThan" value="98.0"/>
									<Node id="12" score="24.4">
										<SimplePredicate field="drat" operator="lessOrEqual" value="4.06"/>
									</Node>
									<Node id="13" score="26.0">
										<SimplePredicate field="drat" operator="greaterThan" value="4.06"/>
									</Node>
								</Node>
							</Node>
							<Node id="5" score="20.9">
								<SimplePredicate field="hp" operator="greaterThan" value="100.0"/>
							</Node>
						</Node>
						<Node id="3">
							<SimplePredicate field="disp" operator="greaterThan" value="163.8"/>
							<Node id="6">
								<SimplePredicate field="wt" operator="lessOrEqual" value="3.705"/>
								<Node id="10" score="18.925">
									<SimplePredicate field="carb" operator="lessOrEqual" value="1.5"/>
								</Node>
								<Node id="11">
									<SimplePredicate field="carb" operator="greaterThan" value="1.5"/>
									<Node id="14">
										<SimplePredicate field="wt" operator="lessOrEqual" value="3.48"/>
										<Node id="16" score="18.7">
											<SimplePredicate field="qsec" operator="lessOrEqual" value="17.16"/>
										</Node>
										<Node id="17" score="16.066666666666666">
											<SimplePredicate field="qsec" operator="greaterThan" value="17.16"/>
										</Node>
									</Node>
									<Node id="15" score="15.333333333333332">
										<SimplePredicate field="wt" operator="greaterThan" value="3.48"/>
									</Node>
								</Node>
							</Node>
							<Node id="7" score="11.840000000000002">
								<SimplePredicate field="wt" operator="greaterThan" value="3.705"/>
							</Node>
						</Node>
					</Node>
				</TreeModel>
			</Segment>
			<Segment id="27">
				<True/>
				<TreeModel functionName="regression" missingValueStrategy="nullPrediction" splitCharacteristic="binarySplit">
					<MiningSchema>
						<MiningField name="disp"/>
						<MiningField name="drat"/>
						<MiningField name="wt"/>
						<MiningField name="qsec"/>
						<MiningField name="vs"/>
						<MiningField name="gear"/>
						<MiningField name="carb"/>
					</MiningSchema>
					<Node id="1">
						<True/>
						<Node id="2">
							<SimplePredicate field="gear" operator="lessOrEqual" value="3.5"/>
							<Node id="4" score="21.5">
								<SimplePredicate field="wt" operator="lessOrEqual" value="2.95"/>
							</Node>
							<Node id="5">
								<SimplePredicate field="wt" operator="greaterThan" value="2.95"/>
								<Node id="8">
									<SimplePredicate field="disp" operator="lessOrEqual" value="450.0"/>
									<Node id="14">
										<SimplePredicate field="drat" operator="lessOrEqual" value="3.11"/>
										<Node id="18" score="15.5">
											<SimplePredicate field="qsec" operator="lessOrEqual" value="17.134999999999998"/>
										</Node>
										<Node id="19" score="16.55">
											<SimplePredicate field="qsec" operator="greaterThan" value="17.134999999999998"/>
										</Node>
									</Node>
									<Node id="15" score="14.95">
										<SimplePredicate field="drat" operator="greaterThan" value="3.11"/>
									</Node>
								</Node>
								<Node id="9" score="10.4">
									<SimplePredicate field="disp" operator="greaterThan" value="450.0"/>
								</Node>
							</Node>
						</Node>
						<Node id="3">
							<SimplePredicate field="gear" operator="greaterThan" value="3.5"/>
							<Node id="6">
								<SimplePredicate field="carb" operator="lessOrEqual" value="3.0"/>
								<Node id="10" score="26.0">
									<SimplePredicate field="vs" operator="lessOrEqual" value="0.5"/>
								</Node>
								<Node id="11">
									<SimplePredicate field="vs" operator="greaterThan" value="0.5"/>
									<Node id="16">
										<SimplePredicate field="disp" operator="lessOrEqual" value="101.55"/>
										<Node id="20" score="30.4">
											<SimplePredicate field="qsec" operator="lessOrEqual" value="18.994999999999997"/>
										</Node>
										<Node id="21" score="32.9">
											<SimplePredicate field="qsec" operator="greaterThan" value="18.994999999999997"/>
										</Node>
									</Node>
									<Node id="17" score="22.333333333333332">
										<SimplePredicate field="disp" operator="greaterThan" value="101.55"/>
									</Node>
								</Node>
							</Node>
							<Node id="7">
								<SimplePredicate field="carb" operator="greaterThan" value="3.0"/>
								<Node id="12" score="15.0">
									<SimplePredicate field="drat" operator="lessOrEqual" value="3.7199999999999998"/>
								</Node>
								<Node id="13" score="20.28">
									<SimplePredicate field="drat" operator="greaterThan" value="3.7199999999999998"/>
								</Node>
							</Node>
						</Node>
					</Node>
				</TreeModel>
			</Segment>
			<Segment id="28">
				<True/>
				<TreeModel functionName="regression" missingValueStrategy="nullPrediction" splitCharacteristic="binarySplit">
					<MiningSchema>
						<MiningField name="disp"/>
						<MiningField name="hp"/>
						<MiningField name="drat"/>
						<MiningField name="wt"/>
						<MiningField name="qsec"/>
						<MiningField name="vs"/>
						<MiningField name="carb"/>
					</MiningSchema>
					<Node id="1">
						<True/>
						<Node id="2">
							<SimplePredicate field="wt" operator="lessOrEqual" value="2.23"/>
							<Node id="4" score="33.9">
								<SimplePredicate field="disp" operator="lessOrEqual" value="73.4"/>
							</Node>
							<Node id="5">
								<SimplePredicate field="disp" operator="greaterThan" value="73.4"/>
								<Node id="8" score="29.519999999999996">
									<SimplePredicate field="qsec" operator="lessOrEqual" value="18.71"/>
								</Node>
								<Node id="9" score="27.3">
									<SimplePredicate field="qsec" operator="greaterThan" value="18.71"/>
								</Node>
							</Node>
						</Node>
						<Node id="3">
							<SimplePredicate field="wt" operator="greaterThan" value="2.23"/>
							<Node id="6">
								<SimplePredicate field="drat" operator="lessOrEqual" value="3.075"/>
								<Node id="10" score="15.5">
									<SimplePredicate field="hp" operator="lessOrEqual" value="197.5"/>
								</Node>
								<Node id="11" score="10.4">
									<SimplePredicate field="hp" operator="greaterThan" value="197.5"/>
								</Node>
							</Node>
							<Node id="7">
								<SimplePredicate field="drat" operator="greaterThan" value="3.075"/>
								<Node id="12">
									<SimplePredicate field="wt" operator="lessOrEqual" value="3.16"/>
									<Node id="14" score="19.7">
										<SimplePredicate field="vs" operator="lessOrEqual" value="0.5"/>
									</Node>
									<Node id="15" score="22.15">
										<SimplePredicate field="vs" operator="greaterThan" value="0.5"/>
									</Node>
								</Node>
								<Node id="13">
									<SimplePredicate field="wt" operator="greaterThan" value="3.16"/>
									<Node id="16">
										<SimplePredicate field="carb" operator="lessOrEqual" value="6.0"/>
										<Node id="18" score="18.82">
											<SimplePredicate field="hp" operator="lessOrEqual" value="219.5"/>
										</Node>
										<Node id="19" score="15.8">
											<SimplePredicate field="hp" operator="greaterThan" value="219.5"/>
										</Node>
									</Node>
									<Node id="17" score="15.0">
										<SimplePredicate field="carb" operator="greaterThan" value="6.0"/>
									</Node>
								</Node>
							</Node>
						</Node>
					</Node>
				</TreeModel>
			</Segment>
			<Segment id="29">
				<True/>
				<TreeModel functionName="regression" missingValueStrategy="nullPrediction" splitCharacteristic="binarySplit">
					<MiningSchema>
						<MiningField name="cyl"/>
						<MiningField name="disp"/>
						<MiningField name="hp"/>
						<MiningField name="drat"/>
						<MiningField name="gear"/>
						<MiningField name="carb"/>
					</MiningSchema>
					<Node id="1">
						<True/>
						<Node id="2" score="31.58">
							<SimplePredicate field="disp" operator="lessOrEqual" value="93.5"/>
						</Node>
						<Node id="3">
							<SimplePredicate field="disp" operator="greaterThan" value="93.5"/>
							<Node id="4">
								<SimplePredicate field="drat" operator="lessOrEqual" value="3.58"/>
								<Node id="6" score="18.1">
									<SimplePredicate field="cyl" operator="lessOrEqual" value="7.0"/>
								</Node>
								<Node id="7">
									<SimplePredicate field="cyl" operator="greaterThan" value="7.0"/>
									<Node id="10">
										<SimplePredicate field="hp" operator="lessOrEqual" value="192.5"/>
										<Node id="14" score="17.8">
											<SimplePredicate field="carb" operator="lessOrEqual" value="2.5"/>
										</Node>
										<Node id="15" score="16.3">
											<SimplePredicate field="carb" operator="greaterThan" value="2.5"/>
										</Node>
									</Node>
									<Node id="11">
										<SimplePredicate field="hp" operator="greaterThan" value="192.5"/>
										<Node id="16" score="10.4">
											<SimplePredicate field="gear" operator="lessOrEqual" value="4.0"/>
										</Node>
										<Node id="17" score="15.0">
											<SimplePredicate field="gear" operator="greaterThan" value="4.0"/>
										</Node>
									</Node>
								</Node>
							</Node>
							<Node id="5">
								<SimplePredicate field="drat" operator="greaterThan" value="3.58"/>
								<Node id="8">
									<SimplePredicate field="drat" operator="lessOrEqual" value="4.27"/>
									<Node id="12" score="21.8">
										<SimplePredicate field="cyl" operator="lessOrEqual" value="5.0"/>
									</Node>
									<Node id="13" score="19.366666666666667">
										<SimplePredicate field="cyl" operator="greaterThan" value="5.0"/>
									</Node>
								</Node>
								<Node id="9" score="26.0">
									<SimplePredicate field="drat" operator="greaterThan" value="4.27"/>
								</Node>
							</Node>
						</Node>
					</Node>
				</TreeModel>
			</Segment>
			<Segment id="30">
				<True/>
				<TreeModel functionName="regression" missingValueStrategy="nullPrediction" splitCharacteristic="binarySplit">
					<MiningSchema>
						<MiningField name="disp"/>
						<MiningField name="hp"/>
						<MiningField name="wt"/>
						<MiningField name="vs"/>
						<MiningField name="gear"/>
						<MiningField name="carb"/>
					</MiningSchema>
					<Node id="1">
						<True/>
						<Node id="2">
							<SimplePredicate field="hp" operator="lessOrEqual" value="92.0"/>
							<Node id="4" score="26.0">
								<SimplePredicate field="vs" operator="lessOrEqual" value="0.5"/>
							</Node>
							<Node id="5">
								<SimplePredicate field="vs" operator="greaterThan" value="0.5"/>
								<Node id="8" score="33.9">
									<SimplePredicate field="disp" operator="lessOrEqual" value="73.4"/>
								</Node>
								<Node id="9" score="31.6">
									<SimplePredicate field="disp" operator="greaterThan" value="73.4"/>
								</Node>
							</Node>
						</Node>
						<Node id="3">
							<SimplePredicate field="hp" operator="greaterThan" value="92.0"/>
							<Node id="6">
								<SimplePredicate field="vs" operator="lessOrEqual" value="0.5"/>
								<Node id="10">
									<SimplePredicate field="wt" operator="lessOrEqual" value="5.3845"/>
									<Node id="12">
										<SimplePredicate field="carb" operator="lessOrEqual" value="3.5"/>
										<Node id="14" score="15.8">
											<SimplePredicate field="disp" operator="lessOrEqual" value="339.0"/>
										</Node>
										<Node id="15" score="18.7">
											<SimplePredicate field="disp" operator="greaterThan" value="339.0"/>
										</Node>
									</Node>
									<Node id="13">
										<SimplePredicate field="carb" operator="greaterThan" value="3.5"/>
										<Node id="16" score="14.100000000000001">
											<SimplePredicate field="gear" operator="lessOrEqual" value="4.0"/>
										</Node>
										<Node id="17" score="15.4">
											<SimplePredicate field="gear" operator="greaterThan" value="4.0"/>
										</Node>
									</Node>
								</Node>
								<Node id="11" score="10.4">
									<SimplePredicate field="wt" operator="greaterThan" value="5.3845"/>
								</Node>
							</Node>
							<Node id="7" score="22.24">
								<SimplePredicate field="vs" operator="greaterThan" value="0.5"/>
							</Node>
						</Node>
					</Node>
				</TreeModel>
			</Segment>
			<Segment id="31">
				<True/>
				<TreeModel functionName="regression" missingValueStrategy="nullPrediction" splitCharacteristic="binarySplit">
					<MiningSchema>
						<MiningField name="disp"/>
						<MiningField name="hp"/>
						<MiningField name="drat"/>
						<MiningField name="wt"/>
						<MiningField name="qsec"/>
						<MiningField name="gear"/>
					</MiningSchema>
					<Node id="1">
						<True/>
						<Node id="2">
							<SimplePredicate field="wt" operator="lessOrEqual" value="3.2925"/>
							<Node id="4" score="29.366666666666667">
								<SimplePredicate field="disp" operator="lessOrEqual" value="101.55"/>
							</Node>
							<Node id="5">
								<SimplePredicate field="disp" operator="greaterThan" value="101.55"/>
								<Node id="8" score="22.8">
									<SimplePredicate field="hp" operator="lessOrEqual" value="96.0"/>
								</Node>
								<Node id="9">
									<SimplePredicate field="hp" operator="greaterThan" value="96.0"/>
									<Node id="12" score="19.7">
										<SimplePredicate field="drat" operator="lessOrEqual" value="3.66"/>
									</Node>
									<Node id="13" score="21.18">
										<SimplePredicate field="drat" operator="greaterThan" value="3.66"/>
									</Node>
								</Node>
							</Node>
						</Node>
						<Node id="3">
							<SimplePredicate field="wt" operator="greaterThan" value="3.2925"/>
							<Node id="6">
								<SimplePredicate field="qsec" operator="lessOrEqual" value="18.15"/>
								<Node id="10">
									<SimplePredicate field="gear" operator="lessOrEqual" value="4.0"/>
									<Node id="14">
										<SimplePredicate field="hp" operator="lessOrEqual" value="197.5"/>
										<Node id="16" score="17.8">
											<SimplePredicate field="qsec" operator="lessOrEqual" value="17.175"/>
										</Node>
										<Node id="17" score="15.5">
											<SimplePredicate field="qsec" operator="greaterThan" value="17.175"/>
										</Node>
									</Node>
									<Node id="15" score="12.55">
										<SimplePredicate field="hp" operator="greaterThan" value="197.5"/>
									</Node>
								</Node>
								<Node id="11" score="15.0">
									<SimplePredicate field="gear" operator="greaterThan" value="4.0"/>
								</Node>
							</Node>
							<Node id="7" score="18.2">
								<SimplePredicate field="qsec" operator="greaterThan" value="18.15"/>
							</Node>
						</Node>
					</Node>
				</TreeModel>
			</Segment>
			<Segment id="32">
				<True/>
				<TreeModel functionName="regression" missingValueStrategy="nullPrediction" splitCharacteristic="binarySplit">
					<MiningSchema>
						<MiningField name="cyl"/>
						<MiningField name="disp"/>
						<MiningField name="hp"/>
						<MiningField name="drat"/>
						<MiningField name="wt"/>
						<MiningField name="qsec"/>
						<MiningField name="am"/>
						<MiningField name="carb"/>
					</MiningSchema>
					<Node id="1">
						<True/>
						<Node id="2">
							<SimplePredicate field="wt" operator="lessOrEqual" value="2.41"/>
							<Node id="4" score="30.4">
								<SimplePredicate field="qsec" operator="lessOrEqual" value="18.994999999999997"/>
							</Node>
							<Node id="5" score="32.4">
								<SimplePredicate field="qsec" operator="greaterThan" value="18.994999999999997"/>
							</Node>
						</Node>
						<Node id="3">
							<SimplePredicate field="wt" operator="greaterThan" value="2.41"/>
							<Node id="6">
								<SimplePredicate field="cyl" operator="lessOrEqual" value="7.0"/>
								<Node id="8">
									<SimplePredicate field="disp" operator="lessOrEqual" value="163.8"/>
									<Node id="12" score="24.4">
										<SimplePredicate field="hp" operator="lessOrEqual" value="85.5"/>
									</Node>
									<Node id="13">
										<SimplePredicate field="hp" operator="greaterThan" value="85.5"/>
										<Node id="16" score="21.16">
											<SimplePredicate field="carb" operator="lessOrEqual" value="5.0"/>
										</Node>
										<Node id="17" score="19.7">
											<SimplePredicate field="carb" operator="greaterThan" value="5.0"/>
										</Node>
									</Node>
								</Node>
								<Node id="9" score="18.366666666666667">
									<SimplePredicate field="disp" operator="greaterThan" value="163.8"/>
								</Node>
							</Node>
							<Node id="7">
								<SimplePredicate field="cyl" operator="greaterThan" value="7.0"/>
								<Node id="10" score="10.4">
									<SimplePredicate field="drat" operator="lessOrEqual" value="3.035"/>
								</Node>
								<Node id="11">
									<SimplePredicate field="drat" operator="greaterThan" value="3.035"/>
									<Node id="14" score="17.64">
										<SimplePredicate field="drat" operator="lessOrEqual" value="3.1799999999999997"/>
									</Node>
									<Node id="15">
										<SimplePredicate field="drat" operator="greaterThan" value="3.1799999999999997"/>
										<Node id="18" score="14.100000000000001">
											<SimplePredicate field="am" operator="lessOrEqual" value="0.5"/>
										</Node>
										<Node id="19" score="15.8">
											<SimplePredicate field="am" operator="greaterThan" value="0.5"/>
										</Node>
									</Node>
								</Node>
							</Node>
						</Node>
					</Node>
				</TreeModel>
			</Segment>
			<Segment id="33">
				<True/>
				<TreeModel functionName="regression" missingValueStrategy="nullPrediction" splitCharacteristic="binarySplit">
					<MiningSchema>
						<MiningField name="disp"/>
						<MiningField name="hp"/>
						<MiningField name="qsec"/>
						<MiningField name="gear"/>
					</MiningSchema>
					<Node id="1">
						<True/>
						<Node id="2">
							<SimplePredicate field="gear" operator="lessOrEqual" value="3.5"/>
							<Node id="4">
								<SimplePredicate field="disp" operator="lessOrEqual" value="339.0"/>
								<Node id="8" score="18.1">
									<SimplePredicate field="hp" operator="lessOrEqual" value="127.5"/>
								</Node>
								<Node id="9" score="15.26">
									<SimplePredicate field="hp" operator="greaterThan" value="127.5"/>
								</Node>
							</Node>
							<Node id="5" score="18.866666666666667">
								<SimplePredicate field="disp" operator="greaterThan" value="339.0"/>
							</Node>
						</Node>
						<Node id="3">
							<SimplePredicate field="gear" operator="greaterThan" value="3.5"/>
							<Node id="6" score="30.48">
								<SimplePredicate field="disp" operator="lessOrEqual" value="101.55"/>
							</Node>
							<Node id="7">
								<SimplePredicate field="disp" operator="greaterThan" value="101.55"/>
								<Node id="10">
									<SimplePredicate field="hp" operator="lessOrEqual" value="116.5"/>
									<Node id="12">
										<SimplePredicate field="gear" operator="lessOrEqual" value="4.5"/>
										<Node id="14">
											<SimplePredicate field="disp" operator="lessOrEqual" value="153.35"/>
											<Node id="16" score="21.4">
												<SimplePredicate field="qsec" operator="lessOrEqual" value="18.605"/>
											</Node>
											<Node id="17">
												<SimplePredicate field="qsec" operator="greaterThan" value="18.605"/>
												<Node id="18" score="22.8">
													<SimplePredicate field="disp" operator="lessOrEqual" value="143.75"/>
												</Node>
												<Node id="19" score="24.4">
													<SimplePredicate field="disp" operator="greaterThan" value="143.75"/>
												</Node>
											</Node>
										</Node>
										<Node id="15" score="21.0">
											<SimplePredicate field="disp" operator="greaterThan" value="153.35"/>
										</Node>
									</Node>
									<Node id="13" score="26.0">
										<SimplePredicate field="gear" operator="greaterThan" value="4.5"/>
									</Node>
								</Node>
								<Node id="11" score="17.5">
									<SimplePredicate field="hp" operator="greaterThan" value="116.5"/>
								</Node>
							</Node>
						</Node>
					</Node>
				</TreeModel>
			</Segment>
			<Segment id="34">
				<True/>
				<TreeModel functionName="regression" missingValueStrategy="nullPrediction" splitCharacteristic="binarySplit">
					<MiningSchema>
						<MiningField name="cyl"/>
						<MiningField name="disp"/>
						<MiningField name="hp"/>
						<MiningField name="wt"/>
						<MiningField name="carb"/>
					</MiningSchema>
					<Node id="1">
						<True/>
						<Node id="2">
							<SimplePredicate field="wt" operator="lessOrEqual" value="2.49"/>
							<Node id="4" score="31.799999999999997">
								<SimplePredicate field="wt" operator="lessOrEqual" value="1.885"/>
							</Node>
							<Node id="5" score="28.566666666666666">
								<SimplePredicate field="wt" operator="greaterThan" value="1.885"/>
							</Node>
						</Node>
						<Node id="3">
							<SimplePredicate field="wt" operator="greaterThan" value="2.49"/>
							<Node id="6" score="21.8">
								<SimplePredicate field="disp" operator="lessOrEqual" value="163.8"/>
							</Node>
							<Node id="7">
								<SimplePredicate field="disp" operator="greaterThan" value="163.8"/>
								<Node id="8" score="18.0">
									<SimplePredicate field="cyl" operator="lessOrEqual" value="7.0"/>
								</Node>
								<Node id="9">
									<SimplePredicate field="cyl" operator="greaterThan" value="7.0"/>
									<Node id="10">
										<SimplePredicate field="wt" operator="lessOrEqual" value="3.785"/>
										<Node id="12" score="15.2">
											<SimplePredicate field="hp" operator="lessOrEqual" value="162.5"/>
										</Node>
										<Node id="13">
											<SimplePredicate field="hp" operator="greaterThan" value="162.5"/>
											<Node id="14" score="18.14">
												<SimplePredicate field="carb" operator="lessOrEqual" value="3.5"/>
											</Node>
											<Node id="15" score="15.3">
												<SimplePredicate field="carb" operator="greaterThan" value="3.5"/>
											</Node>
										</Node>
									</Node>
									<Node id="11" score="12.420000000000002">
										<SimplePredicate field="wt" operator="greaterThan" value="3.785"/>
									</Node>
								</Node>
							</Node>
						</Node>
					</Node>
				</TreeModel>
			</Segment>
			<Segment id="35">
				<True/>
				<TreeModel functionName="regression" missingValueStrategy="nullPrediction" splitCharacteristic="binarySplit">
					<MiningSchema>
						<MiningField name="cyl"/>
						<MiningField name="disp"/>
						<MiningField name="wt"/>
						<MiningField name="qsec"/>
						<MiningField name="gear"/>
						<MiningField name="carb"/>
					</MiningSchema>
					<Node id="1">
						<True/>
						<Node id="2">
							<SimplePredicate field="gear" operator="lessOrEqual" value="3.5"/>
							<Node id="4">
								<SimplePredicate field="carb" operator="lessOrEqual" value="3.5"/>
								<Node id="8" score="21.5">
									<SimplePredicate field="wt" operator="lessOrEqual" value="2.95"/>
								</Node>
								<Node id="9">
									<SimplePredicate field="wt" operator="greaterThan" value="2.95"/>
									<Node id="12" score="15.2">
										<SimplePredicate field="wt" operator="lessOrEqual" value="3.4375"/>
									</Node>
									<Node id="13">
										<SimplePredicate field="wt" operator="greaterThan" value="3.4375"/>
										<Node id="16" score="18.1">
											<SimplePredicate field="cyl" operator="lessOrEqual" value="7.0"/>
										</Node>
										<Node id="17">
											<SimplePredicate field="cyl" operator="greaterThan" value="7.0"/>
											<Node id="18" score="18.95">
												<SimplePredicate field="qsec" operator="lessOrEqual" value="17.325000000000003"/>
											</Node>
											<Node id="19" score="16.6">
												<SimplePredicate field="qsec" operator="greaterThan" value="17.325000000000003"/>
											</Node>
										</Node>
									</Node>
								</Node>
							</Node>
							<Node id="5" score="12.666666666666668">
								<SimplePredicate field="carb" operator="greaterThan" value="3.5"/>
							</Node>
						</Node>
						<Node id="3">
							<SimplePredicate field="gear" operator="greaterThan" value="3.5"/>
							<Node id="6">
								<SimplePredicate field="carb" operator="lessOrEqual" value="3.0"/>
								<Node id="10">
									<SimplePredicate field="wt" operator="lessOrEqual" value="2.0774999999999997"/>
									<Node id="14" score="33.9">
										<SimplePredicate field="disp" operator="lessOrEqual" value="73.4"/>
									</Node>
									<Node id="15" score="30.4">
										<SimplePredicate field="disp" operator="greaterThan" value="73.4"/>
									</Node>
								</Node>
								<Node id="11" score="23.6">
									<SimplePredicate field="wt" operator="greaterThan" value="2.0774999999999997"/>
								</Node>
							</Node>
							<Node id="7" score="19.32">
								<SimplePredicate field="carb" operator="greaterThan" value="3.0"/>
							</Node>
						</Node>
					</Node>
				</TreeModel>
			</Segment>
			<Segment id="36">
				<True/>
				<TreeModel functionName="regression" missingValueStrategy="nullPrediction" splitCharacteristic="binarySplit">
					<MiningSchema>
						<MiningField name="disp"/>
						<MiningField name="hp"/>
						<MiningField name="drat"/>
						<MiningField name="wt"/>
						<MiningField name="qsec"/>
						<MiningField name="am"/>
					</MiningSchema>
					<Node id="1">
						<True/>
						<Node id="2">
							<SimplePredicate field="hp" operator="lessOrEqual" value="116.5"/>
							<Node id="4">
								<SimplePredicate field="drat" operator="lessOrEqual" value="4.52"/>
								<Node id="8" score="25.85">
									<SimplePredicate field="hp" operator="lessOrEqual" value="81.5"/>
								</Node>
								<Node id="9">
									<SimplePredicate field="hp" operator="greaterThan" value="81.5"/>
									<Node id="14" score="19.8">
										<SimplePredicate field="hp" operator="lessOrEqual" value="107.0"/>
									</Node>
									<Node id="15" score="21.24">
										<SimplePredicate field="hp" operator="greaterThan" value="107.0"/>
									</Node>
								</Node>
							</Node>
							<Node id="5" score="30.4">
								<SimplePredicate field="drat" operator="greaterThan" value="4.52"/>
							</Node>
						</Node>
						<Node id="3">
							<SimplePredicate field="hp" operator="greaterThan" value="116.5"/>
							<Node id="6">
								<SimplePredicate field="hp" operator="lessOrEqual" value="192.5"/>
								<Node id="10" score="15.5">
									<SimplePredicate field="qsec" operator="lessOrEqual" value="16.945"/>
								</Node>
								<Node id="11">
									<SimplePredicate field="qsec" operator="greaterThan" value="16.945"/>
									<Node id="16" score="15.2">
										<SimplePredicate field="wt" operator="lessOrEqual" value="3.4375"/>
									</Node>
									<Node id="17">
