<?xml version="1.0" encoding="UTF-8" standalone="yes"?>
<PMML xmlns="http://www.dmg.org/PMML-4_4" xmlns:data="http://jpmml.org/jpmml-model/InlineTable" version="4.4">
	<Header>
		<Application name="SkLearn2PMML package" version="0.129.2"/>
		<Timestamp>2026-05-01T17:59:42Z</Timestamp>
	</Header>
	<MiningBuildTask>
		<Extension name="repr">PMMLPipeline(steps=[('regressor', RandomForestRegressor(random_state=123))])</Extension>
	</MiningBuildTask>
	<DataDictionary>
		<DataField name="mpg" optype="continuous" dataType="double"/>
		<DataField name="cyl" optype="continuous" dataType="float"/>
		<DataField name="disp" optype="continuous" dataType="float"/>
		<DataField name="hp" optype="continuous" dataType="float"/>
		<DataField name="drat" optype="continuous" dataType="float"/>
		<DataField name="wt" optype="continuous" dataType="float"/>
		<DataField name="qsec" optype="continuous" dataType="float"/>
		<DataField name="vs" optype="continuous" dataType="float"/>
		<DataField name="am" optype="continuous" dataType="float"/>
		<DataField name="gear" optype="continuous" dataType="float"/>
		<DataField name="carb" optype="continuous" dataType="float"/>
	</DataDictionary>
	<MiningModel functionName="regression" algorithmName="sklearn.ensemble._forest.RandomForestRegressor">
		<MiningSchema>
			<MiningField name="mpg" usageType="target"/>
			<MiningField name="disp"/>
			<MiningField name="qsec"/>
			<MiningField name="drat"/>
			<MiningField name="hp"/>
			<MiningField name="am"/>
			<MiningField name="wt"/>
			<MiningField name="carb"/>
			<MiningField name="cyl"/>
			<MiningField name="gear"/>
			<MiningField name="vs"/>
		</MiningSchema>
		<LocalTransformations>
			<DerivedField name="double(disp)" optype="continuous" dataType="double">
				<FieldRef field="disp"/>
			</DerivedField>
			<DerivedField name="double(qsec)" optype="continuous" dataType="double">
				<FieldRef field="qsec"/>
			</DerivedField>
			<DerivedField name="double(drat)" optype="continuous" dataType="double">
				<FieldRef field="drat"/>
			</DerivedField>
			<DerivedField name="double(hp)" optype="continuous" dataType="double">
				<FieldRef field="hp"/>
			</DerivedField>
			<DerivedField name="double(am)" optype="continuous" dataType="double">
				<FieldRef field="am"/>
			</DerivedField>
			<DerivedField name="double(wt)" optype="continuous" dataType="double">
				<FieldRef field="wt"/>
			</DerivedField>
			<DerivedField name="double(carb)" optype="continuous" dataType="double">
				<FieldRef field="carb"/>
			</DerivedField>
			<DerivedField name="double(cyl)" optype="continuous" dataType="double">
				<FieldRef field="cyl"/>
			</DerivedField>
			<DerivedField name="double(gear)" optype="continuous" dataType="double">
				<FieldRef field="gear"/>
			</DerivedField>
			<DerivedField name="double(vs)" optype="continuous" dataType="double">
				<FieldRef field="vs"/>
			</DerivedField>
		</LocalTransformations>
		<Segmentation multipleModelMethod="average" missingPredictionTreatment="returnMissing">
			<Segment id="1">
				<True/>
				<TreeModel functionName="regression" missingValueStrategy="nullPrediction" noTrueChildStrategy="returnLastPrediction">
					<MiningSchema>
						<MiningField name="double(disp)"/>
						<MiningField name="double(qsec)"/>
						<MiningField name="double(drat)"/>
						<MiningField name="double(hp)"/>
						<MiningField name="double(am)"/>
						<MiningField name="double(wt)"/>
						<MiningField name="double(carb)"/>
					</MiningSchema>
					<Node score="10.4">
						<True/>
						<Node score="32.4">
							<SimplePredicate field="double(disp)" operator="lessOrEqual" value="120.6500015258789"/>
							<Node score="27.3">
								<SimplePredicate field="double(qsec)" operator="lessOrEqual" value="19.184999465942383"/>
								<Node score="22.8">
									<SimplePredicate field="double(drat)" operator="lessOrEqual" value="3.9649999141693115"/>
								</Node>
								<Node score="26.0">
									<SimplePredicate field="double(qsec)" operator="lessOrEqual" value="17.800000190734863"/>
								</Node>
							</Node>
						</Node>
						<Node score="19.7">
							<SimplePredicate field="double(hp)" operator="lessOrEqual" value="195.0"/>
							<Node score="17.8">
								<SimplePredicate field="double(am)" operator="lessOrEqual" value="0.5"/>
								<Node score="15.5">
									<SimplePredicate field="double(drat)" operator="lessOrEqual" value="2.9199999570846558"/>
								</Node>
								<Node score="15.2">
									<SimplePredicate field="double(wt)" operator="lessOrEqual" value="3.4375"/>
								</Node>
								<Node score="19.2">
									<SimplePredicate field="double(qsec)" operator="lessOrEqual" value="18.59999942779541"/>
									<Node score="18.7">
										<SimplePredicate field="double(qsec)" operator="lessOrEqual" value="17.03499984741211"/>
									</Node>
								</Node>
							</Node>
							<Node score="21.4">
								<SimplePredicate field="double(carb)" operator="lessOrEqual" value="5.0"/>
								<Node score="21.0">
									<SimplePredicate field="double(qsec)" operator="lessOrEqual" value="17.8100004196167"/>
								</Node>
							</Node>
						</Node>
						<Node score="14.7">
							<SimplePredicate field="double(wt)" operator="lessOrEqual" value="5.384499788284302"/>
							<Node score="15.8">
								<SimplePredicate field="double(wt)" operator="lessOrEqual" value="3.3700000047683716"/>
							</Node>
							<Node score="14.3">
								<SimplePredicate field="double(drat)" operator="lessOrEqual" value="3.2200000286102295"/>
							</Node>
							<Node score="15.0">
								<SimplePredicate field="double(disp)" operator="lessOrEqual" value="370.5"/>
							</Node>
						</Node>
					</Node>
				</TreeModel>
			</Segment>
			<Segment id="2">
				<True/>
				<TreeModel functionName="regression" missingValueStrategy="nullPrediction" noTrueChildStrategy="returnLastPrediction">
					<MiningSchema>
						<MiningField name="double(disp)"/>
						<MiningField name="double(qsec)"/>
						<MiningField name="double(drat)"/>
						<MiningField name="double(hp)"/>
						<MiningField name="double(wt)"/>
						<MiningField name="double(cyl)"/>
						<MiningField name="double(gear)"/>
					</MiningSchema>
					<Node score="10.4">
						<True/>
						<Node score="24.4">
							<SimplePredicate field="double(cyl)" operator="lessOrEqual" value="5.0"/>
							<Node score="33.9">
								<SimplePredicate field="double(wt)" operator="lessOrEqual" value="1.8849999904632568"/>
								<Node score="30.4">
									<SimplePredicate field="double(wt)" operator="lessOrEqual" value="1.725000023841858"/>
									<Node score="30.4">
										<SimplePredicate field="double(drat)" operator="lessOrEqual" value="4.349999904632568"/>
									</Node>
								</Node>
							</Node>
							<Node score="26.0">
								<SimplePredicate field="double(qsec)" operator="lessOrEqual" value="19.449999809265137"/>
								<Node score="27.3">
									<SimplePredicate field="double(drat)" operator="lessOrEqual" value="4.254999876022339"/>
								</Node>
							</Node>
							<Node score="22.8">
								<SimplePredicate field="double(disp)" operator="lessOrEqual" value="143.75"/>
							</Node>
						</Node>
						<Node score="19.2">
							<SimplePredicate field="double(hp)" operator="lessOrEqual" value="177.5"/>
							<Node score="21.0">
								<SimplePredicate field="double(wt)" operator="lessOrEqual" value="3.3249999284744263"/>
								<Node score="21.4">
									<SimplePredicate field="double(gear)" operator="lessOrEqual" value="3.5"/>
								</Node>
							</Node>
							<Node score="15.2">
								<SimplePredicate field="double(wt)" operator="lessOrEqual" value="3.4375"/>
							</Node>
							<Node score="18.1">
								<SimplePredicate field="double(hp)" operator="lessOrEqual" value="149.0"/>
								<Node score="17.8">
									<SimplePredicate field="double(qsec)" operator="lessOrEqual" value="19.559999465942383"/>
								</Node>
							</Node>
							<Node score="18.7">
								<SimplePredicate field="double(wt)" operator="lessOrEqual" value="3.6425000429153442"/>
							</Node>
						</Node>
						<Node score="15.8">
							<SimplePredicate field="double(disp)" operator="lessOrEqual" value="456.0"/>
							<Node score="14.7">
								<SimplePredicate field="double(gear)" operator="lessOrEqual" value="4.0"/>
								<Node score="13.3">
									<SimplePredicate field="double(qsec)" operator="lessOrEqual" value="15.625"/>
								</Node>
								<Node score="15.2">
									<SimplePredicate field="double(disp)" operator="lessOrEqual" value="317.8999938964844"/>
								</Node>
								<Node score="14.3">
									<SimplePredicate field="double(wt)" operator="lessOrEqual" value="4.457499861717224"/>
								</Node>
							</Node>
							<Node score="15.0">
								<SimplePredicate field="double(disp)" operator="lessOrEqual" value="326.0"/>
							</Node>
						</Node>
					</Node>
				</TreeModel>
			</Segment>
			<Segment id="3">
				<True/>
				<TreeModel functionName="regression" missingValueStrategy="nullPrediction" noTrueChildStrategy="returnLastPrediction">
					<MiningSchema>
						<MiningField name="double(disp)"/>
						<MiningField name="double(qsec)"/>
						<MiningField name="double(hp)"/>
						<MiningField name="double(wt)"/>
						<MiningField name="double(carb)"/>
						<MiningField name="double(cyl)"/>
						<MiningField name="double(gear)"/>
					</MiningSchema>
					<Node score="10.4">
						<True/>
						<Node score="24.4">
							<SimplePredicate field="double(cyl)" operator="lessOrEqual" value="5.0"/>
							<Node score="32.4">
								<SimplePredicate field="double(wt)" operator="lessOrEqual" value="2.490000009536743"/>
								<Node score="27.3">
									<SimplePredicate field="double(qsec)" operator="lessOrEqual" value="19.184999465942383"/>
									<Node score="30.4">
										<SimplePredicate field="double(qsec)" operator="lessOrEqual" value="18.710000038146973"/>
										<Node score="30.399999999999995">
											<SimplePredicate field="double(wt)" operator="lessOrEqual" value="1.5640000104904175"/>
										</Node>
									</Node>
								</Node>
							</Node>
							<Node score="21.4">
								<SimplePredicate field="double(disp)" operator="lessOrEqual" value="143.75"/>
								<Node score="22.8">
									<SimplePredicate field="double(hp)" operator="lessOrEqual" value="102.0"/>
								</Node>
							</Node>
						</Node>
						<Node score="15.2">
							<SimplePredicate field="double(hp)" operator="lessOrEqual" value="192.5"/>
							<Node score="17.8">
								<SimplePredicate field="double(hp)" operator="lessOrEqual" value="177.5"/>
								<Node score="19.7">
									<SimplePredicate field="double(qsec)" operator="lessOrEqual" value="18.59999942779541"/>
									<Node score="19.2">
										<SimplePredicate field="double(carb)" operator="lessOrEqual" value="5.0"/>
									</Node>
								</Node>
								<Node score="18.1">
									<SimplePredicate field="double(gear)" operator="lessOrEqual" value="3.5"/>
								</Node>
							</Node>
							<Node score="17.3">
								<SimplePredicate field="double(qsec)" operator="lessOrEqual" value="17.800000190734863"/>
								<Node score="16.4">
									<SimplePredicate field="double(qsec)" operator="lessOrEqual" value="17.5"/>
								</Node>
							</Node>
						</Node>
						<Node score="14.7">
							<SimplePredicate field="double(disp)" operator="lessOrEqual" value="456.0"/>
							<Node score="13.3">
								<SimplePredicate field="double(qsec)" operator="lessOrEqual" value="15.625"/>
							</Node>
							<Node score="14.3">
								<SimplePredicate field="double(disp)" operator="lessOrEqual" value="400.0"/>
							</Node>
						</Node>
					</Node>
				</TreeModel>
			</Segment>
			<Segment id="4">
				<True/>
				<TreeModel functionName="regression" missingValueStrategy="nullPrediction" noTrueChildStrategy="returnLastPrediction">
					<MiningSchema>
						<MiningField name="double(disp)"/>
						<MiningField name="double(qsec)"/>
						<MiningField name="double(drat)"/>
						<MiningField name="double(hp)"/>
						<MiningField name="double(carb)"/>
						<MiningField name="double(vs)"/>
					</MiningSchema>
					<Node score="10.4">
						<True/>
						<Node score="26.0">
							<SimplePredicate field="double(hp)" operator="lessOrEqual" value="116.5"/>
							<Node score="30.4">
								<SimplePredicate field="double(hp)" operator="lessOrEqual" value="78.5"/>
								<Node score="33.9">
									<SimplePredicate field="double(carb)" operator="lessOrEqual" value="1.5"/>
									<Node score="32.4">
										<SimplePredicate field="double(drat)" operator="lessOrEqual" value="4.1499998569488525"/>
									</Node>
								</Node>
							</Node>
							<Node score="21.4">
								<SimplePredicate field="double(drat)" operator="lessOrEqual" value="4.269999980926514"/>
								<Node score="22.8">
									<SimplePredicate field="double(hp)" operator="lessOrEqual" value="96.0"/>
								</Node>
								<Node score="21.0">
									<SimplePredicate field="double(vs)" operator="lessOrEqual" value="0.5"/>
								</Node>
								<Node score="21.5">
									<SimplePredicate field="double(disp)" operator="lessOrEqual" value="120.54999923706055"/>
								</Node>
							</Node>
						</Node>
						<Node score="17.3">
							<SimplePredicate field="double(hp)" operator="lessOrEqual" value="192.5"/>
							<Node score="17.8">
								<SimplePredicate field="double(hp)" operator="lessOrEqual" value="177.5"/>
								<Node score="19.2">
									<SimplePredicate field="double(qsec)" operator="lessOrEqual" value="18.59999942779541"/>
									<Node score="18.7">
										<SimplePredicate field="double(qsec)" operator="lessOrEqual" value="17.03499984741211"/>
									</Node>
								</Node>
							</Node>
						</Node>
						<Node score="13.3">
							<SimplePredicate field="double(disp)" operator="lessOrEqual" value="410.0"/>
							<Node score="15.0">
								<SimplePredicate field="double(qsec)" operator="lessOrEqual" value="15.005000114440918"/>
								<Node score="15.8">
									<SimplePredicate field="double(hp)" operator="lessOrEqual" value="299.5"/>
								</Node>
							</Node>
							<Node score="14.300000000000002">
								<SimplePredicate field="double(drat)" operator="lessOrEqual" value="3.4700000286102295"/>
							</Node>
						</Node>
					</Node>
				</TreeModel>
			</Segment>
			<Segment id="5">
				<True/>
				<TreeModel functionName="regression" missingValueStrategy="nullPrediction" noTrueChildStrategy="returnLastPrediction">
					<MiningSchema>
						<MiningField name="double(qsec)"/>
						<MiningField name="double(drat)"/>
						<MiningField name="double(hp)"/>
						<MiningField name="double(wt)"/>
						<MiningField name="double(carb)"/>
						<MiningField name="double(gear)"/>
						<MiningField name="double(vs)"/>
					</MiningSchema>
					<Node score="15.0">
						<True/>
						<Node score="21.4">
							<SimplePredicate field="double(hp)" operator="lessOrEqual" value="118.0"/>
							<Node score="33.9">
								<SimplePredicate field="double(wt)" operator="lessOrEqual" value="1.9875000715255737"/>
								<Node score="30.4">
									<SimplePredicate field="double(wt)" operator="lessOrEqual" value="1.725000023841858"/>
									<Node score="30.4">
										<SimplePredicate field="double(drat)" operator="lessOrEqual" value="4.349999904632568"/>
									</Node>
								</Node>
							</Node>
							<Node score="22.8">
								<SimplePredicate field="double(hp)" operator="lessOrEqual" value="100.0"/>
								<Node score="26.0">
									<SimplePredicate field="double(qsec)" operator="lessOrEqual" value="21.449999809265137"/>
									<Node score="24.4">
										<SimplePredicate field="double(gear)" operator="lessOrEqual" value="4.5"/>
									</Node>
								</Node>
							</Node>
							<Node score="18.1">
								<SimplePredicate field="double(hp)" operator="lessOrEqual" value="107.0"/>
							</Node>
							<Node score="21.0">
								<SimplePredicate field="double(vs)" operator="lessOrEqual" value="0.5"/>
							</Node>
						</Node>
						<Node score="10.4">
							<SimplePredicate field="double(drat)" operator="lessOrEqual" value="3.034999966621399"/>
						</Node>
						<Node score="18.7">
							<SimplePredicate field="double(hp)" operator="lessOrEqual" value="177.5"/>
							<Node score="17.8">
								<SimplePredicate field="double(hp)" operator="lessOrEqual" value="149.0"/>
							</Node>
							<Node score="19.2">
								<SimplePredicate field="double(drat)" operator="lessOrEqual" value="3.115000009536743"/>
							</Node>
						</Node>
						<Node score="15.2">
							<SimplePredicate field="double(hp)" operator="lessOrEqual" value="205.0"/>
							<Node score="16.4">
								<SimplePredicate field="double(qsec)" operator="lessOrEqual" value="17.699999809265137"/>
							</Node>
						</Node>
						<Node score="13.3">
							<SimplePredicate field="double(gear)" operator="lessOrEqual" value="4.0"/>
							<Node score="14.7">
								<SimplePredicate field="double(drat)" operator="lessOrEqual" value="3.4800000190734863"/>
							</Node>
						</Node>
						<Node score="15.8">
							<SimplePredicate field="double(carb)" operator="lessOrEqual" value="6.0"/>
						</Node>
					</Node>
				</TreeModel>
			</Segment>
			<Segment id="6">
				<True/>
				<TreeModel functionName="regression" missingValueStrategy="nullPrediction" noTrueChildStrategy="returnLastPrediction">
					<MiningSchema>
						<MiningField name="double(disp)"/>
						<MiningField name="double(qsec)"/>
						<MiningField name="double(drat)"/>
						<MiningField name="double(hp)"/>
						<MiningField name="double(wt)"/>
						<MiningField name="double(carb)"/>
						<MiningField name="double(vs)"/>
					</MiningSchema>
					<Node score="10.4">
						<True/>
						<Node score="21.4">
							<SimplePredicate field="double(wt)" operator="lessOrEqual" value="3.3274999856948853"/>
							<Node score="33.9">
								<SimplePredicate field="double(disp)" operator="lessOrEqual" value="101.54999923706055"/>
								<Node score="30.4">
									<SimplePredicate field="double(drat)" operator="lessOrEqual" value="3.994999885559082"/>
								</Node>
							</Node>
							<Node score="26.0">
								<SimplePredicate field="double(hp)" operator="lessOrEqual" value="92.0"/>
								<Node score="24.4">
									<SimplePredicate field="double(drat)" operator="lessOrEqual" value="4.059999942779541"/>
								</Node>
							</Node>
							<Node score="22.8">
								<SimplePredicate field="double(wt)" operator="lessOrEqual" value="2.3924999237060547"/>
							</Node>
							<Node score="19.7">
								<SimplePredicate field="double(qsec)" operator="lessOrEqual" value="16.260000228881836"/>
							</Node>
							<Node score="21.0">
								<SimplePredicate field="double(vs)" operator="lessOrEqual" value="0.5"/>
							</Node>
							<Node score="21.5">
								<SimplePredicate field="double(hp)" operator="lessOrEqual" value="103.0"/>
							</Node>
						</Node>
						<Node score="16.4">
							<SimplePredicate field="double(hp)" operator="lessOrEqual" value="192.5"/>
							<Node score="17.8">
								<SimplePredicate field="double(hp)" operator="lessOrEqual" value="177.5"/>
								<Node score="18.7">
									<SimplePredicate field="double(qsec)" operator="lessOrEqual" value="17.960000038146973"/>
								</Node>
								<Node score="18.1">
									<SimplePredicate field="double(drat)" operator="lessOrEqual" value="3.340000033378601"/>
								</Node>
							</Node>
							<Node score="17.3">
								<SimplePredicate field="double(wt)" operator="lessOrEqual" value="3.9000000953674316"/>
							</Node>
						</Node>
						<Node score="13.3">
							<SimplePredicate field="double(qsec)" operator="lessOrEqual" value="16.829999923706055"/>
							<Node score="15.0">
								<SimplePredicate field="double(wt)" operator="lessOrEqual" value="3.7049999237060547"/>
								<Node score="14.3">
									<SimplePredicate field="double(carb)" operator="lessOrEqual" value="6.0"/>
								</Node>
							</Node>
						</Node>
					</Node>
				</TreeModel>
			</Segment>
			<Segment id="7">
				<True/>
				<TreeModel functionName="regression" missingValueStrategy="nullPrediction" noTrueChildStrategy="returnLastPrediction">
					<MiningSchema>
						<MiningField name="double(disp)"/>
						<MiningField name="double(qsec)"/>
						<MiningField name="double(hp)"/>
						<MiningField name="double(wt)"/>
						<MiningField name="double(carb)"/>
						<MiningField name="double(gear)"/>
					</MiningSchema>
					<Node score="10.4">
						<True/>
						<Node score="26.0">
							<SimplePredicate field="double(wt)" operator="lessOrEqual" value="2.409999966621399"/>
							<Node score="33.9">
								<SimplePredicate field="double(disp)" operator="lessOrEqual" value="78.8499984741211"/>
								<Node score="32.4">
									<SimplePredicate field="double(qsec)" operator="lessOrEqual" value="19.684999465942383"/>
								</Node>
							</Node>
							<Node score="27.3">
								<SimplePredicate field="double(carb)" operator="lessOrEqual" value="1.5"/>
							</Node>
						</Node>
						<Node score="19.2">
							<SimplePredicate field="double(hp)" operator="lessOrEqual" value="192.5"/>
							<Node score="22.8">
								<SimplePredicate field="double(wt)" operator="lessOrEqual" value="3.3249999284744263"/>
								<Node score="21.4">
									<SimplePredicate field="double(qsec)" operator="lessOrEqual" value="21.170000076293945"/>
									<Node score="21.0">
										<SimplePredicate field="double(wt)" operator="lessOrEqual" value="2.6999999284744263"/>
									</Node>
								</Node>
							</Node>
							<Node score="16.4">
								<SimplePredicate field="double(disp)" operator="lessOrEqual" value="339.0"/>
								<Node score="17.8">
									<SimplePredicate field="double(disp)" operator="lessOrEqual" value="250.39999389648438"/>
									<Node score="19.2">
										<SimplePredicate field="double(qsec)" operator="lessOrEqual" value="18.59999942779541"/>
									</Node>
									<Node score="18.1">
										<SimplePredicate field="double(gear)" operator="lessOrEqual" value="3.5"/>
									</Node>
								</Node>
								<Node score="15.5">
									<SimplePredicate field="double(wt)" operator="lessOrEqual" value="3.9250000715255737"/>
									<Node score="15.2">
										<SimplePredicate field="double(disp)" operator="lessOrEqual" value="311.0"/>
									</Node>
								</Node>
							</Node>
							<Node score="18.7">
								<SimplePredicate field="double(qsec)" operator="lessOrEqual" value="17.03499984741211"/>
							</Node>
						</Node>
						<Node score="15.0">
							<SimplePredicate field="double(qsec)" operator="lessOrEqual" value="16.614999771118164"/>
							<Node score="13.3">
								<SimplePredicate field="double(hp)" operator="lessOrEqual" value="290.0"/>
							</Node>
						</Node>
					</Node>
				</TreeModel>
			</Segment>
			<Segment id="8">
				<True/>
				<TreeModel functionName="regression" missingValueStrategy="nullPrediction" noTrueChildStrategy="returnLastPrediction">
					<MiningSchema>
						<MiningField name="double(disp)"/>
						<MiningField name="double(qsec)"/>
						<MiningField name="double(drat)"/>
						<MiningField name="double(hp)"/>
						<MiningField name="double(am)"/>
						<MiningField name="double(wt)"/>
						<MiningField name="double(carb)"/>
						<MiningField name="double(gear)"/>
					</MiningSchema>
					<Node score="10.4">
						<True/>
						<Node score="24.4">
							<SimplePredicate field="double(hp)" operator="lessOrEqual" value="92.0"/>
							<Node score="33.9">
								<SimplePredicate field="double(disp)" operator="lessOrEqual" value="99.5"/>
								<Node score="30.4">
									<SimplePredicate field="double(qsec)" operator="lessOrEqual" value="18.994999885559082"/>
								</Node>
								<Node score="32.4">
									<SimplePredicate field="double(drat)" operator="lessOrEqual" value="4.1499998569488525"/>
								</Node>
							</Node>
							<Node score="26.0">
								<SimplePredicate field="double(wt)" operator="lessOrEqual" value="2.665000081062317"/>
							</Node>
						</Node>
						<Node score="18.1">
							<SimplePredicate field="double(disp)" operator="lessOrEqual" value="266.8999938964844"/>
							<Node score="19.7">
								<SimplePredicate field="double(wt)" operator="lessOrEqual" value="3.3274999856948853"/>
								<Node score="21.0">
									<SimplePredicate field="double(carb)" operator="lessOrEqual" value="5.0"/>
									<Node score="22.8">
										<SimplePredicate field="double(hp)" operator="lessOrEqual" value="96.0"/>
									</Node>
									<Node score="21.4">
										<SimplePredicate field="double(am)" operator="lessOrEqual" value="0.5"/>
										<Node score="21.5">
											<SimplePredicate field="double(wt)" operator="lessOrEqual" value="2.8399999141693115"/>
										</Node>
									</Node>
								</Node>
							</Node>
							<Node score="19.2">
								<SimplePredicate field="double(qsec)" operator="lessOrEqual" value="19.25999927520752"/>
							</Node>
						</Node>
						<Node score="14.7">
							<SimplePredicate field="double(disp)" operator="lessOrEqual" value="450.0"/>
							<Node score="15.8">
								<SimplePredicate field="double(wt)" operator="lessOrEqual" value="3.4800000190734863"/>
								<Node score="18.7">
									<SimplePredicate field="double(gear)" operator="lessOrEqual" value="4.0"/>
								</Node>
							</Node>
							<Node score="15.5">
								<SimplePredicate field="double(wt)" operator="lessOrEqual" value="4.5624998807907104"/>
								<Node score="15.2">
									<SimplePredicate field="double(disp)" operator="lessOrEqual" value="296.8999938964844"/>
								</Node>
							</Node>
						</Node>
					</Node>
				</TreeModel>
			</Segment>
			<Segment id="9">
				<True/>
				<TreeModel functionName="regression" missingValueStrategy="nullPrediction" noTrueChildStrategy="returnLastPrediction">
					<MiningSchema>
						<MiningField name="double(disp)"/>
						<MiningField name="double(qsec)"/>
						<MiningField name="double(drat)"/>
						<MiningField name="double(hp)"/>
						<MiningField name="double(wt)"/>
						<MiningField name="double(carb)"/>
						<MiningField name="double(vs)"/>
					</MiningSchema>
					<Node score="15.8">
						<True/>
						<Node score="30.4">
							<SimplePredicate field="double(wt)" operator="lessOrEqual" value="2.259999990463257"/>
							<Node score="26.0">
								<SimplePredicate field="double(vs)" operator="lessOrEqual" value="0.5"/>
							</Node>
							<Node score="32.4">
								<SimplePredicate field="double(carb)" operator="lessOrEqual" value="1.5"/>
								<Node score="33.9">
									<SimplePredicate field="double(hp)" operator="lessOrEqual" value="65.5"/>
								</Node>
							</Node>
						</Node>
						<Node score="18.1">
							<SimplePredicate field="double(hp)" operator="lessOrEqual" value="177.5"/>
							<Node score="21.4">
								<SimplePredicate field="double(wt)" operator="lessOrEqual" value="3.315000057220459"/>
								<Node score="24.4">
									<SimplePredicate field="double(drat)" operator="lessOrEqual" value="3.875"/>
									<Node score="22.8">
										<SimplePredicate field="double(qsec)" operator="lessOrEqual" value="19.30500030517578"/>
									</Node>
								</Node>
								<Node score="21.0">
									<SimplePredicate field="double(vs)" operator="lessOrEqual" value="0.5"/>
								</Node>
							</Node>
							<Node score="19.2">
								<SimplePredicate field="double(qsec)" operator="lessOrEqual" value="18.59999942779541"/>
								<Node score="18.7">
									<SimplePredicate field="double(qsec)" operator="lessOrEqual" value="17.03499984741211"/>
								</Node>
							</Node>
							<Node score="17.8">
								<SimplePredicate field="double(qsec)" operator="lessOrEqual" value="19.559999465942383"/>
							</Node>
						</Node>
						<Node score="10.4">
							<SimplePredicate field="double(drat)" operator="lessOrEqual" value="3.0"/>
						</Node>
						<Node score="16.4">
							<SimplePredicate field="double(drat)" operator="lessOrEqual" value="3.149999976158142"/>
							<Node score="17.3">
								<SimplePredicate field="double(wt)" operator="lessOrEqual" value="3.9000000953674316"/>
							</Node>
						</Node>
						<Node score="13.3">
							<SimplePredicate field="double(disp)" operator="lessOrEqual" value="350.5"/>
						</Node>
						<Node score="14.7">
							<SimplePredicate field="double(drat)" operator="lessOrEqual" value="3.7249999046325684"/>
						</Node>
					</Node>
				</TreeModel>
			</Segment>
			<Segment id="10">
				<True/>
				<TreeModel functionName="regression" missingValueStrategy="nullPrediction" noTrueChildStrategy="returnLastPrediction">
					<MiningSchema>
						<MiningField name="double(disp)"/>
						<MiningField name="double(qsec)"/>
						<MiningField name="double(drat)"/>
						<MiningField name="double(hp)"/>
						<MiningField name="double(am)"/>
						<MiningField name="double(wt)"/>
						<MiningField name="double(carb)"/>
					</MiningSchema>
					<Node score="16.4">
						<True/>
						<Node score="32.4">
							<SimplePredicate field="double(wt)" operator="lessOrEqual" value="2.259999990463257"/>
							<Node score="26.0">
								<SimplePredicate field="double(qsec)" operator="lessOrEqual" value="19.184999465942383"/>
								<Node score="30.4">
									<SimplePredicate field="double(wt)" operator="lessOrEqual" value="1.774999976158142"/>
								</Node>
								<Node score="27.3">
									<SimplePredicate field="double(disp)" operator="lessOrEqual" value="99.6500015258789"/>
								</Node>
							</Node>
							<Node score="33.9">
								<SimplePredicate field="double(hp)" operator="lessOrEqual" value="65.5"/>
							</Node>
						</Node>
						<Node score="19.7">
							<SimplePredicate field="double(disp)" operator="lessOrEqual" value="221.6999969482422"/>
							<Node score="21.0">
								<SimplePredicate field="double(hp)" operator="lessOrEqual" value="116.5"/>
								<Node score="22.8">
									<SimplePredicate field="double(hp)" operator="lessOrEqual" value="96.0"/>
								</Node>
								<Node score="21.4">
									<SimplePredicate field="double(carb)" operator="lessOrEqual" value="3.0"/>
									<Node score="21.5">
										<SimplePredicate field="double(am)" operator="lessOrEqual" value="0.5"/>
									</Node>
								</Node>
							</Node>
							<Node score="19.2">
								<SimplePredicate field="double(carb)" operator="lessOrEqual" value="5.0"/>
							</Node>
						</Node>
						<Node score="10.4">
							<SimplePredicate field="double(drat)" operator="lessOrEqual" value="3.034999966621399"/>
						</Node>
						<Node score="15.8">
							<SimplePredicate field="double(wt)" operator="lessOrEqual" value="3.9250000715255737"/>
							<Node score="15.0">
								<SimplePredicate field="double(disp)" operator="lessOrEqual" value="327.5"/>
								<Node score="15.2">
									<SimplePredicate field="double(hp)" operator="lessOrEqual" value="257.5"/>
								</Node>
							</Node>
						</Node>
					</Node>
				</TreeModel>
			</Segment>
			<Segment id="11">
				<True/>
				<TreeModel functionName="regression" missingValueStrategy="nullPrediction" noTrueChildStrategy="returnLastPrediction">
					<MiningSchema>
						<MiningField name="double(disp)"/>
						<MiningField name="double(qsec)"/>
						<MiningField name="double(drat)"/>
						<MiningField name="double(hp)"/>
						<MiningField name="double(am)"/>
						<MiningField name="double(wt)"/>
						<MiningField name="double(carb)"/>
					</MiningSchema>
					<Node score="14.7">
						<True/>
						<Node score="24.399999999999995">
							<SimplePredicate field="double(hp)" operator="lessOrEqual" value="102.0"/>
							<Node score="30.4">
								<SimplePredicate field="double(disp)" operator="lessOrEqual" value="78.8499984741211"/>
								<Node score="32.4">
									<SimplePredicate field="double(drat)" operator="lessOrEqual" value="4.574999809265137"/>
									<Node score="33.9">
										<SimplePredicate field="double(disp)" operator="lessOrEqual" value="74.89999771118164"/>
									</Node>
								</Node>
							</Node>
							<Node score="27.3">
								<SimplePredicate field="double(wt)" operator="lessOrEqual" value="2.2300000190734863"/>
								<Node score="26.0">
									<SimplePredicate field="double(qsec)" operator="lessOrEqual" value="17.800000190734863"/>
								</Node>
							</Node>
							<Node score="22.8">
								<SimplePredicate field="double(wt)" operator="lessOrEqual" value="3.1700000762939453"/>
							</Node>
						</Node>
						<Node score="19.7">
							<SimplePredicate field="double(hp)" operator="lessOrEqual" value="177.5"/>
							<Node score="17.8">
								<SimplePredicate field="double(am)" operator="lessOrEqual" value="0.5"/>
								<Node score="15.2">
									<SimplePredicate field="double(wt)" operator="lessOrEqual" value="3.4375"/>
								</Node>
								<Node score="15.5">
									<SimplePredicate field="double(qsec)" operator="lessOrEqual" value="16.945000648498535"/>
								</Node>
								<Node score="19.2">
									<SimplePredicate field="double(qsec)" operator="lessOrEqual" value="18.59999942779541"/>
									<Node score="18.7">
										<SimplePredicate field="double(qsec)" operator="lessOrEqual" value="17.03499984741211"/>
									</Node>
								</Node>
							</Node>
							<Node score="21.0">
								<SimplePredicate field="double(carb)" operator="lessOrEqual" value="5.0"/>
								<Node score="21.4">
									<SimplePredicate field="double(hp)" operator="lessOrEqual" value="109.5"/>
								</Node>
							</Node>
						</Node>
						<Node score="10.4">
							<SimplePredicate field="double(drat)" operator="lessOrEqual" value="3.0"/>
						</Node>
						<Node score="15.2">
							<SimplePredicate field="double(disp)" operator="lessOrEqual" value="355.5"/>
							<Node score="15.8">
								<SimplePredicate field="double(qsec)" operator="lessOrEqual" value="16.25"/>
							</Node>
						</Node>
						<Node score="14.3">
							<SimplePredicate field="double(qsec)" operator="lessOrEqual" value="16.630000114440918"/>
						</Node>
					</Node>
				</TreeModel>
			</Segment>
			<Segment id="12">
				<True/>
				<TreeModel functionName="regression" missingValueStrategy="nullPrediction" noTrueChildStrategy="returnLastPrediction">
					<MiningSchema>
						<MiningField name="double(disp)"/>
						<MiningField name="double(qsec)"/>
						<MiningField name="double(drat)"/>
						<MiningField name="double(hp)"/>
						<MiningField name="double(am)"/>
						<MiningField name="double(wt)"/>
						<MiningField name="double(carb)"/>
						<MiningField name="double(gear)"/>
						<MiningField name="double(vs)"/>
					</MiningSchema>
					<Node score="15.0">
						<True/>
						<Node score="24.399999999999995">
							<SimplePredicate field="double(hp)" operator="lessOrEqual" value="93.0"/>
							<Node score="30.4">
								<SimplePredicate field="double(wt)" operator="lessOrEqual" value="1.9875000715255737"/>
								<Node score="33.9">
									<SimplePredicate field="double(drat)" operator="lessOrEqual" value="4.574999809265137"/>
								</Node>
							</Node>
							<Node score="26.0">
								<SimplePredicate field="double(vs)" operator="lessOrEqual" value="0.5"/>
							</Node>
						</Node>
						<Node score="19.7">
							<SimplePredicate field="double(disp)" operator="lessOrEqual" value="266.8999938964844"/>
							<Node score="22.8">
								<SimplePredicate field="double(gear)" operator="lessOrEqual" value="4.5"/>
								<Node score="21.0">
									<SimplePredicate field="double(qsec)" operator="lessOrEqual" value="21.170000076293945"/>
									<Node score="21.4">
										<SimplePredicate field="double(carb)" operator="lessOrEqual" value="3.0"/>
										<Node score="21.4">
											<SimplePredicate field="double(am)" operator="lessOrEqual" value="0.5"/>
										</Node>
									</Node>
								</Node>
							</Node>
						</Node>
						<Node score="18.7">
							<SimplePredicate field="double(drat)" operator="lessOrEqual" value="3.180000066757202"/>
							<Node score="16.4">
								<SimplePredicate field="double(drat)" operator="lessOrEqual" value="3.1100000143051147"/>
								<Node score="15.5">
									<SimplePredicate field="double(wt)" operator="lessOrEqual" value="3.7950000762939453"/>
								</Node>
							</Node>
						</Node>
						<Node score="13.3">
							<SimplePredicate field="double(hp)" operator="lessOrEqual" value="254.5"/>
							<Node score="14.7">
								<SimplePredicate field="double(drat)" operator="lessOrEqual" value="3.4800000190734863"/>
								<Node score="14.3">
									<SimplePredicate field="double(disp)" operator="lessOrEqual" value="400.0"/>
								</Node>
							</Node>
						</Node>
						<Node score="15.800000000000002">
							<SimplePredicate field="double(wt)" operator="lessOrEqual" value="3.3700000047683716"/>
						</Node>
					</Node>
				</TreeModel>
			</Segment>
			<Segment id="13">
				<True/>
				<TreeModel functionName="regression" missingValueStrategy="nullPrediction" noTrueChildStrategy="returnLastPrediction">
					<MiningSchema>
						<MiningField name="double(disp)"/>
						<MiningField name="double(qsec)"/>
						<MiningField name="double(drat)"/>
						<MiningField name="double(hp)"/>
						<MiningField name="double(wt)"/>
						<MiningField name="double(gear)"/>
						<MiningField name="double(vs)"/>
					</MiningSchema>
					<Node score="14.7">
						<True/>
						<Node score="30.399999999999995">
							<SimplePredicate field="double(disp)" operator="lessOrEqual" value="101.54999923706055"/>
						</Node>
						<Node score="18.7">
							<SimplePredicate field="double(hp)" operator="lessOrEqual" value="192.5"/>
							<Node score="21.4">
								<SimplePredicate field="double(disp)" operator="lessOrEqual" value="163.8000030517578"/>
								<Node score="22.8">
									<SimplePredicate field="double(hp)" operator="lessOrEqual" value="101.0"/>
								</Node>
								<Node score="19.7">
									<SimplePredicate field="double(qsec)" operator="lessOrEqual" value="15.979999542236328"/>
								</Node>
								<Node score="21.0">
									<SimplePredicate field="double(wt)" operator="lessOrEqual" value="2.6999999284744263"/>
								</Node>
							</Node>
							<Node score="17.8">
								<SimplePredicate field="double(disp)" operator="lessOrEqual" value="339.0"/>
								<Node score="16.4">
									<SimplePredicate field="double(qsec)" operator="lessOrEqual" value="17.5"/>
									<Node score="15.5">
										<SimplePredicate field="double(wt)" operator="lessOrEqual" value="3.7950000762939453"/>
									</Node>
								</Node>
								<Node score="17.3">
									<SimplePredicate field="double(vs)" operator="lessOrEqual" value="0.5"/>
								</Node>
								<Node score="18.1">
									<SimplePredicate field="double(gear)" operator="lessOrEqual" value="3.5"/>
								</Node>
							</Node>
							<Node score="19.2">
								<SimplePredicate field="double(drat)" operator="lessOrEqual" value="3.115000009536743"/>
							</Node>
						</Node>
						<Node score="10.4">
							<SimplePredicate field="double(hp)" operator="lessOrEqual" value="222.5"/>
						</Node>
						<Node score="14.3">
							<SimplePredicate field="double(wt)" operator="lessOrEqual" value="4.457499861717224"/>
						</Node>
					</Node>
				</TreeModel>
			</Segment>
			<Segment id="14">
				<True/>
				<TreeModel functionName="regression" missingValueStrategy="nullPrediction" noTrueChildStrategy="returnLastPrediction">
					<MiningSchema>
						<MiningField name="double(disp)"/>
						<MiningField name="double(qsec)"/>
						<MiningField name="double(drat)"/>
						<MiningField name="double(hp)"/>
						<MiningField name="double(wt)"/>
						<MiningField name="double(carb)"/>
						<MiningField name="double(cyl)"/>
						<MiningField name="double(vs)"/>
					</MiningSchema>
					<Node score="15.0">
						<True/>
						<Node score="27.3">
							<SimplePredicate field="double(wt)" operator="lessOrEqual" value="2.2300000190734863"/>
							<Node score="30.4">
								<SimplePredicate field="double(wt)" operator="lessOrEqual" value="1.8849999904632568"/>
								<Node score="33.9">
									<SimplePredicate field="double(hp)" operator="lessOrEqual" value="89.0"/>
								</Node>
							</Node>
							<Node score="26.0">
								<SimplePredicate field="double(vs)" operator="lessOrEqual" value="0.5"/>
							</Node>
						</Node>
						<Node score="19.7">
							<SimplePredicate field="double(cyl)" operator="lessOrEqual" value="7.0"/>
							<Node score="21.399999999999995">
								<SimplePredicate field="double(hp)" operator="lessOrEqual" value="116.5"/>
								<Node score="22.8">
									<SimplePredicate field="double(hp)" operator="lessOrEqual" value="101.0"/>
								</Node>
								<Node score="21.0">
									<SimplePredicate field="double(qsec)" operator="lessOrEqual" value="17.8100004196167"/>
								</Node>
							</Node>
							<Node score="19.2">
								<SimplePredicate field="double(hp)" operator="lessOrEqual" value="149.0"/>
							</Node>
						</Node>
						<Node score="18.7">
							<SimplePredicate field="double(drat)" operator="lessOrEqual" value="3.180000066757202"/>
							<Node score="15.2">
								<SimplePredicate field="double(disp)" operator="lessOrEqual" value="332.0"/>
								<Node score="16.4">
									<SimplePredicate field="double(qsec)" operator="lessOrEqual" value="17.800000190734863"/>
									<Node score="15.2">
										<SimplePredicate field="double(carb)" operator="lessOrEqual" value="2.5"/>
									</Node>
									<Node score="17.3">
										<SimplePredicate field="double(wt)" operator="lessOrEqual" value="3.9000000953674316"/>
									</Node>
								</Node>
							</Node>
						</Node>
						<Node score="15.8">
							<SimplePredicate field="double(qsec)" operator="lessOrEqual" value="14.550000190734863"/>
						</Node>
						<Node score="14.3">
							<SimplePredicate field="double(drat)" operator="lessOrEqual" value="3.2200000286102295"/>
						</Node>
						<Node score="14.7">
							<SimplePredicate field="double(drat)" operator="lessOrEqual" value="3.384999990463257"/>
						</Node>
					</Node>
				</TreeModel>
			</Segment>
			<Segment id="15">
				<True/>
				<TreeModel functionName="regression" missingValueStrategy="nullPrediction" noTrueChildStrategy="returnLastPrediction">
					<MiningSchema>
						<MiningField name="double(disp)"/>
						<MiningField name="double(qsec)"/>
						<MiningField name="double(drat)"/>
						<MiningField name="double(hp)"/>
						<MiningField name="double(carb)"/>
						<MiningField name="double(cyl)"/>
						<MiningField name="double(gear)"/>
					</MiningSchema>
					<Node score="10.4">
						<True/>
						<Node score="22.8">
							<SimplePredicate field="double(hp)" operator="lessOrEqual" value="116.5"/>
							<Node score="27.3">
								<SimplePredicate field="double(hp)" operator="lessOrEqual" value="79.5"/>
								<Node score="30.4">
									<SimplePredicate field="double(disp)" operator="lessOrEqual" value="78.8499984741211"/>
									<Node score="32.4">
										<SimplePredicate field="double(drat)" operator="lessOrEqual" value="4.504999876022339"/>
									</Node>
								</Node>
							</Node>
							<Node score="21.399999999999995">
								<SimplePredicate field="double(gear)" operator="lessOrEqual" value="3.5"/>
							</Node>
						</Node>
						<Node score="17.8">
							<SimplePredicate field="double(cyl)" operator="lessOrEqual" value="7.0"/>
							<Node score="19.7">
								<SimplePredicate field="double(qsec)" operator="lessOrEqual" value="18.59999942779541"/>
								<Node score="19.2">
									<SimplePredicate field="double(carb)" operator="lessOrEqual" value="5.0"/>
								</Node>
							</Node>
						</Node>
						<Node score="14.7">
							<SimplePredicate field="double(disp)" operator="lessOrEqual" value="450.0"/>
							<Node score="15.199999999999998">
								<SimplePredicate field="double(hp)" operator="lessOrEqual" value="205.0"/>
								<Node score="17.3">
									<SimplePredicate field="double(qsec)" operator="lessOrEqual" value="17.800000190734863"/>
									<Node score="16.4">
										<SimplePredicate field="double(qsec)" operator="lessOrEqual" value="17.5"/>
										<Node score="15.5">
											<SimplePredicate field="double(drat)" operator="lessOrEqual" value="2.9149999618530273"/>
										</Node>
									</Node>
								</Node>
							</Node>
							<Node score="14.3">
								<SimplePredicate field="double(qsec)" operator="lessOrEqual" value="16.630000114440918"/>
							</Node>
						</Node>
					</Node>
				</TreeModel>
			</Segment>
			<Segment id="16">
				<True/>
				<TreeModel functionName="regression" missingValueStrategy="nullPrediction" noTrueChildStrategy="returnLastPrediction">
					<MiningSchema>
						<MiningField name="double(disp)"/>
						<MiningField name="double(qsec)"/>
						<MiningField name="double(drat)"/>
						<MiningField name="double(hp)"/>
						<MiningField name="double(am)"/>
						<MiningField name="double(wt)"/>
						<MiningField name="double(carb)"/>
					</MiningSchema>
					<Node score="10.4">
						<True/>
						<Node score="26.0">
							<SimplePredicate field="double(hp)" operator="lessOrEqual" value="93.0"/>
							<Node score="30.4">
								<SimplePredicate field="double(disp)" operator="lessOrEqual" value="78.8499984741211"/>
								<Node score="33.9">
									<SimplePredicate field="double(carb)" operator="lessOrEqual" value="1.5"/>
									<Node score="32.4">
										<SimplePredicate field="double(qsec)" operator="lessOrEqual" value="19.684999465942383"/>
									</Node>
								</Node>
							</Node>
							<Node score="27.3">
								<SimplePredicate field="double(disp)" operator="lessOrEqual" value="99.6500015258789"/>
							</Node>
							<Node score="24.4">
								<SimplePredicate field="double(am)" operator="lessOrEqual" value="0.5"/>
							</Node>
						</Node>
						<Node score="19.2">
							<SimplePredicate field="double(hp)" operator="lessOrEqual" value="177.5"/>
							<Node score="22.8">
								<SimplePredicate field="double(wt)" operator="lessOrEqual" value="3.3274999856948853"/>
								<Node score="21.0">
									<SimplePredicate field="double(qsec)" operator="lessOrEqual" value="21.170000076293945"/>
									<Node score="21.4">
										<SimplePredicate field="double(carb)" operator="lessOrEqual" value="3.0"/>
									</Node>
								</Node>
							</Node>
							<Node score="18.1">
								<SimplePredicate field="double(drat)" operator="lessOrEqual" value="2.9199999570846558"/>
							</Node>
							<Node score="18.7">
								<SimplePredicate field="double(qsec)" operator="lessOrEqual" value="17.03499984741211"/>
							</Node>
						</Node>
						<Node score="14.7">
							<SimplePredicate field="double(disp)" operator="lessOrEqual" value="450.0"/>
							<Node score="15.199999999999998">
								<SimplePredicate field="double(disp)" operator="lessOrEqual" value="355.5"/>
								<Node score="15.800000000000002">
									<SimplePredicate field="double(wt)" operator="lessOrEqual" value="3.475000023841858"/>
								</Node>
							</Node>
							<Node score="14.3">
								<SimplePredicate field="double(wt)" operator="lessOrEqual" value="4.457499861717224"/>
							</Node>
						</Node>
					</Node>
				</TreeModel>
			</Segment>
			<Segment id="17">
				<True/>
				<TreeModel functionName="regression" missingValueStrategy="nullPrediction" noTrueChildStrategy="returnLastPrediction">
					<MiningSchema>
						<MiningField name="double(disp)"/>
						<MiningField name="double(qsec)"/>
						<MiningField name="double(drat)"/>
						<MiningField name="double(hp)"/>
						<MiningField name="double(wt)"/>
						<MiningField name="double(carb)"/>
						<MiningField name="double(cyl)"/>
						<MiningField name="double(vs)"/>
					</MiningSchema>
					<Node score="10.4">
						<True/>
						<Node score="24.4">
							<SimplePredicate field="double(cyl)" operator="lessOrEqual" value="5.0"/>
							<Node score="27.3">
								<SimplePredicate field="double(disp)" operator="lessOrEqual" value="101.54999923706055"/>
								<Node score="30.4">
									<SimplePredicate field="double(wt)" operator="lessOrEqual" value="1.774999976158142"/>
									<Node score="30.4">
										<SimplePredicate field="double(drat)" operator="lessOrEqual" value="4.349999904632568"/>
									</Node>
								</Node>
							</Node>
							<Node score="21.4">
								<SimplePredicate field="double(wt)" operator="lessOrEqual" value="2.9850000143051147"/>
								<Node score="22.8">
									<SimplePredicate field="double(disp)" operator="lessOrEqual" value="114.04999923706055"/>
								</Node>
								<Node score="21.5">
									<SimplePredicate field="double(drat)" operator="lessOrEqual" value="3.90500009059906"/>
								</Node>
							</Node>
						</Node>
						<Node score="15.2">
							<SimplePredicate field="double(hp)" operator="lessOrEqual" value="197.5"/>
							<Node score="18.1">
								<SimplePredicate field="double(hp)" operator="lessOrEqual" value="162.5"/>
								<Node score="15.2">
									<SimplePredicate field="double(vs)" operator="lessOrEqual" value="0.5"/>
									<Node score="15.5">
										<SimplePredicate field="double(drat)" operator="lessOrEqual" value="2.9550000429153442"/>
									</Node>
								</Node>
								<Node score="17.8">
									<SimplePredicate field="double(disp)" operator="lessOrEqual" value="196.3000030517578"/>
								</Node>
							</Node>
							<Node score="19.7">
								<SimplePredicate field="double(qsec)" operator="lessOrEqual" value="17.324999809265137"/>
								<Node score="19.2">
									<SimplePredicate field="double(carb)" operator="lessOrEqual" value="4.0"/>
								</Node>
							</Node>
							<Node score="17.3">
								<SimplePredicate field="double(wt)" operator="lessOrEqual" value="3.7549999952316284"/>
							</Node>
						</Node>
						<Node score="13.300000000000002">
							<SimplePredicate field="double(wt)" operator="lessOrEqual" value="5.384499788284302"/>
							<Node score="15.0">
								<SimplePredicate field="double(drat)" operator="lessOrEqual" value="3.634999990463257"/>
								<Node score="14.3">
									<SimplePredicate field="double(drat)" operator="lessOrEqual" value="3.2200000286102295"/>
								</Node>
								<Node score="14.7">
									<SimplePredicate field="double(drat)" operator="lessOrEqual" value="3.384999990463257"/>
								</Node>
							</Node>
						</Node>
					</Node>
				</TreeModel>
			</Segment>
			<Segment id="18">
				<True/>
				<TreeModel functionName="regression" missingValueStrategy="nullPrediction" noTrueChildStrategy="returnLastPrediction">
					<MiningSchema>
						<MiningField name="double(disp)"/>
						<MiningField name="double(drat)"/>
						<MiningField name="double(hp)"/>
						<MiningField name="double(am)"/>
						<MiningField name="double(wt)"/>
						<MiningField name="double(carb)"/>
					</MiningSchema>
					<Node score="10.4">
						<True/>
						<Node score="26.0">
							<SimplePredicate field="double(hp)" operator="lessOrEqual" value="92.0"/>
							<Node score="30.4">
								<SimplePredicate field="double(disp)" operator="lessOrEqual" value="78.8499984741211"/>
								<Node score="32.4">
									<SimplePredicate field="double(carb)" operator="lessOrEqual" value="1.5"/>
									<Node score="33.9">
										<SimplePredicate field="double(disp)" operator="lessOrEqual" value="74.89999771118164"/>
									</Node>
								</Node>
							</Node>
							<Node score="27.3">
								<SimplePredicate field="double(disp)" operator="lessOrEqual" value="99.6500015258789"/>
							</Node>
						</Node>
						<Node score="17.8">
							<SimplePredicate field="double(disp)" operator="lessOrEqual" value="266.8999938964844"/>
							<Node score="19.7">
								<SimplePredicate field="double(wt)" operator="lessOrEqual" value="3.3274999856948853"/>
								<Node score="22.8">
									<SimplePredicate field="double(hp)" operator="lessOrEqual" value="101.5"/>
								</Node>
								<Node score="21.4">
									<SimplePredicate field="double(hp)" operator="lessOrEqual" value="142.5"/>
									<Node score="21.0">
										<SimplePredicate field="double(wt)" operator="lessOrEqual" value="3.0449999570846558"/>
									</Node>
								</Node>
							</Node>
							<Node score="18.1">
								<SimplePredicate field="double(hp)" operator="lessOrEqual" value="114.0"/>
							</Node>
						</Node>
						<Node score="15.0">
							<SimplePredicate field="double(disp)" operator="lessOrEqual" value="410.0"/>
							<Node score="15.8">
								<SimplePredicate field="double(wt)" operator="lessOrEqual" value="3.4800000190734863"/>
								<Node score="18.7">
									<SimplePredicate field="double(am)" operator="lessOrEqual" value="0.5"/>
								</Node>
							</Node>
							<Node score="16.4">
								<SimplePredicate field="double(drat)" operator="lessOrEqual" value="3.1399999856948853"/>
								<Node score="15.5">
									<SimplePredicate field="double(wt)" operator="lessOrEqual" value="3.9250000715255737"/>
									<Node score="15.2">
										<SimplePredicate field="double(disp)" operator="lessOrEqual" value="296.8999938964844"/>
									</Node>
								</Node>
							</Node>
							<Node score="14.300000000000002">
								<SimplePredicate field="double(drat)" operator="lessOrEqual" value="3.375"/>
							</Node>
						</Node>
					</Node>
				</TreeModel>
			</Segment>
			<Segment id="19">
				<True/>
				<TreeModel functionName="regression" missingValueStrategy="nullPrediction" noTrueChildStrategy="returnLastPrediction">
					<MiningSchema>
						<MiningField name="double(disp)"/>
						<MiningField name="double(qsec)"/>
						<MiningField name="double(drat)"/>
						<MiningField name="double(hp)"/>
						<MiningField name="double(am)"/>
						<MiningField name="double(wt)"/>
						<MiningField name="double(carb)"/>
						<MiningField name="double(cyl)"/>
						<MiningField name="double(gear)"/>
					</MiningSchema>
					<Node score="15.0">
						<True/>
						<Node score="24.4">
							<SimplePredicate field="double(cyl)" operator="lessOrEqual" value="5.0"/>
							<Node score="32.4">
								<SimplePredicate field="double(disp)" operator="lessOrEqual" value="78.8499984741211"/>
								<Node score="33.9">
									<SimplePredicate field="double(wt)" operator="lessOrEqual" value="2.0175000429153442"/>
								</Node>
							</Node>
							<Node score="30.4">
								<SimplePredicate field="double(wt)" operator="lessOrEqual" value="2.2300000190734863"/>
								<Node score="27.3">
									<SimplePredicate field="double(hp)" operator="lessOrEqual" value="102.0"/>
									<Node score="26.0">
										<SimplePredicate field="double(qsec)" operator="lessOrEqual" value="17.800000190734863"/>
									</Node>
								</Node>
							</Node>
							<Node score="22.8">
								<SimplePredicate field="double(disp)" operator="lessOrEqual" value="133.39999771118164"/>
								<Node score="21.5">
									<SimplePredicate field="double(drat)" operator="lessOrEqual" value="3.774999976158142"/>
								</Node>
							</Node>
						</Node>
						<Node score="19.2">
							<SimplePredicate field="double(hp)" operator="lessOrEqual" value="192.5"/>
							<Node score="19.7">
								<SimplePredicate field="double(wt)" operator="lessOrEqual" value="3.1575000286102295"/>
								<Node score="21.0">
									<SimplePredicate field="double(gear)" operator="lessOrEqual" value="4.5"/>
								</Node>
							</Node>
							<Node score="17.3">
								<SimplePredicate field="double(disp)" operator="lessOrEqual" value="339.0"/>
								<Node score="15.5">
									<SimplePredicate field="double(carb)" operator="lessOrEqual" value="2.5"/>
								</Node>
								<Node score="17.8">
									<SimplePredicate field="double(hp)" operator="lessOrEqual" value="151.5"/>
								</Node>
							</Node>
							<Node score="18.7">
								<SimplePredicate field="double(wt)" operator="lessOrEqual" value="3.6425000429153442"/>
							</Node>
						</Node>
						<Node score="10.4">
							<SimplePredicate field="double(hp)" operator="lessOrEqual" value="230.0"/>
						</Node>
						<Node score="13.3">
							<SimplePredicate field="double(am)" operator="lessOrEqual" value="0.5"/>
						</Node>
					</Node>
				</TreeModel>
			</Segment>
			<Segment id="20">
				<True/>
				<TreeModel functionName="regression" missingValueStrategy="nullPrediction" noTrueChildStrategy="returnLastPrediction">
					<MiningSchema>
						<MiningField name="double(disp)"/>
						<MiningField name="double(qsec)"/>
						<MiningField name="double(drat)"/>
						<MiningField name="double(hp)"/>
						<MiningField name="double(wt)"/>
						<MiningField name="double(carb)"/>
						<MiningField name="double(cyl)"/>
					</MiningSchema>
					<Node score="10.4">
						<True/>
						<Node score="21.4">
							<SimplePredicate field="double(hp)" operator="lessOrEqual" value="118.0"/>
							<Node score="32.4">
								<SimplePredicate field="double(disp)" operator="lessOrEqual" value="101.54999923706055"/>
								<Node score="30.4">
									<SimplePredicate field="double(wt)" operator="lessOrEqual" value="2.0674999952316284"/>
									<Node score="27.3">
										<SimplePredicate field="double(carb)" operator="lessOrEqual" value="1.5"/>
									</Node>
								</Node>
							</Node>
							<Node score="22.8">
								<SimplePredicate field="double(hp)" operator="lessOrEqual" value="96.0"/>
								<Node score="24.4">
									<SimplePredicate field="double(hp)" operator="lessOrEqual" value="77.5"/>
								</Node>
							</Node>
							<Node score="21.0">
								<SimplePredicate field="double(qsec)" operator="lessOrEqual" value="17.8100004196167"/>
							</Node>
							<Node score="21.5">
								<SimplePredicate field="double(wt)" operator="lessOrEqual" value="2.622499942779541"/>
							</Node>
						</Node>
						<Node score="16.4">
							<SimplePredicate field="double(disp)" operator="lessOrEqual" value="410.0"/>
							<Node score="17.8">
								<SimplePredicate field="double(cyl)" operator="lessOrEqual" value="7.0"/>
								<Node score="19.7">
									<SimplePredicate field="double(disp)" operator="lessOrEqual" value="156.3000030517578"/>
								</Node>
							</Node>
							<Node score="13.3">
								<SimplePredicate field="double(qsec)" operator="lessOrEqual" value="16.43000030517578"/>
								<Node score="14.3">
									<SimplePredicate field="double(drat)" operator="lessOrEqual" value="3.4700000286102295"/>
								</Node>
							</Node>
							<Node score="18.7">
								<SimplePredicate field="double(qsec)" operator="lessOrEqual" value="17.15999984741211"/>
							</Node>
							<Node score="15.2">
								<SimplePredicate field="double(wt)" operator="lessOrEqual" value="3.9250000715255737"/>
								<Node score="15.2">
									<SimplePredicate field="double(carb)" operator="lessOrEqual" value="2.5"/>
								</Node>
								<Node score="17.3">
									<SimplePredicate field="double(wt)" operator="lessOrEqual" value="3.7549999952316284"/>
								</Node>
							</Node>
						</Node>
					</Node>
				</TreeModel>
			</Segment>
			<Segment id="21">
				<True/>
				<TreeModel functionName="regression" missingValueStrategy="nullPrediction" noTrueChildStrategy="returnLastPrediction">
					<MiningSchema>
						<MiningField name="double(disp)"/>
						<MiningField name="double(qsec)"/>
						<MiningField name="double(drat)"/>
						<MiningField name="double(hp)"/>
						<MiningField name="double(wt)"/>
						<MiningField name="double(carb)"/>
						<MiningField name="double(vs)"/>
					</MiningSchema>
					<Node score="10.4">
						<True/>
						<Node score="21.4">
							<SimplePredicate field="double(hp)" operator="lessOrEqual" value="118.0"/>
							<Node score="33.9">
								<SimplePredicate field="double(wt)" operator="lessOrEqual" value="2.259999990463257"/>
								<Node score="30.4">
									<SimplePredicate field="double(qsec)" operator="lessOrEqual" value="19.184999465942383"/>
									<Node score="27.3">
										<SimplePredicate field="double(disp)" operator="lessOrEqual" value="87.04999923706055"/>
									</Node>
								</Node>
								<Node score="32.4">
									<SimplePredicate field="double(drat)" operator="lessOrEqual" value="4.1499998569488525"/>
								</Node>
							</Node>
							<Node score="24.4">
								<SimplePredicate field="double(hp)" operator="lessOrEqual" value="101.0"/>
								<Node score="22.8">
									<SimplePredicate field="double(wt)" operator="lessOrEqual" value="2.7549999952316284"/>
								</Node>
							</Node>
							<Node score="21.0">
								<SimplePredicate field="double(vs)" operator="lessOrEqual" value="0.5"/>
							</Node>
						</Node>
						<Node score="19.2">
							<SimplePredicate field="double(hp)" operator="lessOrEqual" value="192.5"/>
							<Node score="19.7">
								<SimplePredicate field="double(qsec)" operator="lessOrEqual" value="17.174999237060547"/>
								<Node score="19.2">
									<SimplePredicate field="double(carb)" operator="lessOrEqual" value="4.0"/>
								</Node>
							</Node>
							<Node score="16.4">
								<SimplePredicate field="double(carb)" operator="lessOrEqual" value="3.5"/>
								<Node score="15.2">
									<SimplePredicate field="double(qsec)" operator="lessOrEqual" value="17.34999942779541"/>
								</Node>
							</Node>
						</Node>
						<Node score="13.3">
							<SimplePredicate field="double(qsec)" operator="lessOrEqual" value="16.829999923706055"/>
							<Node score="14.3">
								<SimplePredicate field="double(drat)" operator="lessOrEqual" value="3.634999990463257"/>
								<Node score="15.0">
									<SimplePredicate field="double(disp)" operator="lessOrEqual" value="330.5"/>
								</Node>
							</Node>
						</Node>
					</Node>
				</TreeModel>
			</Segment>
			<Segment id="22">
				<True/>
				<TreeModel functionName="regression" missingValueStrategy="nullPrediction" noTrueChildStrategy="returnLastPrediction">
					<MiningSchema>
						<MiningField name="double(disp)"/>
						<MiningField name="double(qsec)"/>
						<MiningField name="double(hp)"/>
						<MiningField name="double(wt)"/>
						<MiningField name="double(vs)"/>
					</MiningSchema>
					<Node score="10.4">
						<True/>
						<Node score="33.9">
							<SimplePredicate field="double(wt)" operator="lessOrEqual" value="2.2774999141693115"/>
							<Node score="27.3">
								<SimplePredicate field="double(qsec)" operator="lessOrEqual" value="19.399999618530273"/>
								<Node score="30.4">
									<SimplePredicate field="double(wt)" operator="lessOrEqual" value="1.774999976158142"/>
								</Node>
							</Node>
						</Node>
						<Node score="18.1">
							<SimplePredicate field="double(hp)" operator="lessOrEqual" value="136.5"/>
							<Node score="21.4">
								<SimplePredicate field="double(wt)" operator="lessOrEqual" value="3.3274999856948853"/>
								<Node score="21.0">
									<SimplePredicate field="double(vs)" operator="lessOrEqual" value="0.5"/>
								</Node>
							</Node>
							<Node score="19.2">
								<SimplePredicate field="double(qsec)" operator="lessOrEqual" value="18.59999942779541"/>
							</Node>
							<Node score="17.8">
								<SimplePredicate field="double(qsec)" operator="lessOrEqual" value="19.559999465942383"/>
							</Node>
						</Node>
						<Node score="14.3">
							<SimplePredicate field="double(wt)" operator="lessOrEqual" value="4.6600000858306885"/>
							<Node score="17.3">
								<SimplePredicate field="double(disp)" operator="lessOrEqual" value="288.3999938964844"/>
								<Node score="16.4">
									<SimplePredicate field="double(qsec)" operator="lessOrEqual" value="17.5"/>
								</Node>
							</Node>
							<Node score="15.0">
								<SimplePredicate field="double(disp)" operator="lessOrEqual" value="334.0"/>
								<Node score="15.5">
									<SimplePredicate field="double(wt)" operator="lessOrEqual" value="3.5449999570846558"/>
								</Node>
							</Node>
							<Node score="13.3">
								<SimplePredicate field="double(disp)" operator="lessOrEqual" value="355.0"/>
							</Node>
						</Node>
					</Node>
				</TreeModel>
			</Segment>
			<Segment id="23">
				<True/>
				<TreeModel functionName="regression" missingValueStrategy="nullPrediction" noTrueChildStrategy="returnLastPrediction">
					<MiningSchema>
						<MiningField name="double(disp)"/>
						<MiningField name="double(qsec)"/>
						<MiningField name="double(drat)"/>
						<MiningField name="double(hp)"/>
						<MiningField name="double(wt)"/>
						<MiningField name="double(carb)"/>
					</MiningSchema>
					<Node score="15.0">
						<True/>
						<Node score="21.0">
							<SimplePredicate field="double(hp)" operator="lessOrEqual" value="118.0"/>
							<Node score="30.4">
								<SimplePredicate field="double(wt)" operator="lessOrEqual" value="1.9875000715255737"/>
								<Node score="33.9">
									<SimplePredicate field="double(hp)" operator="lessOrEqual" value="89.0"/>
								</Node>
							</Node>
							<Node score="26.0">
								<SimplePredicate field="double(hp)" operator="lessOrEqual" value="93.0"/>
								<Node score="24.4">
									<SimplePredicate field="double(hp)" operator="lessOrEqual" value="76.5"/>
								</Node>
							</Node>
							<Node score="22.8">
								<SimplePredicate field="double(hp)" operator="lessOrEqual" value="96.0"/>
							</Node>
							<Node score="21.5">
								<SimplePredicate field="double(carb)" operator="lessOrEqual" value="3.0"/>
								<Node score="21.4">
									<SimplePredicate field="double(qsec)" operator="lessOrEqual" value="19.725000381469727"/>
								</Node>
							</Node>
						</Node>
						<Node score="19.2">
							<SimplePredicate field="double(hp)" operator="lessOrEqual" value="192.5"/>
							<Node score="17.3">
								<SimplePredicate field="double(disp)" operator="lessOrEqual" value="359.0"/>
								<Node score="15.2">
									<SimplePredicate field="double(qsec)" operator="lessOrEqual" value="17.5"/>
									<Node score="16.4">
										<SimplePredicate field="double(disp)" operator="lessOrEqual" value="289.8999938964844"/>
									</Node>
									<Node score="15.5">
										<SimplePredicate field="double(drat)" operator="lessOrEqual" value="2.9550000429153442"/>
									</Node>
								</Node>
								<Node score="17.8">
									<SimplePredicate field="double(wt)" operator="lessOrEqual" value="3.5850000381469727"/>
								</Node>
							</Node>
						</Node>
						<Node score="10.4">
							<SimplePredicate field="double(hp)" operator="lessOrEqual" value="222.5"/>
						</Node>
						<Node score="14.7">
							<SimplePredicate field="double(hp)" operator="lessOrEqual" value="254.5"/>
							<Node score="13.300000000000002">
								<SimplePredicate field="double(wt)" operator="lessOrEqual" value="4.592499852180481"/>
							</Node>
						</Node>
						<Node score="15.8">
							<SimplePredicate field="double(hp)" operator="lessOrEqual" value="299.5"/>
						</Node>
					</Node>
				</TreeModel>
			</Segment>
			<Segment id="24">
				<True/>
				<TreeModel functionName="regression" missingValueStrategy="nullPrediction" noTrueChildStrategy="returnLastPrediction">
					<MiningSchema>
						<MiningField name="double(disp)"/>
						<MiningField name="double(qsec)"/>
						<MiningField name="double(hp)"/>
						<MiningField name="double(wt)"/>
						<MiningField name="double(carb)"/>
						<MiningField name="double(vs)"/>
					</MiningSchema>
					<Node score="10.4">
						<True/>
						<Node score="30.4">
							<SimplePredicate field="double(wt)" operator="lessOrEqual" value="2.3324999809265137"/>
							<Node score="26.0">
								<SimplePredicate field="double(vs)" operator="lessOrEqual" value="0.5"/>
							</Node>
							<Node score="32.4">
								<SimplePredicate field="double(carb)" operator="lessOrEqual" value="1.5"/>
							</Node>
						</Node>
						<Node score="18.7">
							<SimplePredicate field="double(hp)" operator="lessOrEqual" value="192.5"/>
							<Node score="21.4">
								<SimplePredicate field="double(wt)" operator="lessOrEqual" value="3.3249999284744263"/>
								<Node score="19.7">
									<SimplePredicate field="double(qsec)" operator="lessOrEqual" value="16.260000228881836"/>
								</Node>
								<Node score="21.0">
									<SimplePredicate field="double(qsec)" operator="lessOrEqual" value="17.8100004196167"/>
								</Node>
								<Node score="21.5">
									<SimplePredicate field="double(wt)" operator="lessOrEqual" value="2.622499942779541"/>
								</Node>
							</Node>
							<Node score="18.1">
								<SimplePredicate field="double(disp)" operator="lessOrEqual" value="339.0"/>
								<Node score="16.4">
									<SimplePredicate field="double(qsec)" operator="lessOrEqual" value="17.5"/>
									<Node score="15.5">
										<SimplePredicate field="double(carb)" operator="lessOrEqual" value="2.5"/>
										<Node score="15.2">
											<SimplePredicate field="double(wt)" operator="lessOrEqual" value="3.4774999618530273"/>
										</Node>
									</Node>
								</Node>
								<Node score="17.3">
									<SimplePredicate field="double(qsec)" operator="lessOrEqual" value="18.25"/>
								</Node>
								<Node score="17.8">
									<SimplePredicate field="double(qsec)" operator="lessOrEqual" value="19.559999465942383"/>
								</Node>
							</Node>
						</Node>
					</Node>
				</TreeModel>
			</Segment>
			<Segment id="25">
				<True/>
				<TreeModel functionName="regression" missingValueStrategy="nullPrediction" noTrueChildStrategy="returnLastPrediction">
					<MiningSchema>
						<MiningField name="double(disp)"/>
						<MiningField name="double(qsec)"/>
						<MiningField name="double(drat)"/>
						<MiningField name="double(hp)"/>
						<MiningField name="double(wt)"/>
						<MiningField name="double(carb)"/>
						<MiningField name="double(cyl)"/>
					</MiningSchema>
					<Node score="10.4">
						<True/>
						<Node score="27.3">
							<SimplePredicate field="double(wt)" operator="lessOrEqual" value="2.259999990463257"/>
							<Node score="30.4">
								<SimplePredicate field="double(disp)" operator="lessOrEqual" value="78.8499984741211"/>
								<Node score="32.4">
									<SimplePredicate field="double(carb)" operator="lessOrEqual" value="1.5"/>
								</Node>
							</Node>
						</Node>
						<Node score="17.3">
							<SimplePredicate field="double(hp)" operator="lessOrEqual" value="192.5"/>
							<Node score="21.4">
								<SimplePredicate field="double(wt)" operator="lessOrEqual" value="3.3249999284744263"/>
								<Node score="19.7">
									<SimplePredicate field="double(qsec)" operator="lessOrEqual" value="15.979999542236328"/>
								</Node>
								<Node score="22.8">
									<SimplePredicate field="double(hp)" operator="lessOrEqual" value="102.0"/>
								</Node>
								<Node score="21.0">
									<SimplePredicate field="double(qsec)" operator="lessOrEqual" value="17.8100004196167"/>
								</Node>
							</Node>
							<Node score="15.2">
								<SimplePredicate field="double(wt)" operator="lessOrEqual" value="3.4375"/>
							</Node>
							<Node score="15.5">
								<SimplePredicate field="double(qsec)" operator="lessOrEqual" value="16.945000648498535"/>
							</Node>
							<Node score="19.2">
								<SimplePredicate field="double(qsec)" operator="lessOrEqual" value="17.324999809265137"/>
								<Node score="18.7">
									<SimplePredicate field="double(wt)" operator="lessOrEqual" value="3.6425000429153442"/>
								</Node>
							</Node>
							<Node score="17.8">
								<SimplePredicate field="double(cyl)" operator="lessOrEqual" value="7.0"/>
								<Node score="18.1">
									<SimplePredicate field="double(drat)" operator="lessOrEqual" value="3.340000033378601"/>
								</Node>
							</Node>
						</Node>
						<Node score="13.3">
							<SimplePredicate field="double(qsec)" operator="lessOrEqual" value="17.619999885559082"/>
							<Node score="15.0">
								<SimplePredicate field="double(drat)" operator="lessOrEqual" value="3.634999990463257"/>
								<Node score="14.3">
									<SimplePredicate field="double(drat)" operator="lessOrEqual" value="3.2200000286102295"/>
								</Node>
								<Node score="14.7">
									<SimplePredicate field="double(drat)" operator="lessOrEqual" value="3.384999990463257"/>
								</Node>
							</Node>
						</Node>
					</Node>
				</TreeModel>
			</Segment>
			<Segment id="26">
				<True/>
				<TreeModel functionName="regression" missingValueStrategy="nullPrediction" noTrueChildStrategy="returnLastPrediction">
					<MiningSchema>
						<MiningField name="double(disp)"/>
						<MiningField name="double(qsec)"/>
						<MiningField name="double(hp)"/>
						<MiningField name="double(wt)"/>
						<MiningField name="double(carb)"/>
						<MiningField name="double(gear)"/>
						<MiningField name="double(vs)"/>
					</MiningSchema>
					<Node score="19.2">
						<True/>
						<Node score="24.4">
							<SimplePredicate field="double(hp)" operator="lessOrEqual" value="93.0"/>
							<Node score="30.4">
								<SimplePredicate field="double(disp)" operator="lessOrEqual" value="78.8499984741211"/>
								<Node score="33.9">
									<SimplePredicate field="double(carb)" operator="lessOrEqual" value="1.5"/>
									<Node score="32.4">
										<SimplePredicate field="double(qsec)" operator="lessOrEqual" value="19.684999465942383"/>
									</Node>
								</Node>
							</Node>
							<Node score="27.3">
								<SimplePredicate field="double(wt)" operator="lessOrEqual" value="2.665000081062317"/>
								<Node score="26.0">
									<SimplePredicate field="double(vs)" operator="lessOrEqual" value="0.5"/>
								</Node>
							</Node>
						</Node>
						<Node score="19.2">
							<SimplePredicate field="double(hp)" operator="lessOrEqual" value="136.5"/>
							<Node score="21.0">
								<SimplePredicate field="double(wt)" operator="lessOrEqual" value="3.3274999856948853"/>
								<Node score="22.8">
									<SimplePredicate field="double(hp)" operator="lessOrEqual" value="96.0"/>
								</Node>
								<Node score="21.4">
									<SimplePredicate field="double(carb)" operator="lessOrEqual" value="3.0"/>
									<Node score="21.5">
										<SimplePredicate field="double(wt)" operator="lessOrEqual" value="2.622499942779541"/>
									</Node>
								</Node>
							</Node>
						</Node>
						<Node score="16.4">
							<SimplePredicate field="double(disp)" operator="lessOrEqual" value="355.5"/>
							<Node score="13.3">
								<SimplePredicate field="double(qsec)" operator="lessOrEqual" value="17.34999942779541"/>
								<Node score="15.8">
									<SimplePredicate field="double(wt)" operator="lessOrEqual" value="3.7049999237060547"/>
									<Node score="15.0">
										<SimplePredicate field="double(disp)" operator="lessOrEqual" value="311.0"/>
										<Node score="15.2">
											<SimplePredicate field="double(gear)" operator="lessOrEqual" value="4.0"/>
										</Node>
									</Node>
									<Node score="15.5">
										<SimplePredicate field="double(carb)" operator="lessOrEqual" value="3.0"/>
									</Node>
								</Node>
							</Node>
						</Node>
						<Node score="18.7">
							<SimplePredicate field="double(wt)" operator="lessOrEqual" value="3.6425000429153442"/>
						</Node>
					</Node>
				</TreeModel>
			</Segment>
			<Segment id="27">
				<True/>
				<TreeModel functionName="regression" missingValueStrategy="nullPrediction" noTrueChildStrategy="returnLastPrediction">
					<MiningSchema>
						<MiningField name="double(disp)"/>
						<MiningField name="double(qsec)"/>
						<MiningField name="double(drat)"/>
						<MiningField name="double(hp)"/>
						<MiningField name="double(wt)"/>
					</MiningSchema>
					<Node score="10.4">
						<True/>
						<Node score="32.4">
							<SimplePredicate field="double(hp)" operator="lessOrEqual" value="100.0"/>
							<Node score="24.4">
								<SimplePredicate field="double(drat)" operator="lessOrEqual" value="4.0"/>
								<Node score="22.8">
									<SimplePredicate field="double(disp)" operator="lessOrEqual" value="143.75"/>
								</Node>
							</Node>
						</Node>
						<Node score="17.8">
							<SimplePredicate field="double(hp)" operator="lessOrEqual" value="177.5"/>
							<Node score="19.7">
								<SimplePredicate field="double(wt)" operator="lessOrEqual" value="3.3274999856948853"/>
								<Node score="21.4">
									<SimplePredicate field="double(hp)" operator="lessOrEqual" value="142.5"/>
									<Node score="21.0">
										<SimplePredicate field="double(disp)" operator="lessOrEqual" value="209.0"/>
									</Node>
								</Node>
							</Node>
							<Node score="15.5">
								<SimplePredicate field="double(qsec)" operator="lessOrEqual" value="16.945000648498535"/>
							</Node>
							<Node score="19.2">
								<SimplePredicate field="double(qsec)" operator="lessOrEqual" value="18.59999942779541"/>
								<Node score="18.7">
									<SimplePredicate field="double(qsec)" operator="lessOrEqual" value="17.03499984741211"/>
								</Node>
							</Node>
							<Node score="18.1">
								<SimplePredicate field="double(hp)" operator="lessOrEqual" value="114.0"/>
							</Node>
						</Node>
						<Node score="14.7">
							<SimplePredicate field="double(disp)" operator="lessOrEqual" value="450.0"/>
							<Node score="16.4">
								<SimplePredicate field="double(disp)" operator="lessOrEqual" value="355.5"/>
								<Node score="15.2">
									<SimplePredicate field="double(wt)" operator="lessOrEqual" value="3.9250000715255737"/>
									<Node score="15.800000000000002">
										<SimplePredicate field="double(qsec)" operator="lessOrEqual" value="16.25"/>
									</Node>
								</Node>
							</Node>
							<Node score="14.3">
								<SimplePredicate field="double(drat)" operator="lessOrEqual" value="3.2200000286102295"/>
							</Node>
						</Node>
					</Node>
				</TreeModel>
			</Segment>
			<Segment id="28">
				<True/>
				<TreeModel functionName="regression" missingValueStrategy="nullPrediction" noTrueChildStrategy="returnLastPrediction">
					<MiningSchema>
						<MiningField name="double(disp)"/>
						<MiningField name="double(qsec)"/>
						<MiningField name="double(drat)"/>
						<MiningField name="double(hp)"/>
						<MiningField name="double(wt)"/>
						<MiningField name="double(cyl)"/>
						<MiningField name="double(gear)"/>
					</MiningSchema>
					<Node score="10.4">
						<True/>
						<Node score="26.0">
							<SimplePredicate field="double(wt)" operator="lessOrEqual" value="2.3324999809265137"/>
							<Node score="32.4">
								<SimplePredicate field="double(drat)" operator="lessOrEqual" value="4.254999876022339"/>
								<Node score="30.4">
									<SimplePredicate field="double(drat)" operator="lessOrEqual" value="3.924999952316284"/>
								</Node>
							</Node>
						</Node>
						<Node score="18.1">
							<SimplePredicate field="double(wt)" operator="lessOrEqual" value="3.490000009536743"/>
							<Node score="19.7">
								<SimplePredicate field="double(wt)" operator="lessOrEqual" value="3.3274999856948853"/>
								<Node score="24.4">
									<SimplePredicate field="double(hp)" operator="lessOrEqual" value="96.0"/>
									<Node score="22.8">
										<SimplePredicate field="double(disp)" operator="lessOrEqual" value="143.75"/>
									</Node>
								</Node>
								<Node score="21.0">
									<SimplePredicate field="double(hp)" operator="lessOrEqual" value="142.5"/>
									<Node score="21.5">
										<SimplePredicate field="double(gear)" operator="lessOrEqual" value="3.5"/>
										<Node score="21.399999999999995">
											<SimplePredicate field="double(drat)" operator="lessOrEqual" value="3.3899999856948853"/>
										</Node>
									</Node>
								</Node>
							</Node>
							<Node score="18.7">
								<SimplePredicate field="double(qsec)" operator="lessOrEqual" value="18.59999942779541"/>
								<Node score="19.2">
									<SimplePredicate field="double(cyl)" operator="lessOrEqual" value="7.0"/>
								</Node>
							</Node>
							<Node score="17.8">
								<SimplePredicate field="double(qsec)" operator="lessOrEqual" value="19.559999465942383"/>
							</Node>
						</Node>
						<Node score="14.7">
							<SimplePredicate field="double(disp)" operator="lessOrEqual" value="450.0"/>
							<Node score="19.2">
								<SimplePredicate field="double(qsec)" operator="lessOrEqual" value="17.40999984741211"/>
								<Node score="16.4">
									<SimplePredicate field="double(disp)" operator="lessOrEqual" value="359.0"/>
									<Node score="15.5">
										<SimplePredicate field="double(qsec)" operator="lessOrEqual" value="17.135000228881836"/>
									</Node>
								</Node>
							</Node>
							<Node score="15.2">
								<SimplePredicate field="double(wt)" operator="lessOrEqual" value="4.5624998807907104"/>
							</Node>
						</Node>
					</Node>
				</TreeModel>
			</Segment>
			<Segment id="29">
				<True/>
				<TreeModel functionName="regression" missingValueStrategy="nullPrediction" noTrueChildStrategy="returnLastPrediction">
					<MiningSchema>
						<MiningField name="double(disp)"/>
						<MiningField name="double(qsec)"/>
						<MiningField name="double(drat)"/>
						<MiningField name="double(hp)"/>
						<MiningField name="double(am)"/>
						<MiningField name="double(wt)"/>
						<MiningField name="double(cyl)"/>
					</MiningSchema>
					<Node score="13.3">
						<True/>
						<Node score="24.4">
							<SimplePredicate field="double(cyl)" operator="lessOrEqual" value="5.0"/>
							<Node score="27.3">
								<SimplePredicate field="double(disp)" operator="lessOrEqual" value="101.54999923706055"/>
								<Node score="30.4">
									<SimplePredicate field="double(qsec)" operator="lessOrEqual" value="18.710000038146973"/>
								</Node>
							</Node>
							<Node score="22.8">
								<SimplePredicate field="double(disp)" operator="lessOrEqual" value="143.75"/>
								<Node score="21.5">
									<SimplePredicate field="double(drat)" operator="lessOrEqual" value="3.774999976158142"/>
								</Node>
							</Node>
						</Node>
						<Node score="18.1">
							<SimplePredicate field="double(hp)" operator="lessOrEqual" value="177.5"/>
							<Node score="21.4">
								<SimplePredicate field="double(wt)" operator="lessOrEqual" value="3.3249999284744263"/>
								<Node score="21.0">
									<SimplePredicate field="double(qsec)" operator="lessOrEqual" value="18.230000495910645"/>
								</Node>
							</Node>
							<Node score="15.2">
								<SimplePredicate field="double(wt)" operator="lessOrEqual" value="3.4375"/>
							</Node>
							<Node score="19.2">
								<SimplePredicate field="double(qsec)" operator="lessOrEqual" value="18.59999942779541"/>
								<Node score="18.7">
									<SimplePredicate field="double(qsec)" operator="lessOrEqual" value="17.03499984741211"/>
								</Node>
							</Node>
							<Node score="17.8">
								<SimplePredicate field="double(disp)" operator="lessOrEqual" value="196.3000030517578"/>
							</Node>
						</Node>
						<Node score="10.4">
							<SimplePredicate field="double(drat)" operator="lessOrEqual" value="3.0"/>
						</Node>
						<Node score="14.3">
							<SimplePredicate field="double(wt)" operator="lessOrEqual" value="3.809999942779541"/>
							<Node score="15.8">
								<SimplePredicate field="double(disp)" operator="lessOrEqual" value="355.5"/>
								<Node score="15.2">
									<SimplePredicate field="double(am)" operator="lessOrEqual" value="0.5"/>
								</Node>
							</Node>
						</Node>
						<Node score="14.7">
							<SimplePredicate field="double(hp)" operator="lessOrEqual" value="237.5"/>
						</Node>
					</Node>
				</TreeModel>
			</Segment>
			<Segment id="30">
				<True/>
				<TreeModel functionName="regression" missingValueStrategy="nullPrediction" noTrueChildStrategy="returnLastPrediction">
					<MiningSchema>
						<MiningField name="double(disp)"/>
						<MiningField name="double(qsec)"/>
						<MiningField name="double(drat)"/>
						<MiningField name="double(hp)"/>
						<MiningField name="double(wt)"/>
						<MiningField name="double(carb)"/>
						<MiningField name="double(vs)"/>
					</MiningSchema>
					<Node score="10.4">
						<True/>
						<Node score="30.4">
							<SimplePredicate field="double(wt)" operator="lessOrEqual" value="2.259999990463257"/>
							<Node score="32.4">
								<SimplePredicate field="double(hp)" operator="lessOrEqual" value="89.5"/>
								<Node score="33.9">
									<SimplePredicate field="double(hp)" operator="lessOrEqual" value="65.5"/>
								</Node>
							</Node>
						</Node>
						<Node score="18.1">
							<SimplePredicate field="double(wt)" operator="lessOrEqual" value="3.490000009536743"/>
							<Node score="22.8">
								<SimplePredicate field="double(hp)" operator="lessOrEqual" value="96.0"/>
								<Node score="24.4">
									<SimplePredicate field="double(drat)" operator="lessOrEqual" value="3.7699999809265137"/>
								</Node>
							</Node>
							<Node score="19.7">
								<SimplePredicate field="double(wt)" operator="lessOrEqual" value="3.3274999856948853"/>
								<Node score="21.4">
									<SimplePredicate field="double(carb)" operator="lessOrEqual" value="5.0"/>
									<Node score="21.0">
										<SimplePredicate field="double(vs)" operator="lessOrEqual" value="0.5"/>
									</Node>
									<Node score="21.5">
										<SimplePredicate field="double(disp)" operator="lessOrEqual" value="120.54999923706055"/>
									</Node>
									<Node score="21.4">
										<SimplePredicate field="double(drat)" operator="lessOrEqual" value="3.5950000286102295"/>
									</Node>
								</Node>
							</Node>
							<Node score="18.7">
								<SimplePredicate field="double(wt)" operator="lessOrEqual" value="3.450000047683716"/>
							</Node>
						</Node>
						<Node score="13.3">
							<SimplePredicate field="double(wt)" operator="lessOrEqual" value="4.544999957084656"/>
							<Node score="15.5">
								<SimplePredicate field="double(disp)" operator="lessOrEqual" value="334.0"/>
								<Node score="15.2">
									<SimplePredicate field="double(disp)" operator="lessOrEqual" value="288.3999938964844"/>
									<Node score="17.3">
										<SimplePredicate field="double(qsec)" operator="lessOrEqual" value="17.800000190734863"/>
									</Node>
								</Node>
								<Node score="15.0">
									<SimplePredicate field="double(qsec)" operator="lessOrEqual" value="15.735000610351562"/>
								</Node>
							</Node>
						</Node>
					</Node>
				</TreeModel>
			</Segment>
			<Segment id="31">
				<True/>
				<TreeModel functionName="regression" missingValueStrategy="nullPrediction" noTrueChildStrategy="returnLastPrediction">
					<MiningSchema>
						<MiningField name="double(disp)"/>
						<MiningField name="double(qsec)"/>
						<MiningField name="double(drat)"/>
						<MiningField name="double(hp)"/>
						<MiningField name="double(wt)"/>
						<MiningField name="double(carb)"/>
					</MiningSchema>
					<Node score="10.4">
						<True/>
						<Node score="21.0">
							<SimplePredicate field="double(disp)" operator="lessOrEqual" value="163.8000030517578"/>
							<Node score="33.9">
								<SimplePredicate field="double(disp)" operator="lessOrEqual" value="101.54999923706055"/>
								<Node score="30.4">
									<SimplePredicate field="double(qsec)" operator="lessOrEqual" value="19.184999465942383"/>
									<Node score="27.3">
										<SimplePredicate field="double(carb)" operator="lessOrEqual" value="1.5"/>
									</Node>
								</Node>
								<Node score="32.4">
									<SimplePredicate field="double(drat)" operator="lessOrEqual" value="4.1499998569488525"/>
								</Node>
							</Node>
							<Node score="24.4">
								<SimplePredicate field="double(hp)" operator="lessOrEqual" value="92.0"/>
								<Node score="26.0">
									<SimplePredicate field="double(qsec)" operator="lessOrEqual" value="18.350000381469727"/>
								</Node>
							</Node>
							<Node score="22.8">
								<SimplePredicate field="double(hp)" operator="lessOrEqual" value="96.0"/>
							</Node>
							<Node score="21.4">
								<SimplePredicate field="double(disp)" operator="lessOrEqual" value="140.5"/>
								<Node score="21.5">
									<SimplePredicate field="double(hp)" operator="lessOrEqual" value="103.0"/>
								</Node>
							</Node>
						</Node>
						<Node score="17.8">
							<SimplePredicate field="double(hp)" operator="lessOrEqual" value="177.5"/>
							<Node score="19.2">
								<SimplePredicate field="double(qsec)" operator="lessOrEqual" value="18.59999942779541"/>
								<Node score="18.7">
									<SimplePredicate field="double(carb)" operator="lessOrEqual" value="3.0"/>
								</Node>
							</Node>
							<Node score="18.1">
								<SimplePredicate field="double(hp)" operator="lessOrEqual" value="114.0"/>
							</Node>
						</Node>
						<Node score="13.3">
							<SimplePredicate field="double(wt)" operator="lessOrEqual" value="4.6600000858306885"/>
							<Node score="16.4">
								<SimplePredicate field="double(disp)" operator="lessOrEqual" value="325.5"/>
								<Node score="15.0">
									<SimplePredicate field="double(wt)" operator="lessOrEqual" value="3.9250000715255737"/>
									<Node score="15.2">
										<SimplePredicate field="double(hp)" operator="lessOrEqual" value="257.5"/>
									</Node>
								</Node>
							</Node>
							<Node score="15.8">
								<SimplePredicate field="double(wt)" operator="lessOrEqual" value="3.3700000047683716"/>
							</Node>
							<Node score="14.3">
								<SimplePredicate field="double(drat)" operator="lessOrEqual" value="3.4700000286102295"/>
							</Node>
						</Node>
					</Node>
				</TreeModel>
			</Segment>
			<Segment id="32">
				<True/>
				<TreeModel functionName="regression" missingValueStrategy="nullPrediction" noTrueChildStrategy="returnLastPrediction">
					<MiningSchema>
						<MiningField name="double(disp)"/>
						<MiningField name="double(qsec)"/>
						<MiningField name="double(drat)"/>
						<MiningField name="double(hp)"/>
						<MiningField name="double(carb)"/>
						<MiningField name="double(gear)"/>
						<MiningField name="double(vs)"/>
					</MiningSchema>
					<Node score="10.4">
						<True/>
						<Node score="22.8">
							<SimplePredicate field="double(hp)" operator="lessOrEqual" value="118.0"/>
							<Node score="30.4">
								<SimplePredicate field="double(disp)" operator="lessOrEqual" value="101.54999923706055"/>
								<Node score="32.4">
									<SimplePredicate field="double(disp)" operator="lessOrEqual" value="78.8499984741211"/>
								</Node>
								<Node score="27.3">
									<SimplePredicate field="double(disp)" operator="lessOrEqual" value="87.04999923706055"/>
								</Node>
							</Node>
							<Node score="24.4">
								<SimplePredicate field="double(hp)" operator="lessOrEqual" value="92.0"/>
								<Node score="26.0">
									<SimplePredicate field="double(vs)" operator="lessOrEqual" value="0.5"/>
								</Node>
							</Node>
							<Node score="21.399999999999995">
								<SimplePredicate field="double(drat)" operator="lessOrEqual" value="3.4649999141693115"/>
							</Node>
						</Node>
						<Node score="15.2">
							<SimplePredicate field="double(hp)" operator="lessOrEqual" value="177.5"/>
							<Node score="19.7">
								<SimplePredicate field="double(qsec)" operator="lessOrEqual" value="17.174999237060547"/>
								<Node score="19.2">
									<SimplePredicate field="double(gear)" operator="lessOrEqual" value="4.0"/>
									<Node score="18.7">
										<SimplePredicate field="double(qsec)" operator="lessOrEqual" value="17.03499984741211"/>
									</Node>
								</Node>
							</Node>
							<Node score="17.8">
								<SimplePredicate field="double(hp)" operator="lessOrEqual" value="136.5"/>
							</Node>
						</Node>
						<Node score="14.7">
							<SimplePredicate field="double(disp)" operator="lessOrEqual" value="450.0"/>
							<Node score="15.0">
								<SimplePredicate field="double(disp)" operator="lessOrEqual" value="355.5"/>
								<Node score="15.2">
									<SimplePredicate field="double(carb)" operator="lessOrEqual" value="6.0"/>
									<Node score="15.8">
										<SimplePredicate field="double(qsec)" operator="lessOrEqual" value="17.800000190734863"/>
										<Node score="17.3">
											<SimplePredicate field="double(disp)" operator="lessOrEqual" value="313.3999938964844"/>
										</Node>
									</Node>
								</Node>
							</Node>
							<Node score="14.3">
								<SimplePredicate field="double(disp)" operator="lessOrEqual" value="400.0"/>
							</Node>
						</Node>
					</Node>
				</TreeModel>
			</Segment>
			<Segment id="33">
				<True/>
				<TreeModel functionName="regression" missingValueStrategy="nullPrediction" noTrueChildStrategy="returnLastPrediction">
					<MiningSchema>
						<MiningField name="double(disp)"/>
						<MiningField name="double(qsec)"/>
						<MiningField name="double(drat)"/>
						<MiningField name="double(hp)"/>
						<MiningField name="double(wt)"/>
						<MiningField name="double(carb)"/>
					</MiningSchema>
					<Node score="10.4">
						<True/>
						<Node score="19.7">
							<SimplePredicate field="double(disp)" operator="lessOrEqual" value="266.8999938964844"/>
							<Node score="26.0">
								<SimplePredicate field="double(wt)" operator="lessOrEqual" value="2.2300000190734863"/>
								<Node score="30.4">
									<SimplePredicate field="double(wt)" operator="lessOrEqual" value="1.8849999904632568"/>
									<Node score="33.9">
										<SimplePredicate field="double(carb)" operator="lessOrEqual" value="1.5"/>
									</Node>
								</Node>
								<Node score="27.3">
									<SimplePredicate field="double(carb)" operator="lessOrEqual" value="1.5"/>
								</Node>
							</Node>
							<Node score="18.1">
								<SimplePredicate field="double(drat)" operator="lessOrEqual" value="2.9199999570846558"/>
							</Node>
							<Node score="22.8">
								<SimplePredicate field="double(hp)" operator="lessOrEqual" value="96.0"/>
							</Node>
							<Node score="21.4">
								<SimplePredicate field="double(hp)" operator="lessOrEqual" value="142.5"/>
								<Node score="21.0">
									<SimplePredicate field="double(qsec)" operator="lessOrEqual" value="17.8100004196167"/>
								</Node>
								<Node score="21.5">
									<SimplePredicate field="double(wt)" operator="lessOrEqual" value="2.622499942779541"/>
								</Node>
								<Node score="21.4">
									<SimplePredicate field="double(carb)" operator="lessOrEqual" value="1.5"/>
								</Node>
							</Node>
						</Node>
						<Node score="19.2">
							<SimplePredicate field="double(carb)" operator="lessOrEqual" value="3.5"/>
							<Node score="16.4">
								<SimplePredicate field="double(disp)" operator="lessOrEqual" value="359.0"/>
								<Node score="15.2">
									<SimplePredicate field="double(wt)" operator="lessOrEqual" value="3.9250000715255737"/>
									<Node score="15.5">
										<SimplePredicate field="double(drat)" operator="lessOrEqual" value="2.9149999618530273"/>
									</Node>
								</Node>
							</Node>
						</Node>
						<Node score="14.3">
							<SimplePredicate field="double(disp)" operator="lessOrEqual" value="450.0"/>
							<Node score="15.0">
								<SimplePredicate field="double(qsec)" operator="lessOrEqual" value="15.005000114440918"/>
								<Node score="15.800000000000002">
									<SimplePredicate field="double(qsec)" operator="lessOrEqual" value="14.550000190734863"/>
								</Node>
							</Node>
							<Node score="13.3">
								<SimplePredicate field="double(disp)" operator="lessOrEqual" value="355.0"/>
							</Node>
							<Node score="14.7">
								<SimplePredicate field="double(hp)" operator="lessOrEqual" value="237.5"/>
							</Node>
						</Node>
					</Node>
				</TreeModel>
			</Segment>
			<Segment id="34">
				<True/>
				<TreeModel functionName="regression" missingValueStrategy="nullPrediction" noTrueChildStrategy="returnLastPrediction">
					<MiningSchema>
						<MiningField name="double(disp)"/>
						<MiningField name="double(qsec)"/>
						<MiningField name="double(drat)"/>
						<MiningField name="double(hp)"/>
						<MiningField name="double(wt)"/>
						<MiningField name="double(gear)"/>
						<MiningField name="double(vs)"/>
					</MiningSchema>
					<Node score="13.3">
						<True/>
						<Node score="27.3">
							<SimplePredicate field="double(hp)" operator="lessOrEqual" value="100.0"/>
							<Node score="30.4">
								<SimplePredicate field="double(disp)" operator="lessOrEqual" value="77.3499984741211"/>
								<Node score="33.9">
									<SimplePredicate field="double(drat)" operator="lessOrEqual" value="4.574999809265137"/>
								</Node>
							</Node>
							<Node score="24.4">
								<SimplePredicate field="double(drat)" operator="lessOrEqual" value="4.0"/>
								<Node score="22.8">
									<SimplePredicate field="double(wt)" operator="lessOrEqual" value="3.1700000762939453"/>
								</Node>
							</Node>
							<Node score="26.0">
								<SimplePredicate field="double(vs)" operator="lessOrEqual" value="0.5"/>
							</Node>
						</Node>
						<Node score="18.1">
							<SimplePredicate field="double(disp)" operator="lessOrEqual" value="279.5"/>
							<Node score="21.4">
								<SimplePredicate field="double(wt)" operator="lessOrEqual" value="3.337499976158142"/>
								<Node score="21.0">
									<SimplePredicate field="double(qsec)" operator="lessOrEqual" value="17.949999809265137"/>
								</Node>
							</Node>
						</Node>
						<Node score="18.7">
							<SimplePredicate field="double(wt)" operator="lessOrEqual" value="3.4800000190734863"/>
							<Node score="15.2">
								<SimplePredicate field="double(wt)" operator="lessOrEqual" value="3.4375"/>
								<Node score="15.800000000000002">
									<SimplePredicate field="double(wt)" operator="lessOrEqual" value="3.302500009536743"/>
								</Node>
							</Node>
						</Node>
						<Node score="15.0">
							<SimplePredicate field="double(drat)" operator="lessOrEqual" value="3.634999990463257"/>
							<Node score="15.5">
								<SimplePredicate field="double(wt)" operator="lessOrEqual" value="3.5449999570846558"/>
							</Node>
							<Node score="14.7">
								<SimplePredicate field="double(gear)" operator="lessOrEqual" value="4.0"/>
							</Node>
						</Node>
					</Node>
				</TreeModel>
			</Segment>
			<Segment id="35">
				<True/>
				<TreeModel functionName="regression" missingValueStrategy="nullPrediction" noTrueChildStrategy="returnLastPrediction">
					<MiningSchema>
						<MiningField name="double(disp)"/>
						<MiningField name="double(drat)"/>
						<MiningField name="double(hp)"/>
						<MiningField name="double(am)"/>
						<MiningField name="double(wt)"/>
						<MiningField name="double(cyl)"/>
					</MiningSchema>
					<Node score="10.4">
						<True/>
						<Node score="24.4">
							<SimplePredicate field="double(disp)" operator="lessOrEqual" value="163.8000030517578"/>
							<Node score="30.4">
								<SimplePredicate field="double(wt)" operator="lessOrEqual" value="2.3324999809265137"/>
								<Node score="32.4">
									<SimplePredicate field="double(disp)" operator="lessOrEqual" value="78.8499984741211"/>
									<Node score="30.4">
