<?xml version="1.0" encoding="UTF-8" standalone="yes"?>
<PMML xmlns="http://www.dmg.org/PMML-4_4" xmlns:data="http://jpmml.org/jpmml-model/InlineTable" version="4.4">
	<Header>
		<Application name="R2PMML package" version="0.31.0"/>
		<Timestamp>2026-06-25T16:15:23Z</Timestamp>
	</Header>
	<DataDictionary>
		<DataField name="mpg" optype="continuous" dataType="double"/>
		<DataField name="cyl" optype="continuous" dataType="double"/>
		<DataField name="disp" optype="continuous" dataType="double"/>
		<DataField name="hp" optype="continuous" dataType="double"/>
		<DataField name="drat" optype="continuous" dataType="double"/>
		<DataField name="wt" optype="continuous" dataType="double"/>
		<DataField name="qsec" optype="continuous" dataType="double"/>
		<DataField name="vs" optype="continuous" dataType="double"/>
		<DataField name="am" optype="continuous" dataType="double"/>
		<DataField name="gear" optype="continuous" dataType="double"/>
		<DataField name="carb" optype="continuous" dataType="double"/>
	</DataDictionary>
	<MiningModel functionName="regression">
		<MiningSchema>
			<Extension name="X-FeatureImportances">
				<InlineTable>
					<Extension name="numberOfImportances" value="10"/>
					<Extension name="numberOfNonZeroImportances" value="10"/>
					<Extension name="sumOfImportances" value="1073.1217175622294"/>
					<Extension name="minImportance" value="12.720376758991337"/>
					<Extension name="maxImportance" value="272.37663124698435"/>
					<row>
						<data:name>am</data:name>
						<data:importance>14.650929221708845</data:importance>
					</row>
					<row>
						<data:name>wt</data:name>
						<data:importance>222.89360552422735</data:importance>
					</row>
					<row>
						<data:name>vs</data:name>
						<data:importance>18.936014376080106</data:importance>
					</row>
					<row>
						<data:name>gear</data:name>
						<data:importance>38.238360034346236</data:importance>
					</row>
					<row>
						<data:name>carb</data:name>
						<data:importance>12.720376758991337</data:importance>
					</row>
					<row>
						<data:name>qsec</data:name>
						<data:importance>27.0691117483151</data:importance>
					</row>
					<row>
						<data:name>disp</data:name>
						<data:importance>272.37663124698435</data:importance>
					</row>
					<row>
						<data:name>cyl</data:name>
						<data:importance>179.70795672772073</data:importance>
					</row>
					<row>
						<data:name>hp</data:name>
						<data:importance>228.14284603567336</data:importance>
					</row>
					<row>
						<data:name>drat</data:name>
						<data:importance>58.38588588818191</data:importance>
					</row>
				</InlineTable>
			</Extension>
			<MiningField name="mpg" usageType="target"/>
			<MiningField name="cyl" importance="179.70795672772073"/>
			<MiningField name="disp" importance="272.37663124698435"/>
			<MiningField name="hp" importance="228.14284603567336"/>
			<MiningField name="drat" importance="58.38588588818191"/>
			<MiningField name="wt" importance="222.89360552422735"/>
			<MiningField name="qsec" importance="27.0691117483151"/>
			<MiningField name="vs" importance="18.936014376080106"/>
			<MiningField name="am" importance="14.650929221708845"/>
			<MiningField name="gear" importance="38.238360034346236"/>
			<MiningField name="carb" importance="12.720376758991337"/>
		</MiningSchema>
		<Segmentation multipleModelMethod="average" missingPredictionTreatment="returnMissing">
			<Segment id="1">
				<True/>
				<TreeModel functionName="regression" missingValueStrategy="nullPrediction" splitCharacteristic="binarySplit">
					<MiningSchema>
						<MiningField name="cyl"/>
						<MiningField name="disp"/>
						<MiningField name="hp"/>
						<MiningField name="wt"/>
						<MiningField name="gear"/>
					</MiningSchema>
					<Node id="1">
						<True/>
						<Node id="2" score="31.28">
							<SimplePredicate field="wt" operator="lessOrEqual" value="2.3325"/>
						</Node>
						<Node id="3">
							<SimplePredicate field="wt" operator="greaterThan" value="2.3325"/>
							<Node id="4">
								<SimplePredicate field="cyl" operator="lessOrEqual" value="7.0"/>
								<Node id="6">
									<SimplePredicate field="wt" operator="lessOrEqual" value="3.3274999999999997"/>
									<Node id="10" score="24.4">
										<SimplePredicate field="hp" operator="lessOrEqual" value="79.5"/>
									</Node>
									<Node id="11">
										<SimplePredicate field="hp" operator="greaterThan" value="79.5"/>
										<Node id="14" score="21.466666666666665">
											<SimplePredicate field="cyl" operator="lessOrEqual" value="5.0"/>
										</Node>
										<Node id="15" score="21.133333333333333">
											<SimplePredicate field="cyl" operator="greaterThan" value="5.0"/>
										</Node>
									</Node>
								</Node>
								<Node id="7" score="18.733333333333334">
									<SimplePredicate field="wt" operator="greaterThan" value="3.3274999999999997"/>
								</Node>
							</Node>
							<Node id="5">
								<SimplePredicate field="cyl" operator="greaterThan" value="7.0"/>
								<Node id="8">
									<SimplePredicate field="disp" operator="lessOrEqual" value="456.0"/>
									<Node id="12">
										<SimplePredicate field="wt" operator="lessOrEqual" value="3.48"/>
										<Node id="16">
											<SimplePredicate field="disp" operator="lessOrEqual" value="355.5"/>
											<Node id="20" score="15.2">
												<SimplePredicate field="gear" operator="lessOrEqual" value="4.0"/>
											</Node>
											<Node id="21" score="15.8">
												<SimplePredicate field="gear" operator="greaterThan" value="4.0"/>
											</Node>
										</Node>
										<Node id="17" score="18.7">
											<SimplePredicate field="disp" operator="greaterThan" value="355.5"/>
										</Node>
									</Node>
									<Node id="13">
										<SimplePredicate field="wt" operator="greaterThan" value="3.48"/>
										<Node id="18" score="15.35">
											<SimplePredicate field="hp" operator="lessOrEqual" value="205.0"/>
										</Node>
										<Node id="19" score="14.94">
											<SimplePredicate field="hp" operator="greaterThan" value="205.0"/>
										</Node>
									</Node>
								</Node>
								<Node id="9" score="10.4">
									<SimplePredicate field="disp" operator="greaterThan" value="456.0"/>
								</Node>
							</Node>
						</Node>
					</Node>
				</TreeModel>
			</Segment>
			<Segment id="2">
				<True/>
				<TreeModel functionName="regression" missingValueStrategy="nullPrediction" splitCharacteristic="binarySplit">
					<MiningSchema>
						<MiningField name="cyl"/>
						<MiningField name="disp"/>
						<MiningField name="hp"/>
						<MiningField name="drat"/>
						<MiningField name="qsec"/>
						<MiningField name="am"/>
						<MiningField name="carb"/>
					</MiningSchema>
					<Node id="1">
						<True/>
						<Node id="2">
							<SimplePredicate field="am" operator="lessOrEqual" value="0.5"/>
							<Node id="4">
								<SimplePredicate field="hp" operator="lessOrEqual" value="136.5"/>
								<Node id="8" score="22.919999999999998">
									<SimplePredicate field="cyl" operator="lessOrEqual" value="5.0"/>
								</Node>
								<Node id="9" score="19.566666666666666">
									<SimplePredicate field="cyl" operator="greaterThan" value="5.0"/>
								</Node>
							</Node>
							<Node id="5">
								<SimplePredicate field="hp" operator="greaterThan" value="136.5"/>
								<Node id="10">
									<SimplePredicate field="disp" operator="lessOrEqual" value="450.0"/>
									<Node id="14">
										<SimplePredicate field="carb" operator="lessOrEqual" value="3.5"/>
										<Node id="16">
											<SimplePredicate field="drat" operator="lessOrEqual" value="3.11"/>
											<Node id="20" score="16.485714285714284">
												<SimplePredicate field="disp" operator="lessOrEqual" value="296.9"/>
											</Node>
											<Node id="21" score="15.5">
												<SimplePredicate field="disp" operator="greaterThan" value="296.9"/>
											</Node>
										</Node>
										<Node id="17" score="15.2">
											<SimplePredicate field="drat" operator="greaterThan" value="3.11"/>
										</Node>
									</Node>
									<Node id="15">
										<SimplePredicate field="carb" operator="greaterThan" value="3.5"/>
										<Node id="18" score="13.3">
											<SimplePredicate field="disp" operator="lessOrEqual" value="355.0"/>
										</Node>
										<Node id="19" score="14.5">
											<SimplePredicate field="disp" operator="greaterThan" value="355.0"/>
										</Node>
									</Node>
								</Node>
								<Node id="11" score="10.4">
									<SimplePredicate field="disp" operator="greaterThan" value="450.0"/>
								</Node>
							</Node>
						</Node>
						<Node id="3">
							<SimplePredicate field="am" operator="greaterThan" value="0.5"/>
							<Node id="6" score="26.0">
								<SimplePredicate field="qsec" operator="lessOrEqual" value="16.799999999999997"/>
							</Node>
							<Node id="7">
								<SimplePredicate field="qsec" operator="greaterThan" value="16.799999999999997"/>
								<Node id="12" score="33.9">
									<SimplePredicate field="disp" operator="lessOrEqual" value="73.4"/>
								</Node>
								<Node id="13" score="30.799999999999997">
									<SimplePredicate field="disp" operator="greaterThan" value="73.4"/>
								</Node>
							</Node>
						</Node>
					</Node>
				</TreeModel>
			</Segment>
			<Segment id="3">
				<True/>
				<TreeModel functionName="regression" missingValueStrategy="nullPrediction" splitCharacteristic="binarySplit">
					<MiningSchema>
						<MiningField name="disp"/>
						<MiningField name="hp"/>
						<MiningField name="drat"/>
						<MiningField name="wt"/>
						<MiningField name="qsec"/>
					</MiningSchema>
					<Node id="1">
						<True/>
						<Node id="2">
							<SimplePredicate field="disp" operator="lessOrEqual" value="266.9"/>
							<Node id="4">
								<SimplePredicate field="drat" operator="lessOrEqual" value="4.0"/>
								<Node id="8" score="23.275">
									<SimplePredicate field="disp" operator="lessOrEqual" value="153.35"/>
								</Node>
								<Node id="9">
									<SimplePredicate field="disp" operator="greaterThan" value="153.35"/>
									<Node id="14">
										<SimplePredicate field="qsec" operator="lessOrEqual" value="19.83"/>
										<Node id="18">
											<SimplePredicate field="hp" operator="lessOrEqual" value="116.5"/>
											<Node id="20" score="21.0">
												<SimplePredicate field="wt" operator="lessOrEqual" value="3.045"/>
											</Node>
											<Node id="21" score="21.4">
												<SimplePredicate field="wt" operator="greaterThan" value="3.045"/>
											</Node>
										</Node>
										<Node id="19" score="19.2">
											<SimplePredicate field="hp" operator="greaterThan" value="116.5"/>
										</Node>
									</Node>
									<Node id="15" score="18.1">
										<SimplePredicate field="qsec" operator="greaterThan" value="19.83"/>
									</Node>
								</Node>
							</Node>
							<Node id="5">
								<SimplePredicate field="drat" operator="greaterThan" value="4.0"/>
								<Node id="10" score="26.78">
									<SimplePredicate field="wt" operator="lessOrEqual" value="2.46"/>
								</Node>
								<Node id="11" score="21.4">
									<SimplePredicate field="wt" operator="greaterThan" value="2.46"/>
								</Node>
							</Node>
						</Node>
						<Node id="3">
							<SimplePredicate field="disp" operator="greaterThan" value="266.9"/>
							<Node id="6">
								<SimplePredicate field="disp" operator="lessOrEqual" value="430.0"/>
								<Node id="12">
									<SimplePredicate field="drat" operator="lessOrEqual" value="3.115"/>
									<Node id="16" score="16.4">
										<SimplePredicate field="disp" operator="lessOrEqual" value="359.0"/>
									</Node>
									<Node id="17" score="19.2">
										<SimplePredicate field="disp" operator="greaterThan" value="359.0"/>
									</Node>
								</Node>
								<Node id="13" score="14.766666666666666">
									<SimplePredicate field="drat" operator="greaterThan" value="3.115"/>
								</Node>
							</Node>
							<Node id="7" score="10.4">
								<SimplePredicate field="disp" operator="greaterThan" value="430.0"/>
							</Node>
						</Node>
					</Node>
				</TreeModel>
			</Segment>
			<Segment id="4">
				<True/>
				<TreeModel functionName="regression" missingValueStrategy="nullPrediction" splitCharacteristic="binarySplit">
					<MiningSchema>
						<MiningField name="cyl"/>
						<MiningField name="disp"/>
						<MiningField name="drat"/>
						<MiningField name="wt"/>
						<MiningField name="qsec"/>
						<MiningField name="vs"/>
						<MiningField name="am"/>
						<MiningField name="carb"/>
					</MiningSchema>
					<Node id="1">
						<True/>
						<Node id="2">
							<SimplePredicate field="disp" operator="lessOrEqual" value="153.35"/>
							<Node id="4" score="24.4">
								<SimplePredicate field="am" operator="lessOrEqual" value="0.5"/>
							</Node>
							<Node id="5">
								<SimplePredicate field="am" operator="greaterThan" value="0.5"/>
								<Node id="8" score="27.375">
									<SimplePredicate field="drat" operator="lessOrEqual" value="4.165"/>
								</Node>
								<Node id="9" score="31.566666666666663">
									<SimplePredicate field="drat" operator="greaterThan" value="4.165"/>
								</Node>
							</Node>
						</Node>
						<Node id="3">
							<SimplePredicate field="disp" operator="greaterThan" value="153.35"/>
							<Node id="6">
								<SimplePredicate field="vs" operator="lessOrEqual" value="0.5"/>
								<Node id="10">
									<SimplePredicate field="qsec" operator="lessOrEqual" value="17.71"/>
									<Node id="14" score="21.0">
										<SimplePredicate field="cyl" operator="lessOrEqual" value="7.0"/>
									</Node>
									<Node id="15">
										<SimplePredicate field="cyl" operator="greaterThan" value="7.0"/>
										<Node id="16" score="14.58">
											<SimplePredicate field="qsec" operator="lessOrEqual" value="16.945"/>
										</Node>
										<Node id="17">
											<SimplePredicate field="qsec" operator="greaterThan" value="16.945"/>
											<Node id="18">
												<SimplePredicate field="drat" operator="lessOrEqual" value="3.19"/>
												<Node id="20" score="15.2">
													<SimplePredicate field="wt" operator="lessOrEqual" value="3.4375"/>
												</Node>
												<Node id="21">
													<SimplePredicate field="wt" operator="greaterThan" value="3.4375"/>
													<Node id="22" score="18.866666666666667">
														<SimplePredicate field="carb" operator="lessOrEqual" value="2.5"/>
													</Node>
													<Node id="23" score="16.7">
														<SimplePredicate field="carb" operator="greaterThan" value="2.5"/>
													</Node>
												</Node>
											</Node>
											<Node id="19" score="14.7">
												<SimplePredicate field="drat" operator="greaterThan" value="3.19"/>
											</Node>
										</Node>
									</Node>
								</Node>
								<Node id="11" score="10.4">
									<SimplePredicate field="qsec" operator="greaterThan" value="17.71"/>
								</Node>
							</Node>
							<Node id="7">
								<SimplePredicate field="vs" operator="greaterThan" value="0.5"/>
								<Node id="12" score="19.95">
									<SimplePredicate field="qsec" operator="lessOrEqual" value="19.83"/>
								</Node>
								<Node id="13" score="18.1">
									<SimplePredicate field="qsec" operator="greaterThan" value="19.83"/>
								</Node>
							</Node>
						</Node>
					</Node>
				</TreeModel>
			</Segment>
			<Segment id="5">
				<True/>
				<TreeModel functionName="regression" missingValueStrategy="nullPrediction" splitCharacteristic="binarySplit">
					<MiningSchema>
						<MiningField name="disp"/>
						<MiningField name="hp"/>
						<MiningField name="wt"/>
						<MiningField name="vs"/>
						<MiningField name="carb"/>
					</MiningSchema>
					<Node id="1">
						<True/>
						<Node id="2">
							<SimplePredicate field="disp" operator="lessOrEqual" value="120.65"/>
							<Node id="4" score="26.0">
								<SimplePredicate field="vs" operator="lessOrEqual" value="0.5"/>
							</Node>
							<Node id="5">
								<SimplePredicate field="vs" operator="greaterThan" value="0.5"/>
								<Node id="8" score="28.725">
									<SimplePredicate field="carb" operator="lessOrEqual" value="1.5"/>
								</Node>
								<Node id="9" score="30.4">
									<SimplePredicate field="carb" operator="greaterThan" value="1.5"/>
								</Node>
							</Node>
						</Node>
						<Node id="3">
							<SimplePredicate field="disp" operator="greaterThan" value="120.65"/>
							<Node id="6">
								<SimplePredicate field="hp" operator="lessOrEqual" value="136.5"/>
								<Node id="10" score="21.24">
									<SimplePredicate field="hp" operator="lessOrEqual" value="116.5"/>
								</Node>
								<Node id="11" score="18.5">
									<SimplePredicate field="hp" operator="greaterThan" value="116.5"/>
								</Node>
							</Node>
							<Node id="7">
								<SimplePredicate field="hp" operator="greaterThan" value="136.5"/>
								<Node id="12">
									<SimplePredicate field="carb" operator="lessOrEqual" value="3.5"/>
									<Node id="14" score="16.675">
										<SimplePredicate field="wt" operator="lessOrEqual" value="3.755"/>
									</Node>
									<Node id="15" score="15.599999999999998">
										<SimplePredicate field="wt" operator="greaterThan" value="3.755"/>
									</Node>
								</Node>
								<Node id="13">
									<SimplePredicate field="carb" operator="greaterThan" value="3.5"/>
									<Node id="16">
										<SimplePredicate field="disp" operator="lessOrEqual" value="450.0"/>
										<Node id="18" score="15.64">
											<SimplePredicate field="disp" operator="lessOrEqual" value="395.5"/>
										</Node>
										<Node id="19" score="14.7">
											<SimplePredicate field="disp" operator="greaterThan" value="395.5"/>
										</Node>
									</Node>
									<Node id="17" score="10.4">
										<SimplePredicate field="disp" operator="greaterThan" value="450.0"/>
									</Node>
								</Node>
							</Node>
						</Node>
					</Node>
				</TreeModel>
			</Segment>
			<Segment id="6">
				<True/>
				<TreeModel functionName="regression" missingValueStrategy="nullPrediction" splitCharacteristic="binarySplit">
					<MiningSchema>
						<MiningField name="cyl"/>
						<MiningField name="hp"/>
						<MiningField name="wt"/>
						<MiningField name="vs"/>
						<MiningField name="gear"/>
						<MiningField name="carb"/>
					</MiningSchema>
					<Node id="1">
						<True/>
						<Node id="2">
							<SimplePredicate field="wt" operator="lessOrEqual" value="2.3325"/>
							<Node id="4" score="26.0">
								<SimplePredicate field="vs" operator="lessOrEqual" value="0.5"/>
							</Node>
							<Node id="5">
								<SimplePredicate field="vs" operator="greaterThan" value="0.5"/>
								<Node id="8" score="31.9">
									<SimplePredicate field="gear" operator="lessOrEqual" value="4.5"/>
								</Node>
								<Node id="9" score="30.4">
									<SimplePredicate field="gear" operator="greaterThan" value="4.5"/>
								</Node>
							</Node>
						</Node>
						<Node id="3">
							<SimplePredicate field="wt" operator="greaterThan" value="2.3325"/>
							<Node id="6">
								<SimplePredicate field="cyl" operator="lessOrEqual" value="7.0"/>
								<Node id="10">
									<SimplePredicate field="wt" operator="lessOrEqual" value="3.3274999999999997"/>
									<Node id="14" score="21.25">
										<SimplePredicate field="wt" operator="lessOrEqual" value="3.0125"/>
									</Node>
									<Node id="15" score="22.333333333333332">
										<SimplePredicate field="wt" operator="greaterThan" value="3.0125"/>
									</Node>
								</Node>
								<Node id="11" score="18.26">
									<SimplePredicate field="wt" operator="greaterThan" value="3.3274999999999997"/>
								</Node>
							</Node>
							<Node id="7">
								<SimplePredicate field="cyl" operator="greaterThan" value="7.0"/>
								<Node id="12" score="16.56">
									<SimplePredicate field="carb" operator="lessOrEqual" value="3.5"/>
								</Node>
								<Node id="13">
									<SimplePredicate field="carb" operator="greaterThan" value="3.5"/>
									<Node id="16" score="10.4">
										<SimplePredicate field="hp" operator="lessOrEqual" value="222.5"/>
									</Node>
									<Node id="17" score="14.620000000000001">
										<SimplePredicate field="hp" operator="greaterThan" value="222.5"/>
									</Node>
								</Node>
							</Node>
						</Node>
					</Node>
				</TreeModel>
			</Segment>
			<Segment id="7">
				<True/>
				<TreeModel functionName="regression" missingValueStrategy="nullPrediction" splitCharacteristic="binarySplit">
					<MiningSchema>
						<MiningField name="cyl"/>
						<MiningField name="disp"/>
						<MiningField name="hp"/>
						<MiningField name="wt"/>
						<MiningField name="qsec"/>
					</MiningSchema>
					<Node id="1">
						<True/>
						<Node id="2">
							<SimplePredicate field="hp" operator="lessOrEqual" value="116.5"/>
							<Node id="4" score="32.233333333333334">
								<SimplePredicate field="hp" operator="lessOrEqual" value="79.5"/>
							</Node>
							<Node id="5">
								<SimplePredicate field="hp" operator="greaterThan" value="79.5"/>
								<Node id="8" score="22.52">
									<SimplePredicate field="disp" operator="lessOrEqual" value="150.4"/>
								</Node>
								<Node id="9" score="21.1">
									<SimplePredicate field="disp" operator="greaterThan" value="150.4"/>
								</Node>
							</Node>
						</Node>
						<Node id="3">
							<SimplePredicate field="hp" operator="greaterThan" value="116.5"/>
							<Node id="6">
								<SimplePredicate field="wt" operator="lessOrEqual" value="4.66"/>
								<Node id="10" score="14.58">
									<SimplePredicate field="qsec" operator="lessOrEqual" value="16.945"/>
								</Node>
								<Node id="11">
									<SimplePredicate field="qsec" operator="greaterThan" value="16.945"/>
									<Node id="12" score="18.866666666666667">
										<SimplePredicate field="qsec" operator="lessOrEqual" value="17.175"/>
									</Node>
									<Node id="13">
										<SimplePredicate field="qsec" operator="greaterThan" value="17.175"/>
										<Node id="14" score="18.733333333333334">
											<SimplePredicate field="cyl" operator="lessOrEqual" value="7.0"/>
										</Node>
										<Node id="15" score="15.919999999999998">
											<SimplePredicate field="cyl" operator="greaterThan" value="7.0"/>
										</Node>
									</Node>
								</Node>
							</Node>
							<Node id="7" score="10.4">
								<SimplePredicate field="wt" operator="greaterThan" value="4.66"/>
							</Node>
						</Node>
					</Node>
				</TreeModel>
			</Segment>
			<Segment id="8">
				<True/>
				<TreeModel functionName="regression" missingValueStrategy="nullPrediction" splitCharacteristic="binarySplit">
					<MiningSchema>
						<MiningField name="disp"/>
						<MiningField name="hp"/>
						<MiningField name="drat"/>
						<MiningField name="wt"/>
						<MiningField name="gear"/>
					</MiningSchema>
					<Node id="1">
						<True/>
						<Node id="2">
							<SimplePredicate field="disp" operator="lessOrEqual" value="140.15"/>
							<Node id="4">
								<SimplePredicate field="wt" operator="lessOrEqual" value="2.26"/>
								<Node id="8">
									<SimplePredicate field="drat" operator="lessOrEqual" value="4.324999999999999"/>
									<Node id="12" score="30.659999999999997">
										<SimplePredicate field="gear" operator="lessOrEqual" value="4.5"/>
									</Node>
									<Node id="13" score="30.4">
										<SimplePredicate field="gear" operator="greaterThan" value="4.5"/>
									</Node>
								</Node>
								<Node id="9" score="29.299999999999997">
									<SimplePredicate field="drat" operator="greaterThan" value="4.324999999999999"/>
								</Node>
							</Node>
							<Node id="5" score="22.8">
								<SimplePredicate field="wt" operator="greaterThan" value="2.26"/>
							</Node>
						</Node>
						<Node id="3">
							<SimplePredicate field="disp" operator="greaterThan" value="140.15"/>
							<Node id="6" score="21.0">
								<SimplePredicate field="hp" operator="lessOrEqual" value="116.5"/>
							</Node>
							<Node id="7">
								<SimplePredicate field="hp" operator="greaterThan" value="116.5"/>
								<Node id="10">
									<SimplePredicate field="gear" operator="lessOrEqual" value="4.5"/>
									<Node id="14">
										<SimplePredicate field="hp" operator="lessOrEqual" value="205.0"/>
										<Node id="16" score="16.22">
											<SimplePredicate field="drat" operator="lessOrEqual" value="3.075"/>
										</Node>
										<Node id="17">
											<SimplePredicate field="drat" operator="greaterThan" value="3.075"/>
											<Node id="18" score="16.933333333333334">
												<SimplePredicate field="hp" operator="lessOrEqual" value="162.5"/>
											</Node>
											<Node id="19" score="19.03333333333333">
												<SimplePredicate field="hp" operator="greaterThan" value="162.5"/>
											</Node>
										</Node>
									</Node>
									<Node id="15" score="14.5">
										<SimplePredicate field="hp" operator="greaterThan" value="205.0"/>
									</Node>
								</Node>
								<Node id="11" score="15.4">
									<SimplePredicate field="gear" operator="greaterThan" value="4.5"/>
								</Node>
							</Node>
						</Node>
					</Node>
				</TreeModel>
			</Segment>
			<Segment id="9">
				<True/>
				<TreeModel functionName="regression" missingValueStrategy="nullPrediction" splitCharacteristic="binarySplit">
					<MiningSchema>
						<MiningField name="disp"/>
						<MiningField name="hp"/>
						<MiningField name="drat"/>
						<MiningField name="wt"/>
						<MiningField name="qsec"/>
						<MiningField name="vs"/>
						<MiningField name="carb"/>
					</MiningSchema>
					<Node id="1">
						<True/>
						<Node id="2">
							<SimplePredicate field="hp" operator="lessOrEqual" value="118.0"/>
							<Node id="4">
								<SimplePredicate field="drat" operator="lessOrEqual" value="4.0"/>
								<Node id="8" score="21.0">
									<SimplePredicate field="vs" operator="lessOrEqual" value="0.5"/>
								</Node>
								<Node id="9">
									<SimplePredicate field="vs" operator="greaterThan" value="0.5"/>
									<Node id="16" score="30.4">
										<SimplePredicate field="disp" operator="lessOrEqual" value="101.55"/>
									</Node>
									<Node id="17">
										<SimplePredicate field="disp" operator="greaterThan" value="101.55"/>
										<Node id="20" score="24.0">
											<SimplePredicate field="qsec" operator="lessOrEqual" value="21.45"/>
										</Node>
										<Node id="21" score="22.8">
											<SimplePredicate field="qsec" operator="greaterThan" value="21.45"/>
										</Node>
									</Node>
								</Node>
							</Node>
							<Node id="5">
								<SimplePredicate field="drat" operator="greaterThan" value="4.0"/>
								<Node id="10">
									<SimplePredicate field="carb" operator="lessOrEqual" value="1.5"/>
									<Node id="18" score="32.4">
										<SimplePredicate field="drat" operator="lessOrEqual" value="4.15"/>
									</Node>
									<Node id="19" score="33.9">
										<SimplePredicate field="drat" operator="greaterThan" value="4.15"/>
									</Node>
								</Node>
								<Node id="11" score="24.466666666666665">
									<SimplePredicate field="carb" operator="greaterThan" value="1.5"/>
								</Node>
							</Node>
						</Node>
						<Node id="3">
							<SimplePredicate field="hp" operator="greaterThan" value="118.0"/>
							<Node id="6">
								<SimplePredicate field="hp" operator="lessOrEqual" value="192.5"/>
								<Node id="12" score="17.95">
									<SimplePredicate field="wt" operator="lessOrEqual" value="3.48"/>
								</Node>
								<Node id="13" score="16.0">
									<SimplePredicate field="wt" operator="greaterThan" value="3.48"/>
								</Node>
							</Node>
							<Node id="7">
								<SimplePredicate field="hp" operator="greaterThan" value="192.5"/>
								<Node id="14" score="10.4">
									<SimplePredicate field="hp" operator="lessOrEqual" value="217.5"/>
								</Node>
								<Node id="15" score="14.600000000000001">
									<SimplePredicate field="hp" operator="greaterThan" value="217.5"/>
								</Node>
							</Node>
						</Node>
					</Node>
				</TreeModel>
			</Segment>
			<Segment id="10">
				<True/>
				<TreeModel functionName="regression" missingValueStrategy="nullPrediction" splitCharacteristic="binarySplit">
					<MiningSchema>
						<MiningField name="cyl"/>
						<MiningField name="disp"/>
						<MiningField name="hp"/>
						<MiningField name="drat"/>
						<MiningField name="wt"/>
						<MiningField name="qsec"/>
					</MiningSchema>
					<Node id="1">
						<True/>
						<Node id="2">
							<SimplePredicate field="disp" operator="lessOrEqual" value="266.9"/>
							<Node id="4" score="30.125">
								<SimplePredicate field="wt" operator="lessOrEqual" value="2.26"/>
							</Node>
							<Node id="5">
								<SimplePredicate field="wt" operator="greaterThan" value="2.26"/>
								<Node id="8">
									<SimplePredicate field="cyl" operator="lessOrEqual" value="5.0"/>
									<Node id="14" score="22.0">
										<SimplePredicate field="disp" operator="lessOrEqual" value="133.85"/>
									</Node>
									<Node id="15" score="24.4">
										<SimplePredicate field="disp" operator="greaterThan" value="133.85"/>
									</Node>
								</Node>
								<Node id="9" score="20.54">
									<SimplePredicate field="cyl" operator="greaterThan" value="5.0"/>
								</Node>
							</Node>
						</Node>
						<Node id="3">
							<SimplePredicate field="disp" operator="greaterThan" value="266.9"/>
							<Node id="6">
								<SimplePredicate field="hp" operator="lessOrEqual" value="192.5"/>
								<Node id="10" score="15.35">
									<SimplePredicate field="hp" operator="lessOrEqual" value="162.5"/>
								</Node>
								<Node id="11">
									<SimplePredicate field="hp" operator="greaterThan" value="162.5"/>
									<Node id="16" score="16.8">
										<SimplePredicate field="disp" operator="lessOrEqual" value="317.9"/>
									</Node>
									<Node id="17" score="18.7">
										<SimplePredicate field="disp" operator="greaterThan" value="317.9"/>
									</Node>
								</Node>
							</Node>
							<Node id="7">
								<SimplePredicate field="hp" operator="greaterThan" value="192.5"/>
								<Node id="12" score="10.4">
									<SimplePredicate field="drat" operator="lessOrEqual" value="3.0700000000000003"/>
								</Node>
								<Node id="13">
									<SimplePredicate field="drat" operator="greaterThan" value="3.0700000000000003"/>
									<Node id="18" score="13.3">
										<SimplePredicate field="qsec" operator="lessOrEqual" value="15.625"/>
									</Node>
									<Node id="19" score="14.38">
										<SimplePredicate field="qsec" operator="greaterThan" value="15.625"/>
									</Node>
								</Node>
							</Node>
						</Node>
					</Node>
				</TreeModel>
			</Segment>
			<Segment id="11">
				<True/>
				<TreeModel functionName="regression" missingValueStrategy="nullPrediction" splitCharacteristic="binarySplit">
					<MiningSchema>
						<MiningField name="cyl"/>
						<MiningField name="disp"/>
						<MiningField name="drat"/>
						<MiningField name="qsec"/>
						<MiningField name="carb"/>
					</MiningSchema>
					<Node id="1">
						<True/>
						<Node id="2">
							<SimplePredicate field="cyl" operator="lessOrEqual" value="5.0"/>
							<Node id="4" score="33.0">
								<SimplePredicate field="carb" operator="lessOrEqual" value="1.5"/>
							</Node>
							<Node id="5">
								<SimplePredicate field="carb" operator="greaterThan" value="1.5"/>
								<Node id="8">
									<SimplePredicate field="qsec" operator="lessOrEqual" value="20.71"/>
									<Node id="12">
										<SimplePredicate field="drat" operator="lessOrEqual" value="4.68"/>
										<Node id="16" score="26.0">
											<SimplePredicate field="qsec" operator="lessOrEqual" value="16.799999999999997"/>
										</Node>
										<Node id="17" score="30.4">
											<SimplePredicate field="qsec" operator="greaterThan" value="16.799999999999997"/>
										</Node>
									</Node>
									<Node id="13" score="30.4">
										<SimplePredicate field="drat" operator="greaterThan" value="4.68"/>
									</Node>
								</Node>
								<Node id="9" score="22.8">
									<SimplePredicate field="qsec" operator="greaterThan" value="20.71"/>
								</Node>
							</Node>
						</Node>
						<Node id="3">
							<SimplePredicate field="cyl" operator="greaterThan" value="5.0"/>
							<Node id="6">
								<SimplePredicate field="drat" operator="lessOrEqual" value="3.815"/>
								<Node id="10">
									<SimplePredicate field="disp" operator="lessOrEqual" value="450.0"/>
									<Node id="14" score="17.7">
										<SimplePredicate field="carb" operator="lessOrEqual" value="3.5"/>
									</Node>
									<Node id="15">
										<SimplePredicate field="carb" operator="greaterThan" value="3.5"/>
										<Node id="18" score="13.3">
											<SimplePredicate field="disp" operator="lessOrEqual" value="355.0"/>
										</Node>
										<Node id="19" score="14.5">
											<SimplePredicate field="disp" operator="greaterThan" value="355.0"/>
										</Node>
									</Node>
								</Node>
								<Node id="11" score="10.4">
									<SimplePredicate field="disp" operator="greaterThan" value="450.0"/>
								</Node>
							</Node>
							<Node id="7" score="19.8">
								<SimplePredicate field="drat" operator="greaterThan" value="3.815"/>
							</Node>
						</Node>
					</Node>
				</TreeModel>
			</Segment>
			<Segment id="12">
				<True/>
				<TreeModel functionName="regression" missingValueStrategy="nullPrediction" splitCharacteristic="binarySplit">
					<MiningSchema>
						<MiningField name="disp"/>
						<MiningField name="wt"/>
						<MiningField name="qsec"/>
						<MiningField name="vs"/>
						<MiningField name="gear"/>
					</MiningSchema>
					<Node id="1">
						<True/>
						<Node id="2">
							<SimplePredicate field="gear" operator="lessOrEqual" value="3.5"/>
							<Node id="4">
								<SimplePredicate field="vs" operator="lessOrEqual" value="0.5"/>
								<Node id="8">
									<SimplePredicate field="disp" operator="lessOrEqual" value="430.0"/>
									<Node id="12" score="15.016666666666666">
										<SimplePredicate field="wt" operator="lessOrEqual" value="3.8425000000000002"/>
									</Node>
									<Node id="13" score="19.2">
										<SimplePredicate field="wt" operator="greaterThan" value="3.8425000000000002"/>
									</Node>
								</Node>
								<Node id="9" score="10.4">
									<SimplePredicate field="disp" operator="greaterThan" value="430.0"/>
								</Node>
							</Node>
							<Node id="5" score="18.1">
								<SimplePredicate field="vs" operator="greaterThan" value="0.5"/>
							</Node>
						</Node>
						<Node id="3">
							<SimplePredicate field="gear" operator="greaterThan" value="3.5"/>
							<Node id="6" score="31.0">
								<SimplePredicate field="wt" operator="lessOrEqual" value="2.26"/>
							</Node>
							<Node id="7">
								<SimplePredicate field="wt" operator="greaterThan" value="2.26"/>
								<Node id="10">
									<SimplePredicate field="wt" operator="lessOrEqual" value="3.315"/>
									<Node id="14" score="20.82">
										<SimplePredicate field="qsec" operator="lessOrEqual" value="18.605"/>
									</Node>
									<Node id="15">
										<SimplePredicate field="qsec" operator="greaterThan" value="18.605"/>
										<Node id="16" score="22.8">
											<SimplePredicate field="disp" operator="lessOrEqual" value="127.35"/>
										</Node>
										<Node id="17" score="24.4">
											<SimplePredicate field="disp" operator="greaterThan" value="127.35"/>
										</Node>
									</Node>
								</Node>
								<Node id="11" score="16.75">
									<SimplePredicate field="wt" operator="greaterThan" value="3.315"/>
								</Node>
							</Node>
						</Node>
					</Node>
				</TreeModel>
			</Segment>
			<Segment id="13">
				<True/>
				<TreeModel functionName="regression" missingValueStrategy="nullPrediction" splitCharacteristic="binarySplit">
					<MiningSchema>
						<MiningField name="hp"/>
						<MiningField name="drat"/>
						<MiningField name="wt"/>
						<MiningField name="qsec"/>
					</MiningSchema>
					<Node id="1">
						<True/>
						<Node id="2">
							<SimplePredicate field="hp" operator="lessOrEqual" value="131.5"/>
							<Node id="4" score="30.619999999999997">
								<SimplePredicate field="wt" operator="lessOrEqual" value="2.3325"/>
							</Node>
							<Node id="5">
								<SimplePredicate field="wt" operator="greaterThan" value="2.3325"/>
								<Node id="8" score="24.4">
									<SimplePredicate field="hp" operator="lessOrEqual" value="79.5"/>
								</Node>
								<Node id="9" score="21.1">
									<SimplePredicate field="hp" operator="greaterThan" value="79.5"/>
								</Node>
							</Node>
						</Node>
						<Node id="3">
							<SimplePredicate field="hp" operator="greaterThan" value="131.5"/>
							<Node id="6">
								<SimplePredicate field="qsec" operator="lessOrEqual" value="17.990000000000002"/>
								<Node id="10" score="10.4">
									<SimplePredicate field="drat" operator="lessOrEqual" value="3.0"/>
								</Node>
								<Node id="11">
									<SimplePredicate field="drat" operator="greaterThan" value="3.0"/>
									<Node id="12">
										<SimplePredicate field="qsec" operator="lessOrEqual" value="17.450000000000003"/>
										<Node id="14">
											<SimplePredicate field="wt" operator="lessOrEqual" value="3.705"/>
											<Node id="16" score="14.98">
												<SimplePredicate field="drat" operator="lessOrEqual" value="3.88"/>
											</Node>
											<Node id="17" score="15.8">
												<SimplePredicate field="drat" operator="greaterThan" value="3.88"/>
											</Node>
										</Node>
										<Node id="15" score="13.3">
											<SimplePredicate field="wt" operator="greaterThan" value="3.705"/>
										</Node>
									</Node>
									<Node id="13" score="17.3">
										<SimplePredicate field="qsec" operator="greaterThan" value="17.450000000000003"/>
									</Node>
								</Node>
							</Node>
							<Node id="7" score="15.2">
								<SimplePredicate field="qsec" operator="greaterThan" value="17.990000000000002"/>
							</Node>
						</Node>
					</Node>
				</TreeModel>
			</Segment>
			<Segment id="14">
				<True/>
				<TreeModel functionName="regression" missingValueStrategy="nullPrediction" splitCharacteristic="binarySplit">
					<MiningSchema>
						<MiningField name="disp"/>
						<MiningField name="hp"/>
						<MiningField name="drat"/>
						<MiningField name="wt"/>
						<MiningField name="qsec"/>
						<MiningField name="gear"/>
					</MiningSchema>
					<Node id="1">
						<True/>
						<Node id="2">
							<SimplePredicate field="hp" operator="lessOrEqual" value="144.0"/>
							<Node id="4">
								<SimplePredicate field="hp" operator="lessOrEqual" value="93.0"/>
								<Node id="8" score="32.15">
									<SimplePredicate field="wt" operator="lessOrEqual" value="1.885"/>
								</Node>
								<Node id="9" score="26.975">
									<SimplePredicate field="wt" operator="greaterThan" value="1.885"/>
								</Node>
							</Node>
							<Node id="5">
								<SimplePredicate field="hp" operator="greaterThan" value="93.0"/>
								<Node id="10">
									<SimplePredicate field="gear" operator="lessOrEqual" value="4.5"/>
									<Node id="14" score="18.1">
										<SimplePredicate field="drat" operator="lessOrEqual" value="2.92"/>
									</Node>
									<Node id="15">
										<SimplePredicate field="drat" operator="greaterThan" value="2.92"/>
										<Node id="20" score="21.424999999999997">
											<SimplePredicate field="gear" operator="lessOrEqual" value="3.5"/>
										</Node>
										<Node id="21" score="22.2">
											<SimplePredicate field="gear" operator="greaterThan" value="3.5"/>
										</Node>
									</Node>
								</Node>
								<Node id="11" score="30.4">
									<SimplePredicate field="gear" operator="greaterThan" value="4.5"/>
								</Node>
							</Node>
						</Node>
						<Node id="3">
							<SimplePredicate field="hp" operator="greaterThan" value="144.0"/>
							<Node id="6">
								<SimplePredicate field="wt" operator="lessOrEqual" value="4.66"/>
								<Node id="12">
									<SimplePredicate field="qsec" operator="lessOrEqual" value="16.23"/>
									<Node id="16" score="13.3">
										<SimplePredicate field="hp" operator="lessOrEqual" value="254.5"/>
									</Node>
									<Node id="17" score="15.48">
										<SimplePredicate field="hp" operator="greaterThan" value="254.5"/>
									</Node>
								</Node>
								<Node id="13">
									<SimplePredicate field="qsec" operator="greaterThan" value="16.23"/>
									<Node id="18" score="16.55">
										<SimplePredicate field="disp" operator="lessOrEqual" value="337.9"/>
									</Node>
									<Node id="19" score="19.2">
										<SimplePredicate field="disp" operator="greaterThan" value="337.9"/>
									</Node>
								</Node>
							</Node>
							<Node id="7" score="11.833333333333334">
								<SimplePredicate field="wt" operator="greaterThan" value="4.66"/>
							</Node>
						</Node>
					</Node>
				</TreeModel>
			</Segment>
			<Segment id="15">
				<True/>
				<TreeModel functionName="regression" missingValueStrategy="nullPrediction" splitCharacteristic="binarySplit">
					<MiningSchema>
						<MiningField name="cyl"/>
						<MiningField name="disp"/>
						<MiningField name="qsec"/>
						<MiningField name="carb"/>
					</MiningSchema>
					<Node id="1">
						<True/>
						<Node id="2">
							<SimplePredicate field="cyl" operator="lessOrEqual" value="5.0"/>
							<Node id="4" score="28.0">
								<SimplePredicate field="qsec" operator="lessOrEqual" value="19.95"/>
							</Node>
							<Node id="5">
								<SimplePredicate field="qsec" operator="greaterThan" value="19.95"/>
								<Node id="8" score="21.5">
									<SimplePredicate field="disp" operator="lessOrEqual" value="130.45"/>
								</Node>
								<Node id="9" score="23.2">
									<SimplePredicate field="disp" operator="greaterThan" value="130.45"/>
								</Node>
							</Node>
						</Node>
						<Node id="3">
							<SimplePredicate field="cyl" operator="greaterThan" value="5.0"/>
							<Node id="6">
								<SimplePredicate field="qsec" operator="lessOrEqual" value="17.71"/>
								<Node id="10" score="20.133333333333333">
									<SimplePredicate field="disp" operator="lessOrEqual" value="217.9"/>
								</Node>
								<Node id="11">
									<SimplePredicate field="disp" operator="greaterThan" value="217.9"/>
									<Node id="14" score="15.52">
										<SimplePredicate field="qsec" operator="lessOrEqual" value="16.945"/>
									</Node>
									<Node id="15">
										<SimplePredicate field="qsec" operator="greaterThan" value="16.945"/>
										<Node id="16" score="18.7">
											<SimplePredicate field="qsec" operator="lessOrEqual" value="17.16"/>
										</Node>
										<Node id="17" score="16.099999999999998">
											<SimplePredicate field="qsec" operator="greaterThan" value="17.16"/>
										</Node>
									</Node>
								</Node>
							</Node>
							<Node id="7">
								<SimplePredicate field="qsec" operator="greaterThan" value="17.71"/>
								<Node id="12" score="17.133333333333333">
									<SimplePredicate field="carb" operator="lessOrEqual" value="3.5"/>
								</Node>
								<Node id="13" score="10.4">
									<SimplePredicate field="carb" operator="greaterThan" value="3.5"/>
								</Node>
							</Node>
						</Node>
					</Node>
				</TreeModel>
			</Segment>
			<Segment id="16">
				<True/>
				<TreeModel functionName="regression" missingValueStrategy="nullPrediction" splitCharacteristic="binarySplit">
					<MiningSchema>
						<MiningField name="disp"/>
						<MiningField name="hp"/>
						<MiningField name="wt"/>
						<MiningField name="qsec"/>
					</MiningSchema>
					<Node id="1">
						<True/>
						<Node id="2">
							<SimplePredicate field="wt" operator="lessOrEqual" value="2.26"/>
							<Node id="4" score="28.9">
								<SimplePredicate field="qsec" operator="lessOrEqual" value="19.185"/>
							</Node>
							<Node id="5" score="33.15">
								<SimplePredicate field="qsec" operator="greaterThan" value="19.185"/>
							</Node>
						</Node>
						<Node id="3">
							<SimplePredicate field="wt" operator="greaterThan" value="2.26"/>
							<Node id="6">
								<SimplePredicate field="disp" operator="lessOrEqual" value="163.8"/>
								<Node id="8" score="24.08">
									<SimplePredicate field="hp" operator="lessOrEqual" value="101.5"/>
								</Node>
								<Node id="9" score="20.133333333333333">
									<SimplePredicate field="hp" operator="greaterThan" value="101.5"/>
								</Node>
							</Node>
							<Node id="7">
								<SimplePredicate field="disp" operator="greaterThan" value="163.8"/>
								<Node id="10">
									<SimplePredicate field="wt" operator="lessOrEqual" value="5.3845"/>
									<Node id="12">
										<SimplePredicate field="hp" operator="lessOrEqual" value="177.5"/>
										<Node id="14" score="15.2">
											<SimplePredicate field="wt" operator="lessOrEqual" value="3.4375"/>
										</Node>
										<Node id="15" score="17.98">
											<SimplePredicate field="wt" operator="greaterThan" value="3.4375"/>
										</Node>
									</Node>
									<Node id="13">
										<SimplePredicate field="hp" operator="greaterThan" value="177.5"/>
										<Node id="16">
											<SimplePredicate field="disp" operator="lessOrEqual" value="288.4"/>
											<Node id="18" score="17.3">
												<SimplePredicate field="wt" operator="lessOrEqual" value="3.755"/>
											</Node>
											<Node id="19" score="15.919999999999998">
												<SimplePredicate field="wt" operator="greaterThan" value="3.755"/>
											</Node>
										</Node>
										<Node id="17" score="14.95">
											<SimplePredicate field="disp" operator="greaterThan" value="288.4"/>
										</Node>
									</Node>
								</Node>
								<Node id="11" score="10.4">
									<SimplePredicate field="wt" operator="greaterThan" value="5.3845"/>
								</Node>
							</Node>
						</Node>
					</Node>
				</TreeModel>
			</Segment>
			<Segment id="17">
				<True/>
				<TreeModel functionName="regression" missingValueStrategy="nullPrediction" splitCharacteristic="binarySplit">
					<MiningSchema>
						<MiningField name="disp"/>
						<MiningField name="drat"/>
						<MiningField name="wt"/>
						<MiningField name="qsec"/>
						<MiningField name="gear"/>
						<MiningField name="carb"/>
					</MiningSchema>
					<Node id="1">
						<True/>
						<Node id="2" score="33.025">
							<SimplePredicate field="wt" operator="lessOrEqual" value="2.0774999999999997"/>
						</Node>
						<Node id="3">
							<SimplePredicate field="wt" operator="greaterThan" value="2.0774999999999997"/>
							<Node id="4">
								<SimplePredicate field="gear" operator="lessOrEqual" value="3.5"/>
								<Node id="6">
									<SimplePredicate field="carb" operator="lessOrEqual" value="3.5"/>
									<Node id="10" score="17.700000000000003">
										<SimplePredicate field="drat" operator="lessOrEqual" value="3.075"/>
									</Node>
									<Node id="11" score="19.439999999999998">
										<SimplePredicate field="drat" operator="greaterThan" value="3.075"/>
									</Node>
								</Node>
								<Node id="7">
									<SimplePredicate field="carb" operator="greaterThan" value="3.5"/>
									<Node id="12" score="10.4">
										<SimplePredicate field="drat" operator="lessOrEqual" value="3.105"/>
									</Node>
									<Node id="13" score="14.433333333333334">
										<SimplePredicate field="drat" operator="greaterThan" value="3.105"/>
									</Node>
								</Node>
							</Node>
							<Node id="5">
								<SimplePredicate field="gear" operator="greaterThan" value="3.5"/>
								<Node id="8">
									<SimplePredicate field="disp" operator="lessOrEqual" value="163.8"/>
									<Node id="14" score="24.4">
										<SimplePredicate field="drat" operator="lessOrEqual" value="3.77"/>
									</Node>
									<Node id="15">
										<SimplePredicate field="drat" operator="greaterThan" value="3.77"/>
										<Node id="16">
											<SimplePredicate field="qsec" operator="lessOrEqual" value="18.605"/>
											<Node id="18" score="21.0">
												<SimplePredicate field="drat" operator="lessOrEqual" value="4.005"/>
											</Node>
											<Node id="19" score="21.4">
												<SimplePredicate field="drat" operator="greaterThan" value="4.005"/>
											</Node>
										</Node>
										<Node id="17" score="22.8">
											<SimplePredicate field="qsec" operator="greaterThan" value="18.605"/>
										</Node>
									</Node>
								</Node>
								<Node id="9" score="17.6">
									<SimplePredicate field="disp" operator="greaterThan" value="163.8"/>
								</Node>
							</Node>
						</Node>
					</Node>
				</TreeModel>
			</Segment>
			<Segment id="18">
				<True/>
				<TreeModel functionName="regression" missingValueStrategy="nullPrediction" splitCharacteristic="binarySplit">
					<MiningSchema>
						<MiningField name="cyl"/>
						<MiningField name="disp"/>
						<MiningField name="hp"/>
						<MiningField name="wt"/>
						<MiningField name="qsec"/>
					</MiningSchema>
					<Node id="1">
						<True/>
						<Node id="2">
							<SimplePredicate field="hp" operator="lessOrEqual" value="131.5"/>
							<Node id="4" score="29.299999999999997">
								<SimplePredicate field="wt" operator="lessOrEqual" value="2.41"/>
							</Node>
							<Node id="5">
								<SimplePredicate field="wt" operator="greaterThan" value="2.41"/>
								<Node id="8">
									<SimplePredicate field="wt" operator="lessOrEqual" value="3.3375"/>
									<Node id="12" score="22.8">
										<SimplePredicate field="cyl" operator="lessOrEqual" value="5.0"/>
									</Node>
									<Node id="13" score="21.1">
										<SimplePredicate field="cyl" operator="greaterThan" value="5.0"/>
									</Node>
								</Node>
								<Node id="9" score="18.1">
									<SimplePredicate field="wt" operator="greaterThan" value="3.3375"/>
								</Node>
							</Node>
						</Node>
						<Node id="3">
							<SimplePredicate field="hp" operator="greaterThan" value="131.5"/>
							<Node id="6">
								<SimplePredicate field="disp" operator="lessOrEqual" value="450.0"/>
								<Node id="10">
									<SimplePredicate field="qsec" operator="lessOrEqual" value="17.175"/>
									<Node id="14" score="19.099999999999998">
										<SimplePredicate field="wt" operator="lessOrEqual" value="3.48"/>
									</Node>
									<Node id="15" score="15.9">
										<SimplePredicate field="wt" operator="greaterThan" value="3.48"/>
									</Node>
								</Node>
								<Node id="11" score="15.75">
									<SimplePredicate field="qsec" operator="greaterThan" value="17.175"/>
								</Node>
							</Node>
							<Node id="7" score="10.4">
								<SimplePredicate field="disp" operator="greaterThan" value="450.0"/>
							</Node>
						</Node>
					</Node>
				</TreeModel>
			</Segment>
			<Segment id="19">
				<True/>
				<TreeModel functionName="regression" missingValueStrategy="nullPrediction" splitCharacteristic="binarySplit">
					<MiningSchema>
						<MiningField name="disp"/>
						<MiningField name="hp"/>
						<MiningField name="drat"/>
						<MiningField name="wt"/>
						<MiningField name="qsec"/>
						<MiningField name="carb"/>
					</MiningSchema>
					<Node id="1">
						<True/>
						<Node id="2" score="30.48">
							<SimplePredicate field="disp" operator="lessOrEqual" value="101.55"/>
						</Node>
						<Node id="3">
							<SimplePredicate field="disp" operator="greaterThan" value="101.55"/>
							<Node id="4">
								<SimplePredicate field="drat" operator="lessOrEqual" value="3.58"/>
								<Node id="6">
									<SimplePredicate field="wt" operator="lessOrEqual" value="4.5475"/>
									<Node id="10" score="18.65">
										<SimplePredicate field="hp" operator="lessOrEqual" value="177.5"/>
									</Node>
									<Node id="11" score="15.066666666666666">
										<SimplePredicate field="hp" operator="greaterThan" value="177.5"/>
									</Node>
								</Node>
								<Node id="7" score="10.4">
									<SimplePredicate field="wt" operator="greaterThan" value="4.5475"/>
								</Node>
							</Node>
							<Node id="5">
								<SimplePredicate field="drat" operator="greaterThan" value="3.58"/>
								<Node id="8">
									<SimplePredicate field="wt" operator="lessOrEqual" value="3.315"/>
									<Node id="12">
										<SimplePredicate field="qsec" operator="lessOrEqual" value="18.605"/>
										<Node id="14" score="21.24">
											<SimplePredicate field="hp" operator="lessOrEqual" value="142.5"/>
										</Node>
										<Node id="15" score="19.7">
											<SimplePredicate field="hp" operator="greaterThan" value="142.5"/>
										</Node>
									</Node>
									<Node id="13">
										<SimplePredicate field="qsec" operator="greaterThan" value="18.605"/>
										<Node id="16" score="21.933333333333334">
											<SimplePredicate field="carb" operator="lessOrEqual" value="1.5"/>
										</Node>
										<Node id="17" score="23.866666666666667">
											<SimplePredicate field="carb" operator="greaterThan" value="1.5"/>
										</Node>
									</Node>
								</Node>
								<Node id="9" score="18.36">
									<SimplePredicate field="wt" operator="greaterThan" value="3.315"/>
								</Node>
							</Node>
						</Node>
					</Node>
				</TreeModel>
			</Segment>
			<Segment id="20">
				<True/>
				<TreeModel functionName="regression" missingValueStrategy="nullPrediction" splitCharacteristic="binarySplit">
					<MiningSchema>
						<MiningField name="cyl"/>
						<MiningField name="hp"/>
						<MiningField name="wt"/>
						<MiningField name="qsec"/>
					</MiningSchema>
					<Node id="1">
						<True/>
						<Node id="2">
							<SimplePredicate field="wt" operator="lessOrEqual" value="3.3125"/>
							<Node id="4" score="29.8">
								<SimplePredicate field="wt" operator="lessOrEqual" value="2.26"/>
							</Node>
							<Node id="5">
								<SimplePredicate field="wt" operator="greaterThan" value="2.26"/>
								<Node id="8" score="17.75">
									<SimplePredicate field="qsec" operator="lessOrEqual" value="16.259999999999998"/>
								</Node>
								<Node id="9">
									<SimplePredicate field="qsec" operator="greaterThan" value="16.259999999999998"/>
									<Node id="14" score="24.4">
										<SimplePredicate field="hp" operator="lessOrEqual" value="77.5"/>
									</Node>
									<Node id="15" score="22.35">
										<SimplePredicate field="hp" operator="greaterThan" value="77.5"/>
									</Node>
								</Node>
							</Node>
						</Node>
						<Node id="3">
							<SimplePredicate field="wt" operator="greaterThan" value="3.3125"/>
							<Node id="6">
								<SimplePredicate field="hp" operator="lessOrEqual" value="192.5"/>
								<Node id="10" score="18.3">
									<SimplePredicate field="cyl" operator="lessOrEqual" value="7.0"/>
								</Node>
								<Node id="11">
									<SimplePredicate field="cyl" operator="greaterThan" value="7.0"/>
									<Node id="16" score="17.35">
										<SimplePredicate field="qsec" operator="lessOrEqual" value="17.175"/>
									</Node>
									<Node id="17" score="15.5">
										<SimplePredicate field="qsec" operator="greaterThan" value="17.175"/>
									</Node>
								</Node>
							</Node>
							<Node id="7">
								<SimplePredicate field="hp" operator="greaterThan" value="192.5"/>
								<Node id="12" score="13.8">
									<SimplePredicate field="qsec" operator="lessOrEqual" value="16.83"/>
								</Node>
								<Node id="13" score="10.4">
									<SimplePredicate field="qsec" operator="greaterThan" value="16.83"/>
								</Node>
							</Node>
						</Node>
					</Node>
				</TreeModel>
			</Segment>
			<Segment id="21">
				<True/>
				<TreeModel functionName="regression" missingValueStrategy="nullPrediction" splitCharacteristic="binarySplit">
					<MiningSchema>
						<MiningField name="disp"/>
						<MiningField name="hp"/>
						<MiningField name="drat"/>
						<MiningField name="wt"/>
						<MiningField name="qsec"/>
						<MiningField name="carb"/>
					</MiningSchema>
					<Node id="1">
						<True/>
						<Node id="2">
							<SimplePredicate field="hp" operator="lessOrEqual" value="96.0"/>
							<Node id="4" score="29.366666666666667">
								<SimplePredicate field="disp" operator="lessOrEqual" value="99.65"/>
							</Node>
							<Node id="5" score="23.76">
								<SimplePredicate field="disp" operator="greaterThan" value="99.65"/>
							</Node>
						</Node>
						<Node id="3">
							<SimplePredicate field="hp" operator="greaterThan" value="96.0"/>
							<Node id="6">
								<SimplePredicate field="wt" operator="lessOrEqual" value="3.325"/>
								<Node id="8" score="19.7">
									<SimplePredicate field="qsec" operator="lessOrEqual" value="15.98"/>
								</Node>
								<Node id="9">
									<SimplePredicate field="qsec" operator="greaterThan" value="15.98"/>
									<Node id="12" score="21.45">
										<SimplePredicate field="drat" operator="lessOrEqual" value="3.8"/>
									</Node>
									<Node id="13" score="21.1">
										<SimplePredicate field="drat" operator="greaterThan" value="3.8"/>
									</Node>
								</Node>
							</Node>
							<Node id="7">
								<SimplePredicate field="wt" operator="greaterThan" value="3.325"/>
								<Node id="10">
									<SimplePredicate field="disp" operator="lessOrEqual" value="430.0"/>
									<Node id="14">
										<SimplePredicate field="wt" operator="lessOrEqual" value="3.5149999999999997"/>
										<Node id="16" score="15.2">
											<SimplePredicate field="wt" operator="lessOrEqual" value="3.4375"/>
										</Node>
										<Node id="17">
											<SimplePredicate field="wt" operator="greaterThan" value="3.4375"/>
											<Node id="20">
												<SimplePredicate field="hp" operator="lessOrEqual" value="149.0"/>
												<Node id="24" score="19.2">
													<SimplePredicate field="qsec" operator="lessOrEqual" value="18.6"/>
												</Node>
												<Node id="25" score="17.92">
													<SimplePredicate field="qsec" operator="greaterThan" value="18.6"/>
												</Node>
											</Node>
											<Node id="21" score="18.7">
												<SimplePredicate field="hp" operator="greaterThan" value="149.0"/>
											</Node>
										</Node>
									</Node>
									<Node id="15">
										<SimplePredicate field="wt" operator="greaterThan" value="3.5149999999999997"/>
										<Node id="18" score="19.2">
											<SimplePredicate field="carb" operator="lessOrEqual" value="2.5"/>
										</Node>
										<Node id="19">
											<SimplePredicate field="carb" operator="greaterThan" value="2.5"/>
											<Node id="22" score="15.899999999999999">
												<SimplePredicate field="disp" operator="lessOrEqual" value="312.9"/>
											</Node>
											<Node id="23" score="13.966666666666669">
												<SimplePredicate field="disp" operator="greaterThan" value="312.9"/>
											</Node>
										</Node>
									</Node>
								</Node>
								<Node id="11" score="10.4">
									<SimplePredicate field="disp" operator="greaterThan" value="430.0"/>
								</Node>
							</Node>
						</Node>
					</Node>
				</TreeModel>
			</Segment>
			<Segment id="22">
				<True/>
				<TreeModel functionName="regression" missingValueStrategy="nullPrediction" splitCharacteristic="binarySplit">
					<MiningSchema>
						<MiningField name="disp"/>
						<MiningField name="qsec"/>
						<MiningField name="am"/>
						<MiningField name="carb"/>
					</MiningSchema>
					<Node id="1">
						<True/>
						<Node id="2">
							<SimplePredicate field="disp" operator="lessOrEqual" value="163.8"/>
							<Node id="4" score="29.725">
								<SimplePredicate field="disp" operator="lessOrEqual" value="93.5"/>
							</Node>
							<Node id="5">
								<SimplePredicate field="disp" operator="greaterThan" value="93.5"/>
								<Node id="8">
									<SimplePredicate field="qsec" operator="lessOrEqual" value="18.605"/>
									<Node id="12" score="21.16">
										<SimplePredicate field="carb" operator="lessOrEqual" value="5.0"/>
									</Node>
									<Node id="13" score="19.7">
										<SimplePredicate field="carb" operator="greaterThan" value="5.0"/>
									</Node>
								</Node>
								<Node id="9">
									<SimplePredicate field="qsec" operator="greaterThan" value="18.605"/>
									<Node id="14" score="22.15">
										<SimplePredicate field="carb" operator="lessOrEqual" value="1.5"/>
									</Node>
									<Node id="15" score="23.6">
										<SimplePredicate field="carb" operator="greaterThan" value="1.5"/>
									</Node>
								</Node>
							</Node>
						</Node>
						<Node id="3">
							<SimplePredicate field="disp" operator="greaterThan" value="163.8"/>
							<Node id="6">
								<SimplePredicate field="disp" operator="lessOrEqual" value="456.0"/>
								<Node id="10" score="18.92">
									<SimplePredicate field="disp" operator="lessOrEqual" value="279.5"/>
								</Node>
								<Node id="11">
									<SimplePredicate field="disp" operator="greaterThan" value="279.5"/>
									<Node id="16" score="16.1">
										<SimplePredicate field="am" operator="lessOrEqual" value="0.5"/>
									</Node>
									<Node id="17" score="15.533333333333335">
										<SimplePredicate field="am" operator="greaterThan" value="0.5"/>
									</Node>
								</Node>
							</Node>
							<Node id="7" score="10.4">
								<SimplePredicate field="disp" operator="greaterThan" value="456.0"/>
							</Node>
						</Node>
					</Node>
				</TreeModel>
			</Segment>
			<Segment id="23">
				<True/>
				<TreeModel functionName="regression" missingValueStrategy="nullPrediction" splitCharacteristic="binarySplit">
					<MiningSchema>
						<MiningField name="cyl"/>
						<MiningField name="disp"/>
						<MiningField name="hp"/>
						<MiningField name="drat"/>
					</MiningSchema>
					<Node id="1">
						<True/>
						<Node id="2" score="31.4">
							<SimplePredicate field="disp" operator="lessOrEqual" value="101.55"/>
						</Node>
						<Node id="3">
							<SimplePredicate field="disp" operator="greaterThan" value="101.55"/>
							<Node id="4">
								<SimplePredicate field="cyl" operator="lessOrEqual" value="7.0"/>
								<Node id="6" score="18.1">
									<SimplePredicate field="drat" operator="lessOrEqual" value="2.92"/>
								</Node>
								<Node id="7">
									<SimplePredicate field="drat" operator="greaterThan" value="2.92"/>
									<Node id="10">
										<SimplePredicate field="drat" operator="lessOrEqual" value="3.875"/>
										<Node id="16" score="22.8">
											<SimplePredicate field="hp" operator="lessOrEqual" value="101.5"/>
										</Node>
										<Node id="17" score="21.06">
											<SimplePredicate field="hp" operator="greaterThan" value="101.5"/>
										</Node>
									</Node>
									<Node id="11" score="20.55">
										<SimplePredicate field="drat" operator="greaterThan" value="3.875"/>
									</Node>
								</Node>
							</Node>
							<Node id="5">
								<SimplePredicate field="cyl" operator="greaterThan" value="7.0"/>
								<Node id="8">
									<SimplePredicate field="drat" operator="lessOrEqual" value="3.0"/>
									<Node id="12" score="15.5">
										<SimplePredicate field="drat" operator="lessOrEqual" value="2.8449999999999998"/>
									</Node>
									<Node id="13" score="10.4">
										<SimplePredicate field="drat" operator="greaterThan" value="2.8449999999999998"/>
									</Node>
								</Node>
								<Node id="9">
									<SimplePredicate field="drat" operator="greaterThan" value="3.0"/>
									<Node id="14" score="17.08">
										<SimplePredicate field="drat" operator="lessOrEqual" value="3.115"/>
									</Node>
									<Node id="15" score="13.96">
										<SimplePredicate field="drat" operator="greaterThan" value="3.115"/>
									</Node>
								</Node>
							</Node>
						</Node>
					</Node>
				</TreeModel>
			</Segment>
			<Segment id="24">
				<True/>
				<TreeModel functionName="regression" missingValueStrategy="nullPrediction" splitCharacteristic="binarySplit">
					<MiningSchema>
						<MiningField name="cyl"/>
						<MiningField name="disp"/>
						<MiningField name="hp"/>
						<MiningField name="wt"/>
						<MiningField name="qsec"/>
						<MiningField name="vs"/>
						<MiningField name="am"/>
					</MiningSchema>
					<Node id="1">
						<True/>
						<Node id="2">
							<SimplePredicate field="disp" operator="lessOrEqual" value="163.8"/>
							<Node id="4">
								<SimplePredicate field="vs" operator="lessOrEqual" value="0.5"/>
								<Node id="8" score="19.7">
									<SimplePredicate field="qsec" operator="lessOrEqual" value="15.98"/>
								</Node>
								<Node id="9" score="21.0">
									<SimplePredicate field="qsec" operator="greaterThan" value="15.98"/>
								</Node>
							</Node>
							<Node id="5">
								<SimplePredicate field="vs" operator="greaterThan" value="0.5"/>
								<Node id="10" score="30.53333333333333">
									<SimplePredicate field="wt" operator="lessOrEqual" value="2.2"/>
								</Node>
								<Node id="11" score="22.6">
									<SimplePredicate field="wt" operator="greaterThan" value="2.2"/>
								</Node>
							</Node>
						</Node>
						<Node id="3">
							<SimplePredicate field="disp" operator="greaterThan" value="163.8"/>
							<Node id="6">
								<SimplePredicate field="hp" operator="lessOrEqual" value="192.5"/>
								<Node id="12" score="19.0">
									<SimplePredicate field="cyl" operator="lessOrEqual" value="7.0"/>
								</Node>
								<Node id="13">
									<SimplePredicate field="cyl" operator="greaterThan" value="7.0"/>
									<Node id="16" score="16.1">
										<SimplePredicate field="disp" operator="lessOrEqual" value="339.0"/>
									</Node>
									<Node id="17" score="18.95">
										<SimplePredicate field="disp" operator="greaterThan" value="339.0"/>
									</Node>
								</Node>
							</Node>
							<Node id="7">
								<SimplePredicate field="hp" operator="greaterThan" value="192.5"/>
								<Node id="14" score="12.340000000000002">
									<SimplePredicate field="am" operator="lessOrEqual" value="0.5"/>
								</Node>
								<Node id="15" score="15.0">
									<SimplePredicate field="am" operator="greaterThan" value="0.5"/>
								</Node>
							</Node>
						</Node>
					</Node>
				</TreeModel>
			</Segment>
			<Segment id="25">
				<True/>
				<TreeModel functionName="regression" missingValueStrategy="nullPrediction" splitCharacteristic="binarySplit">
					<MiningSchema>
						<MiningField name="disp"/>
						<MiningField name="drat"/>
						<MiningField name="wt"/>
						<MiningField name="gear"/>
						<MiningField name="carb"/>
					</MiningSchema>
					<Node id="1">
						<True/>
						<Node id="2">
							<SimplePredicate field="drat" operator="lessOrEqual" value="3.6550000000000002"/>
							<Node id="4">
								<SimplePredicate field="disp" operator="lessOrEqual" value="456.0"/>
								<Node id="8" score="18.9">
									<SimplePredicate field="wt" operator="lessOrEqual" value="3.48"/>
								</Node>
								<Node id="9">
									<SimplePredicate field="wt" operator="greaterThan" value="3.48"/>
									<Node id="12">
										<SimplePredicate field="drat" operator="lessOrEqual" value="3.145"/>
										<Node id="16" score="16.0">
											<SimplePredicate field="wt" operator="lessOrEqual" value="3.8125"/>
										</Node>
										<Node id="17" score="18.266666666666666">
											<SimplePredicate field="wt" operator="greaterThan" value="3.8125"/>
										</Node>
									</Node>
									<Node id="13" score="14.433333333333334">
										<SimplePredicate field="drat" operator="greaterThan" value="3.145"/>
									</Node>
								</Node>
							</Node>
							<Node id="5" score="10.4">
								<SimplePredicate field="disp" operator="greaterThan" value="456.0"/>
							</Node>
						</Node>
						<Node id="3">
							<SimplePredicate field="drat" operator="greaterThan" value="3.6550000000000002"/>
							<Node id="6">
								<SimplePredicate field="gear" operator="lessOrEqual" value="4.5"/>
								<Node id="10" score="30.4">
									<SimplePredicate field="disp" operator="lessOrEqual" value="91.85"/>
								</Node>
								<Node id="11">
									<SimplePredicate field="disp" operator="greaterThan" value="91.85"/>
									<Node id="14">
										<SimplePredicate field="carb" operator="lessOrEqual" value="3.0"/>
										<Node id="18">
											<SimplePredicate field="wt" operator="lessOrEqual" value="3.17"/>
											<Node id="20" score="22.8">
												<SimplePredicate field="drat" operator="lessOrEqual" value="4.015000000000001"/>
											</Node>
											<Node id="21" score="21.4">
												<SimplePredicate field="drat" operator="greaterThan" value="4.015000000000001"/>
											</Node>
										</Node>
										<Node id="19" score="24.4">
											<SimplePredicate field="wt" operator="greaterThan" value="3.17"/>
										</Node>
									</Node>
									<Node id="15" score="20.1">
										<SimplePredicate field="carb" operator="greaterThan" value="3.0"/>
									</Node>
								</Node>
							</Node>
							<Node id="7" score="28.2">
								<SimplePredicate field="gear" operator="greaterThan" value="4.5"/>
							</Node>
						</Node>
					</Node>
				</TreeModel>
			</Segment>
			<Segment id="26">
				<True/>
				<TreeModel functionName="regression" missingValueStrategy="nullPrediction" splitCharacteristic="binarySplit">
					<MiningSchema>
						<MiningField name="cyl"/>
						<MiningField name="disp"/>
						<MiningField name="hp"/>
						<MiningField name="drat"/>
						<MiningField name="wt"/>
						<MiningField name="gear"/>
					</MiningSchema>
					<Node id="1">
						<True/>
						<Node id="2">
							<SimplePredicate field="gear" operator="lessOrEqual" value="3.5"/>
							<Node id="4">
								<SimplePredicate field="disp" operator="lessOrEqual" value="450.0"/>
								<Node id="8">
									<SimplePredicate field="drat" operator="lessOrEqual" value="3.19"/>
									<Node id="12" score="19.2">
										<SimplePredicate field="hp" operator="lessOrEqual" value="130.0"/>
									</Node>
									<Node id="13">
										<SimplePredicate field="hp" operator="greaterThan" value="130.0"/>
										<Node id="16" score="15.2">
											<SimplePredicate field="wt" operator="lessOrEqual" value="3.4375"/>
										</Node>
										<Node id="17">
											<SimplePredicate field="wt" operator="greaterThan" value="3.4375"/>
											<Node id="18" score="15.5">
												<SimplePredicate field="drat" operator="lessOrEqual" value="2.955"/>
											</Node>
											<Node id="19" score="18.7">
												<SimplePredicate field="drat" operator="greaterThan" value="2.955"/>
											</Node>
										</Node>
									</Node>
								</Node>
								<Node id="9" score="14.233333333333334">
									<SimplePredicate field="drat" operator="greaterThan" value="3.19"/>
								</Node>
							</Node>
							<Node id="5" score="10.4">
								<SimplePredicate field="disp" operator="greaterThan" value="450.0"/>
							</Node>
						</Node>
						<Node id="3">
							<SimplePredicate field="gear" operator="greaterThan" value="3.5"/>
							<Node id="6" score="28.46">
								<SimplePredicate field="disp" operator="lessOrEqual" value="120.65"/>
							</Node>
							<Node id="7">
								<SimplePredicate field="disp" operator="greaterThan" value="120.65"/>
								<Node id="10">
									<SimplePredicate field="cyl" operator="lessOrEqual" value="7.0"/>
									<Node id="14" score="23.224999999999998">
										<SimplePredicate field="drat" operator="lessOrEqual" value="3.795"/>
									</Node>
									<Node id="15" score="20.52">
										<SimplePredicate field="drat" operator="greaterThan" value="3.795"/>
									</Node>
								</Node>
								<Node id="11" score="15.4">
									<SimplePredicate field="cyl" operator="greaterThan" value="7.0"/>
								</Node>
							</Node>
						</Node>
					</Node>
				</TreeModel>
			</Segment>
			<Segment id="27">
				<True/>
				<TreeModel functionName="regression" missingValueStrategy="nullPrediction" splitCharacteristic="binarySplit">
					<MiningSchema>
						<MiningField name="cyl"/>
						<MiningField name="disp"/>
						<MiningField name="hp"/>
						<MiningField name="drat"/>
						<MiningField name="wt"/>
						<MiningField name="qsec"/>
						<MiningField name="vs"/>
						<MiningField name="gear"/>
					</MiningSchema>
					<Node id="1">
						<True/>
						<Node id="2">
							<SimplePredicate field="gear" operator="lessOrEqual" value="3.5"/>
							<Node id="4" score="21.5">
								<SimplePredicate field="disp" operator="lessOrEqual" value="197.95"/>
							</Node>
							<Node id="5">
								<SimplePredicate field="disp" operator="greaterThan" value="197.95"/>
								<Node id="8">
									<SimplePredicate field="disp" operator="lessOrEqual" value="450.0"/>
									<Node id="14">
										<SimplePredicate field="drat" operator="lessOrEqual" value="3.11"/>
										<Node id="20" score="16.55">
											<SimplePredicate field="disp" operator="lessOrEqual" value="296.9"/>
										</Node>
										<Node id="21" score="15.5">
											<SimplePredicate field="disp" operator="greaterThan" value="296.9"/>
										</Node>
									</Node>
									<Node id="15" score="14.95">
										<SimplePredicate field="drat" operator="greaterThan" value="3.11"/>
									</Node>
								</Node>
								<Node id="9" score="10.4">
									<SimplePredicate field="disp" operator="greaterThan" value="450.0"/>
								</Node>
							</Node>
						</Node>
						<Node id="3">
							<SimplePredicate field="gear" operator="greaterThan" value="3.5"/>
							<Node id="6">
								<SimplePredicate field="hp" operator="lessOrEqual" value="78.5"/>
								<Node id="10" score="33.15">
									<SimplePredicate field="drat" operator="lessOrEqual" value="4.574999999999999"/>
								</Node>
								<Node id="11" score="30.4">
									<SimplePredicate field="drat" operator="greaterThan" value="4.574999999999999"/>
								</Node>
							</Node>
							<Node id="7">
								<SimplePredicate field="hp" operator="greaterThan" value="78.5"/>
								<Node id="12">
									<SimplePredicate field="disp" operator="lessOrEqual" value="120.65"/>
									<Node id="16" score="30.4">
										<SimplePredicate field="wt" operator="lessOrEqual" value="1.8265"/>
									</Node>
									<Node id="17" score="25.36">
										<SimplePredicate field="wt" operator="greaterThan" value="1.8265"/>
									</Node>
								</Node>
								<Node id="13">
									<SimplePredicate field="disp" operator="greaterThan" value="120.65"/>
									<Node id="18">
										<SimplePredicate field="cyl" operator="lessOrEqual" value="7.0"/>
										<Node id="22">
											<SimplePredicate field="qsec" operator="lessOrEqual" value="20.75"/>
											<Node id="24" score="21.0">
												<SimplePredicate field="vs" operator="lessOrEqual" value="0.5"/>
											</Node>
											<Node id="25" score="20.299999999999997">
												<SimplePredicate field="vs" operator="greaterThan" value="0.5"/>
											</Node>
										</Node>
										<Node id="23" score="22.8">
											<SimplePredicate field="qsec" operator="greaterThan" value="20.75"/>
										</Node>
									</Node>
									<Node id="19" score="15.0">
										<SimplePredicate field="cyl" operator="greaterThan" value="7.0"/>
									</Node>
								</Node>
							</Node>
						</Node>
					</Node>
				</TreeModel>
			</Segment>
			<Segment id="28">
				<True/>
				<TreeModel functionName="regression" missingValueStrategy="nullPrediction" splitCharacteristic="binarySplit">
					<MiningSchema>
						<MiningField name="disp"/>
						<MiningField name="hp"/>
						<MiningField name="drat"/>
						<MiningField name="wt"/>
						<MiningField name="qsec"/>
						<MiningField name="am"/>
					</MiningSchema>
					<Node id="1">
						<True/>
						<Node id="2">
							<SimplePredicate field="disp" operator="lessOrEqual" value="101.55"/>
							<Node id="4" score="32.733333333333334">
								<SimplePredicate field="hp" operator="lessOrEqual" value="65.5"/>
							</Node>
							<Node id="5" score="29.35">
								<SimplePredicate field="hp" operator="greaterThan" value="65.5"/>
							</Node>
						</Node>
						<Node id="3">
							<SimplePredicate field="disp" operator="greaterThan" value="101.55"/>
							<Node id="6">
								<SimplePredicate field="disp" operator="lessOrEqual" value="266.9"/>
								<Node id="8">
									<SimplePredicate field="drat" operator="lessOrEqual" value="4.175"/>
									<Node id="12">
										<SimplePredicate field="wt" operator="lessOrEqual" value="3.3274999999999997"/>
										<Node id="16" score="20.549999999999997">
											<SimplePredicate field="drat" operator="lessOrEqual" value="3.66"/>
										</Node>
										<Node id="17">
											<SimplePredicate field="drat" operator="greaterThan" value="3.66"/>
											<Node id="20" score="21.0">
												<SimplePredicate field="qsec" operator="lessOrEqual" value="17.814999999999998"/>
											</Node>
											<Node id="21" score="22.02">
												<SimplePredicate field="qsec" operator="greaterThan" value="17.814999999999998"/>
											</Node>
										</Node>
									</Node>
									<Node id="13" score="17.950000000000003">
										<SimplePredicate field="wt" operator="greaterThan" value="3.3274999999999997"/>
									</Node>
								</Node>
								<Node id="9" score="26.0">
									<SimplePredicate field="drat" operator="greaterThan" value="4.175"/>
								</Node>
							</Node>
							<Node id="7">
								<SimplePredicate field="disp" operator="greaterThan" value="266.9"/>
								<Node id="10">
									<SimplePredicate field="disp" operator="lessOrEqual" value="410.0"/>
									<Node id="14" score="16.766666666666666">
										<SimplePredicate field="wt" operator="lessOrEqual" value="3.48"/>
									</Node>
									<Node id="15">
										<SimplePredicate field="wt" operator="greaterThan" value="3.48"/>
										<Node id="18">
											<SimplePredicate field="am" operator="lessOrEqual" value="0.5"/>
											<Node id="22" score="13.966666666666669">
												<SimplePredicate field="qsec" operator="lessOrEqual" value="16.355"/>
											</Node>
											<Node id="23" score="15.7">
												<SimplePredicate field="qsec" operator="greaterThan" value="16.355"/>
											</Node>
										</Node>
										<Node id="19" score="15.0">
											<SimplePredicate field="am" operator="greaterThan" value="0.5"/>
										</Node>
									</Node>
								</Node>
								<Node id="11" score="10.4">
									<SimplePredicate field="disp" operator="greaterThan" value="410.0"/>
								</Node>
							</Node>
						</Node>
					</Node>
				</TreeModel>
			</Segment>
			<Segment id="29">
				<True/>
				<TreeModel functionName="regression" missingValueStrategy="nullPrediction" splitCharacteristic="binarySplit">
					<MiningSchema>
						<MiningField name="cyl"/>
						<MiningField name="disp"/>
						<MiningField name="hp"/>
						<MiningField name="wt"/>
						<MiningField name="qsec"/>
						<MiningField name="gear"/>
					</MiningSchema>
					<Node id="1">
						<True/>
						<Node id="2">
							<SimplePredicate field="gear" operator="lessOrEqual" value="3.5"/>
							<Node id="4">
								<SimplePredicate field="wt" operator="lessOrEqual" value="3.8099999999999996"/>
								<Node id="8" score="21.4">
									<SimplePredicate field="disp" operator="lessOrEqual" value="266.9"/>
								</Node>
								<Node id="9">
									<SimplePredicate field="disp" operator="greaterThan" value="266.9"/>
									<Node id="14" score="14.9">
										<SimplePredicate field="qsec" operator="lessOrEqual" value="16.945"/>
									</Node>
									<Node id="15">
										<SimplePredicate field="qsec" operator="greaterThan" value="16.945"/>
										<Node id="18" score="15.2">
											<SimplePredicate field="hp" operator="lessOrEqual" value="162.5"/>
										</Node>
										<Node id="19" score="17.44">
											<SimplePredicate field="hp" operator="greaterThan" value="162.5"/>
										</Node>
									</Node>
								</Node>
							</Node>
							<Node id="5">
								<SimplePredicate field="wt" operator="greaterThan" value="3.8099999999999996"/>
								<Node id="10" score="13.3">
									<SimplePredicate field="wt" operator="lessOrEqual" value="4.545"/>
								</Node>
								<Node id="11" score="10.4">
									<SimplePredicate field="wt" operator="greaterThan" value="4.545"/>
								</Node>
							</Node>
						</Node>
						<Node id="3">
							<SimplePredicate field="gear" operator="greaterThan" value="3.5"/>
							<Node id="6">
								<SimplePredicate field="cyl" operator="lessOrEqual" value="5.0"/>
								<Node id="12">
									<SimplePredicate field="qsec" operator="lessOrEqual" value="18.560000000000002"/>
									<Node id="16" score="26.0">
										<SimplePredicate field="qsec" operator="lessOrEqual" value="16.799999999999997"/>
									</Node>
									<Node id="17" score="30.4">
										<SimplePredicate field="qsec" operator="greaterThan" value="16.799999999999997"/>
									</Node>
								</Node>
								<Node id="13" score="23.975">
									<SimplePredicate field="qsec" operator="greaterThan" value="18.560000000000002"/>
								</Node>
							</Node>
							<Node id="7" score="18.9">
								<SimplePredicate field="cyl" operator="greaterThan" value="5.0"/>
							</Node>
						</Node>
					</Node>
				</TreeModel>
			</Segment>
			<Segment id="30">
				<True/>
				<TreeModel functionName="regression" missingValueStrategy="nullPrediction" splitCharacteristic="binarySplit">
					<MiningSchema>
						<MiningField name="cyl"/>
						<MiningField name="disp"/>
						<MiningField name="wt"/>
						<MiningField name="gear"/>
						<MiningField name="carb"/>
					</MiningSchema>
					<Node id="1">
						<True/>
						<Node id="2">
							<SimplePredicate field="cyl" operator="lessOrEqual" value="5.0"/>
							<Node id="4">
								<SimplePredicate field="disp" operator="lessOrEqual" value="101.55"/>
								<Node id="8" score="31.18">
									<SimplePredicate field="gear" operator="lessOrEqual" value="4.5"/>
								</Node>
								<Node id="9" score="30.4">
									<SimplePredicate field="gear" operator="greaterThan" value="4.5"/>
								</Node>
							</Node>
							<Node id="5" score="24.4">
								<SimplePredicate field="disp" operator="greaterThan" value="101.55"/>
							</Node>
						</Node>
						<Node id="3">
							<SimplePredicate field="cyl" operator="greaterThan" value="5.0"/>
							<Node id="6" score="20.833333333333332">
								<SimplePredicate field="disp" operator="lessOrEqual" value="266.9"/>
							</Node>
							<Node id="7">
								<SimplePredicate field="disp" operator="greaterThan" value="266.9"/>
								<Node id="10">
									<SimplePredicate field="carb" operator="lessOrEqual" value="3.5"/>
									<Node id="12">
										<SimplePredicate field="carb" operator="lessOrEqual" value="2.5"/>
										<Node id="16" score="16.08">
											<SimplePredicate field="wt" operator="lessOrEqual" value="3.6825"/>
										</Node>
										<Node id="17" score="19.2">
											<SimplePredicate field="wt" operator="greaterThan" value="3.6825"/>
										</Node>
									</Node>
									<Node id="13" score="15.799999999999999">
										<SimplePredicate field="carb" operator="greaterThan" value="2.5"/>
									</Node>
								</Node>
								<Node id="11">
									<SimplePredicate field="carb" operator="greaterThan" value="3.5"/>
									<Node id="14">
										<SimplePredicate field="wt" operator="lessOrEqual" value="5.3845"/>
										<Node id="18" score="15.0">
											<SimplePredicate field="disp" operator="lessOrEqual" value="330.5"/>
										</Node>
										<Node id="19" score="14.566666666666666">
											<SimplePredicate field="disp" operator="greaterThan" value="330.5"/>
										</Node>
									</Node>
									<Node id="15" score="10.4">
										<SimplePredicate field="wt" operator="greaterThan" value="5.3845"/>
									</Node>
								</Node>
							</Node>
						</Node>
					</Node>
				</TreeModel>
			</Segment>
			<Segment id="31">
				<True/>
				<TreeModel functionName="regression" missingValueStrategy="nullPrediction" splitCharacteristic="binarySplit">
					<MiningSchema>
						<MiningField name="cyl"/>
						<MiningField name="disp"/>
						<MiningField name="hp"/>
						<MiningField name="wt"/>
						<MiningField name="qsec"/>
					</MiningSchema>
					<Node id="1">
						<True/>
						<Node id="2">
							<SimplePredicate field="disp" operator="lessOrEqual" value="120.65"/>
							<Node id="4" score="31.566666666666663">
								<SimplePredicate field="hp" operator="lessOrEqual" value="78.0"/>
							</Node>
							<Node id="5" score="27.4">
								<SimplePredicate field="hp" operator="greaterThan" value="78.0"/>
							</Node>
						</Node>
						<Node id="3">
							<SimplePredicate field="disp" operator="greaterThan" value="120.65"/>
							<Node id="6">
								<SimplePredicate field="hp" operator="lessOrEqual" value="136.5"/>
								<Node id="8" score="21.866666666666667">
									<SimplePredicate field="cyl" operator="lessOrEqual" value="5.0"/>
								</Node>
								<Node id="9">
									<SimplePredicate field="cyl" operator="greaterThan" value="5.0"/>
									<Node id="12" score="21.0">
										<SimplePredicate field="disp" operator="lessOrEqual" value="163.8"/>
									</Node>
									<Node id="13" score="18.366666666666667">
										<SimplePredicate field="disp" operator="greaterThan" value="163.8"/>
									</Node>
								</Node>
							</Node>
							<Node id="7">
								<SimplePredicate field="hp" operator="greaterThan" value="136.5"/>
								<Node id="10">
									<SimplePredicate field="qsec" operator="lessOrEqual" value="17.560000000000002"/>
									<Node id="14">
										<SimplePredicate field="qsec" operator="lessOrEqual" value="16.445"/>
										<Node id="16">
											<SimplePredicate field="wt" operator="lessOrEqual" value="3.705"/>
											<Node id="18" score="15.8">
												<SimplePredicate field="wt" operator="lessOrEqual" value="3.37"/>
											</Node>
											<Node id="19" score="14.86">
												<SimplePredicate field="wt" operator="greaterThan" value="3.37"/>
											</Node>
										</Node>
										<Node id="17" score="13.3">
											<SimplePredicate field="wt" operator="greaterThan" value="3.705"/>
										</Node>
									</Node>
									<Node id="15" score="16.2">
										<SimplePredicate field="qsec" operator="greaterThan" value="16.445"/>
									</Node>
								</Node>
								<Node id="11" score="10.4">
									<SimplePredicate field="qsec" operator="greaterThan" value="17.560000000000002"/>
								</Node>
							</Node>
						</Node>
					</Node>
				</TreeModel>
			</Segment>
			<Segment id="32">
				<True/>
				<TreeModel functionName="regression" missingValueStrategy="nullPrediction" splitCharacteristic="binarySplit">
					<MiningSchema>
						<MiningField name="cyl"/>
						<MiningField name="disp"/>
						<MiningField name="hp"/>
						<MiningField name="wt"/>
						<MiningField name="qsec"/>
						<MiningField name="vs"/>
						<MiningField name="am"/>
						<MiningField name="gear"/>
					</MiningSchema>
					<Node id="1">
						<True/>
						<Node id="2">
							<SimplePredicate field="hp" operator="lessOrEqual" value="100.0"/>
							<Node id="4" score="23.333333333333332">
								<SimplePredicate field="am" operator="lessOrEqual" value="0.5"/>
							</Node>
							<Node id="5">
								<SimplePredicate field="am" operator="greaterThan" value="0.5"/>
								<Node id="8" score="26.0">
									<SimplePredicate field="vs" operator="lessOrEqual" value="0.5"/>
								</Node>
								<Node id="9" score="27.825">
									<SimplePredicate field="vs" operator="greaterThan" value="0.5"/>
								</Node>
							</Node>
						</Node>
						<Node id="3">
							<SimplePredicate field="hp" operator="greaterThan" value="100.0"/>
							<Node id="6">
								<SimplePredicate field="cyl" operator="lessOrEqual" value="7.0"/>
								<Node id="10" score="21.1">
									<SimplePredicate field="wt" operator="lessOrEqual" value="3.3274999999999997"/>
								</Node>
								<Node id="11">
									<SimplePredicate field="wt" operator="greaterThan" value="3.3274999999999997"/>
									<Node id="14" score="19.2">
										<SimplePredicate field="qsec" operator="lessOrEqual" value="18.6"/>
									</Node>
									<Node id="15" score="17.92">
										<SimplePredicate field="qsec" operator="greaterThan" value="18.6"/>
									</Node>
								</Node>
							</Node>
							<Node id="7">
								<SimplePredicate field="cyl" operator="greaterThan" value="7.0"/>
								<Node id="12" score="16.6">
									<SimplePredicate field="disp" operator="lessOrEqual" value="289.9"/>
								</Node>
								<Node id="13">
									<SimplePredicate field="disp" operator="greaterThan" value="289.9"/>
									<Node id="16" score="14.52">
										<SimplePredicate field="gear" operator="lessOrEqual" value="4.0"/>
									</Node>
									<Node id="17" score="15.8">
										<SimplePredicate field="gear" operator="greaterThan" value="4.0"/>
									</Node>
								</Node>
							</Node>
						</Node>
					</Node>
				</TreeModel>
			</Segment>
			<Segment id="33">
				<True/>
				<TreeModel functionName="regression" missingValueStrategy="nullPrediction" splitCharacteristic="binarySplit">
					<MiningSchema>
						<MiningField name="cyl"/>
						<MiningField name="disp"/>
						<MiningField name="hp"/>
						<MiningField name="wt"/>
						<MiningField name="carb"/>
					</MiningSchema>
					<Node id="1">
						<True/>
						<Node id="2">
							<SimplePredicate field="hp" operator="lessOrEqual" value="93.0"/>
							<Node id="4" score="32.9">
								<SimplePredicate field="disp" operator="lessOrEqual" value="78.85"/>
							</Node>
							<Node id="5" score="26.2">
								<SimplePredicate field="disp" operator="greaterThan" value="78.85"/>
							</Node>
						</Node>
						<Node id="3">
							<SimplePredicate field="hp" operator="greaterThan" value="93.0"/>
							<Node id="6">
								<SimplePredicate field="cyl" operator="lessOrEqual" value="7.0"/>
								<Node id="8">
									<SimplePredicate field="hp" operator="lessOrEqual" value="116.5"/>
									<Node id="12" score="21.424999999999997">
										<SimplePredicate field="disp" operator="lessOrEqual" value="130.9"/>
									</Node>
									<Node id="13" score="22.1">
										<SimplePredicate field="disp" operator="greaterThan" value="130.9"/>
									</Node>
								</Node>
								<Node id="9" score="18.266666666666666">
									<SimplePredicate field="hp" operator="greaterThan" value="116.5"/>
								</Node>
							</Node>
							<Node id="7">
								<SimplePredicate field="cyl" operator="greaterThan" value="7.0"/>
								<Node id="10">
									<SimplePredicate field="carb" operator="lessOrEqual" value="2.5"/>
									<Node id="14" score="15.3">
										<SimplePredicate field="hp" operator="lessOrEqual" value="162.5"/>
									</Node>
									<Node id="15" score="18.7">
										<SimplePredicate field="hp" operator="greaterThan" value="162.5"/>
									</Node>
								</Node>
								<Node id="11">
									<SimplePredicate field="carb" operator="greaterThan" value="2.5"/>
									<Node id="16" score="15.766666666666666">
										<SimplePredicate field="wt" operator="lessOrEqual" value="3.755"/>
									</Node>
									<Node id="17" score="14.95">
										<SimplePredicate field="wt" operator="greaterThan" value="3.755"/>
									</Node>
								</Node>
							</Node>
						</Node>
					</Node>
				</TreeModel>
			</Segment>
			<Segment id="34">
				<True/>
				<TreeModel functionName="regression" missingValueStrategy="nullPrediction" splitCharacteristic="binarySplit">
					<MiningSchema>
						<MiningField name="cyl"/>
						<MiningField name="disp"/>
						<MiningField name="hp"/>
						<MiningField name="wt"/>
						<MiningField name="qsec"/>
						<MiningField name="carb"/>
					</MiningSchema>
					<Node id="1">
						<True/>
						<Node id="2">
							<SimplePredicate field="cyl" operator="lessOrEqual" value="5.0"/>
							<Node id="4" score="29.86">
								<SimplePredicate field="wt" operator="lessOrEqual" value="2.2"/>
							</Node>
							<Node id="5" score="22.433333333333334">
								<SimplePredicate field="wt" operator="greaterThan" value="2.2"/>
							</Node>
						</Node>
						<Node id="3">
							<SimplePredicate field="cyl" operator="greaterThan" value="5.0"/>
							<Node id="6">
								<SimplePredicate field="cyl" operator="lessOrEqual" value="7.0"/>
								<Node id="8">
									<SimplePredicate field="qsec" operator="lessOrEqual" value="19.83"/>
									<Node id="12" score="21.133333333333333">
										<SimplePredicate field="hp" operator="lessOrEqual" value="116.5"/>
									</Node>
									<Node id="13" score="19.366666666666667">
										<SimplePredicate field="hp" operator="greaterThan" value="116.5"/>
									</Node>
								</Node>
								<Node id="9" score="18.1">
									<SimplePredicate field="qsec" operator="greaterThan" value="19.83"/>
								</Node>
							</Node>
							<Node id="7">
								<SimplePredicate field="cyl" operator="greaterThan" value="7.0"/>
								<Node id="10">
									<SimplePredicate field="disp" operator="lessOrEqual" value="405.5"/>
									<Node id="14">
										<SimplePredicate field="carb" operator="lessOrEqual" value="3.5"/>
										<Node id="16" score="15.274999999999999">
											<SimplePredicate field="qsec" operator="lessOrEqual" value="17.35"/>
										</Node>
										<Node id="17" score="16.349999999999998">
											<SimplePredicate field="qsec" operator="greaterThan" value="17.35"/>
										</Node>
									</Node>
									<Node id="15" score="14.7">
										<SimplePredicate field="carb" operator="greaterThan" value="3.5"/>
									</Node>
								</Node>
								<Node id="11" score="10.4">
									<SimplePredicate field="disp" operator="greaterThan" value="405.5"/>
								</Node>
							</Node>
						</Node>
					</Node>
				</TreeModel>
			</Segment>
			<Segment id="35">
				<True/>
				<TreeModel functionName="regression" missingValueStrategy="nullPrediction" splitCharacteristic="binarySplit">
					<MiningSchema>
						<MiningField name="cyl"/>
						<MiningField name="disp"/>
						<MiningField name="drat"/>
						<MiningField name="wt"/>
						<MiningField name="qsec"/>
						<MiningField name="gear"/>
						<MiningField name="carb"/>
					</MiningSchema>
					<Node id="1">
						<True/>
						<Node id="2">
							<SimplePredicate field="cyl" operator="lessOrEqual" value="5.0"/>
							<Node id="4">
								<SimplePredicate field="drat" operator="lessOrEqual" value="4.0"/>
								<Node id="8" score="22.15">
									<SimplePredicate field="wt" operator="lessOrEqual" value="3.17"/>
								</Node>
								<Node id="9" score="24.4">
									<SimplePredicate field="wt" operator="greaterThan" value="3.17"/>
								</Node>
							</Node>
							<Node id="5">
								<SimplePredicate field="drat" operator="greaterThan" value="4.0"/>
								<Node id="10" score="32.6">
									<SimplePredicate field="disp" operator="lessOrEqual" value="78.85"/>
								</Node>
								<Node id="11" score="27.3">
									<SimplePredicate field="disp" operator="greaterThan" value="78.85"/>
								</Node>
							</Node>
						</Node>
						<Node id="3">
							<SimplePredicate field="cyl" operator="greaterThan" value="5.0"/>
							<Node id="6">
								<SimplePredicate field="disp" operator="lessOrEqual" value="450.0"/>
								<Node id="12">
									<SimplePredicate field="gear" operator="lessOrEqual" value="3.5"/>
									<Node id="14">
										<SimplePredicate field="carb" operator="lessOrEqual" value="3.5"/>
										<Node id="18">
											<SimplePredicate field="qsec" operator="lessOrEqual" value="19.11"/>
											<Node id="20" score="17.3">
												<SimplePredicate field="wt" operator="lessOrEqual" value="3.755"/>
											</Node>
											<Node id="21" score="15.68">
												<SimplePredicate field="wt" operator="greaterThan" value="3.755"/>
											</Node>
										</Node>
										<Node id="19" score="18.1">
											<SimplePredicate field="qsec" operator="greaterThan" value="19.11"/>
										</Node>
									</Node>
									<Node id="15" score="14.5">
										<SimplePredicate field="carb" operator="greaterThan" value="3.5"/>
									</Node>
								</Node>
								<Node id="13">
									<SimplePredicate field="gear" operator="greaterThan" value="3.5"/>
									<Node id="16" score="15.0">
										<SimplePredicate field="drat" operator="lessOrEqual" value="3.58"/>
									</Node>
									<Node id="17" score="19.1">
										<SimplePredicate field="drat" operator="greaterThan" value="3.58"/>
									</Node>
								</Node>
							</Node>
							<Node id="7" score="10.4">
								<SimplePredicate field="disp" operator="greaterThan" value="450.0"/>
							</Node>
						</Node>
					</Node>
				</TreeModel>
			</Segment>
			<Segment id="36">
				<True/>
				<TreeModel functionName="regression" missingValueStrategy="nullPrediction" splitCharacteristic="binarySplit">
					<MiningSchema>
						<MiningField name="disp"/>
						<MiningField name="hp"/>
						<MiningField name="wt"/>
						<MiningField name="carb"/>
					</MiningSchema>
					<Node id="1">
						<True/>
						<Node id="2">
							<SimplePredicate field="wt" operator="lessOrEqual" value="2.23"/>
							<Node id="4">
								<SimplePredicate field="wt" operator="lessOrEqual" value="1.885"/>
								<Node id="8" score="33.9">
									<SimplePredicate field="carb" operator="lessOrEqual" value="1.5"/>
								</Node>
								<Node id="9" score="30.4">
									<SimplePredicate field="carb" operator="greaterThan" value="1.5"/>
								</Node>
							</Node>
							<Node id="5" score="26.65">
								<SimplePredicate field="wt" operator="greaterThan" value="1.885"/>
							</Node>
						</Node>
						<Node id="3">
							<SimplePredicate field="wt" operator="greaterThan" value="2.23"/>
							<Node id="6">
								<SimplePredicate field="disp" operator="lessOrEqual" value="221.7"/>
								<Node id="10">
									<SimplePredicate field="disp" operator="lessOrEqual" value="163.8"/>
									<Node id="14" score="22.8">
										<SimplePredicate field="hp" operator="lessOrEqual" value="96.0"/>
									</Node>
									<Node id="15" score="21.18">
